tree
version=v4
num_class=1
num_tree_per_iteration=1
label_index=0
max_feature_idx=207
objective=regression
feature_names=n_samples n_features sample_mean sample_median sample_var sample_min sample_max sample_std q1 q25 q75 q99 iqr normalized_mean normalized_median sample_range sample_gini med_abs_dev avg_abs_dev quant_coeff_disp coeff_var percent_outliers_15iqr percent_outliers_3iqr percent_outliers_1_99 percent_outliers_3std has_outliers_15iqr has_outliers_3iqr has_outliers_1_99 has_outliers_3std normality_p_min normality_p_max normality_p_mean normality_p_std normality_p_skewness normality_p_kurtosis is_normal_5_min is_normal_5_max is_normal_5_mean is_normal_5_std is_normal_5_skewness is_normal_5_kurtosis is_normal_1_min is_normal_1_max is_normal_1_mean is_normal_1_std is_normal_1_skewness is_normal_1_kurtosis moment_5_min moment_5_max moment_5_mean moment_5_std moment_5_skewness moment_5_kurtosis moment_6_min moment_6_max moment_6_mean moment_6_std moment_6_skewness moment_6_kurtosis moment_7_min moment_7_max moment_7_mean moment_7_std moment_7_skewness moment_7_kurtosis moment_8_min moment_8_max moment_8_mean moment_8_std moment_8_skewness moment_8_kurtosis moment_9_min moment_9_max moment_9_mean moment_9_std moment_9_skewness moment_9_kurtosis moment_10_min moment_10_max moment_10_mean moment_10_std moment_10_skewness moment_10_kurtosis skewness_min skewness_max skewness_mean skewness_std skewness_skewness skewness_kurtosis kurtosis_min kurtosis_max kurtosis_mean kurtosis_std kurtosis_skewness kurtosis_kurtosis correlation_min correlation_max correlation_mean correlation_std correlation_skewness correlation_kurtosis covariance_min covariance_max covariance_mean covariance_std covariance_skewness covariance_kurtosis sparsity_min sparsity_max sparsity_mean sparsity_std sparsity_skewness sparsity_kurtosis anova_p_value_min anova_p_value_max anova_p_value_mean anova_p_value_std anova_p_value_skewness anova_p_value_kurtosis first_pca_std first_pca_skewness first_pca_kurtosis entropy_min entropy_max entropy_mean entropy_std entropy_skewness entropy_kurtosis HBOS_mean_min HBOS_mean_max HBOS_mean_mean HBOS_mean_std HBOS_mean_skewness HBOS_mean_kurtosis HBOS_max_min HBOS_max_max HBOS_max_mean HBOS_max_std HBOS_max_skewness HBOS_max_kurtosis HBOS_min_min HBOS_min_max HBOS_min_mean HBOS_min_std HBOS_min_skewness HBOS_min_kurtosis IForest_n_leaves_min IForest_n_leaves_max IForest_n_leaves_mean IForest_n_leaves_std IForest_n_leaves_skewness IForest_n_leaves_kurtosis IForest_n_depth_min IForest_n_depth_max IForest_n_depth_mean IForest_n_depth_std IForest_n_depth_skewness IForest_n_depth_kurtosis IForest_fi_mean_min IForest_fi_mean_max IForest_fi_mean_mean IForest_fi_mean_std IForest_fi_mean_skewness IForest_fi_mean_kurtosis IForest_fi_max_min IForest_fi_max_max IForest_fi_max_mean IForest_fi_max_std IForest_fi_max_skewness IForest_fi_max_kurtosis pca_expl_ratio_1 pca_expl_ratio_2 pca_expl_ratio_3 pca_sv_1 pca_sv_2 pca_sv_3 LODA_n_hists_mean_min LODA_n_hists_mean_max LODA_n_hists_mean_mean LODA_n_hists_mean_std LODA_n_hists_mean_skewness LODA_n_hists_mean_kurtosis LODA_n_hists_max_min LODA_n_hists_max_max LODA_n_hists_max_mean LODA_n_hists_max_std LODA_n_hists_max_skewness LODA_n_hists_max_kurtosis LODA_n_cuts_mean_min LODA_n_cuts_mean_max LODA_n_cuts_mean_mean LODA_n_cuts_mean_std LODA_n_cuts_mean_skewness LODA_n_cuts_mean_kurtosis LODA_n_cuts_max_min LODA_n_cuts_max_max LODA_n_cuts_max_mean LODA_n_cuts_max_std LODA_n_cuts_max_skewness LODA_n_cuts_max_kurtosis params_n_neighbors chebyshev euclidean manhattan minkowski MC SELECT HITS
feature_infos=[238:9931] none [-2.1372836695237414:2.8164465661574109e+29] [-2.1807174935186552e-14:1.6938693828648377e-14] [1.1879820049835159:2.9409929880753688e+63] [-834.57524416982255:-12.989023445242179] [4.1317037280876816:1.044420547657288e+34] [1.089945872501711:5.4230922803096105e+31] [-819.17907056009562:-11.246274252181394] [-352.70908322237017:-2.8534465599146421] [-41.009050292129679:-2.1224342185131193] [-20.474309858767857:-1.9500381138981635] [0.73101234140152282:334.20005692225891] [-0.13711495116061045:0.00073630880569650569] [-1.8103510239162748e-17:2.2676569195953388e-17] [31.906366237859388:1.044420547657288e+34] [0.0037045733749089512:0.9999851613470192] [0.43440228948916337:0.49291880459357362] [0.63962213592744643:5.6325893822362131e+29] [-0.90027950778629606:-0.14691114477073589] [-365.09844773976909:1.0442211201215443e+34] [0:12.479591836734693] [0:6.0214723926380369] [12.871578947368421:12.874564459930314] [0.0002013895881582922:0.20993788819875778] [0:1] [0:1] none none none [0:0.71404974251340159] [0:0.054926903270261659] [0:0.19027237433302863] [2.0120613351455043:3.1754264805429449] [0:8.0833333333333446] [0:1] none [0.76923076923076927:1] [0:0.42132504423474321] [-3.1754264805429422:0] [-0.36666666666666625:8.0833333333333357] [0:1] none [0.76923076923076927:1] [0:0.42132504423474321] [-3.1754264805429422:0] [-0.36666666666666625:8.0833333333333357] [-1957826796201.3152:-1185.1553817663357] [5.0490162255424149:4.3482438183662378e+166] [-48112638922.482597:3.3448029372047981e+165] [7352.3352632337364:1.7976931348623157e+308] [-3.1754264805307315:3.175426480542944] [0:8.0833333333333304] [8.9088493515025286e-09:146.87460308704016] [465764.28464168939:4.5398031325973151e+200] [44749.649696719964:3.4921562558440886e+199] [123115.55863496015:1.7976931348623157e+308] [0:3.1754264805429444] [0:8.0833333333333321] [-1.0284161350551517e+18:-169471.7081513654] [57.641279926064207:4.7398014793208617e+234] [-9728538086654860:3.6460011379391246e+233] [2124656.3499721815:1.7976931348623157e+308] [-3.1754264805429351:3.1754264805429417] [0:8.0833333333333393] [1.2525191612976572e-10:3290.7689760051449] [141324422.85869944:4.9486106351310259e+268] [12285397.450935809:3.8066235654854045e+267] [37390232.40626964:1.7976931348623157e+308] [0:3.1754264805429426] [0:8.0833333333333357] [-5.855218245223584e+23:-25768508.046315547] [764.96368805917382:5.166618755020253e+302] [-2.0897387242767387e+21:3.9743221192463485e+301] [668244883.03119624:1.7976931348623157e+308] [-3.1754264805429435:3.1754264805429413] [0:8.0833333333333393] [1.7610355206396781e-12:83291.596845390814] [45539485369.146759:1.7976931348623157e+308] [3747597079.1537752:1.7976931348623157e+308] [0:1.7976931348623157e+308] [0:3.1754264805429422] [0:8.0833333333333357] [-21.136411689271302:-3.9761526855881111] [1.2403610207247657:71.186888417732092] [-3.4482761248538196:8.9757881597352345] [2.0340002880630861:25.745503528927109] [-2.1989903606058188:2.9757286414590594] [-1.2715137568012613:7.3092422289367001] [-1.2756162697576585:3.6682427366172528] [15.370895090254866:5099.631888518391] [7.2256540865414234:773.8189635736469] [5.5106030579329115:1618.7015679745202] [0.012909529378251915:3.1737190462182161] [-1.30766140565171:8.0767532226506358] [-0.95566587434917771:-0.67206742737123859] [0.74430164885816186:0.99980018734840104] [0.0030433655442586192:0.20292252757602891] [0.23937199829749919:0.50370187591189886] [-0.63308811292420875:0.82214053078939608] [-0.73520961219733705:4.4805303367756402] [-4.8585420689602062e+31:-0.46309508193788906] [0.95450474985793343:3.2724982331097755e+31] [-4.3261068584101609e+28:6.399088120767803e+28] [0.2645665791457309:7.000963609322625e+30] [-8.6468069660833891:4.7790851140354196] [3.3514546856731302:72.850882233081535] [0.041666666666666664:0.99789473684210528] none [0.92543823688568938:0.99983805668016201] [0.00056098811581177814:0.25529671152947264] [-3.1754264805433037:-0.79466148797229852] [-1.0909523809524635:8.0833333333348669] [0:2.3748067997665122e-06] [0.54852354915990698:0.99585772209105106] [0.032309757868891363:0.26312965066920135] [0.10227634163077046:0.30523517960671359] [0.9409502234869318:5.2671267226188467] [0.087735194191013388:31.314956485105228] [0.53476696121665834:1.7259913370088754e+30] [-0.70710678118654702:0.70670378223738828] none [0.00021053667699120666:0.02277724644601866] [0.00092673612495250803:0.022992733922989391] [0.00092423906675091012:0.022976157963222412] [8.431114697925931e-07:0.0046837435897976454] [-3.1754264805429564:-0.7946614879743038] [-1.0909523809505277:8.0833333333333943] [9.5746871530158374e-35:0.047363720263033086] [0.13248727994688689:8.3921494870835538] [0.047899642561397122:0.75227047017419468] [0.041166263632606004:2.2078621951023449] [-0.17477353644196397:3.1632732053840087] [-1.7018942010472158:8.0357638622791221] [9.5713311463025468e-34:0.2892977935586088] [0.49410706424541473:83.383536570381466] [0.26814012042609303:6.7853320512576749] [0.09024388397166451:22.112580587080302] [-2.612968061009163:3.1751288735070671] [-1.2985304817348726:8.0821903149168222] none [0.00038126932604835362:0.34302870192500784] [0.00010751925259207947:0.027079088023581905] [0.00012247712384138475:0.091215338863632062] [0.66292869558562373:3.174376912952559] [-1.1568316477110816:8.0792709963772644] [10:23] [72:118] [36.340000000000003:60.460000000000001] [12.950459451309055:19.706080279954207] [-0.0076037446967611687:1.0110316343097527] [-0.98860503468081395:1.5552787008613445] none none none none none none none none none [1.4621156719869436e-17:2.7790248428167778e-17] none none [0.10478969791639159:0.1477744718329059] [0.32912606877539341:0.66843006713553066] [0.19558167338288071:0.24737747040047367] [0.04355713602847848:0.090815660179725283] [0.34629754674547875:2.7030332563102903] [-0.52569785886906661:13.11794090909429] [0.24375947747656593:0.54808739317339039] [0.12656601219694558:0.28516690878169798] [0.077692494122572398:0.16848251453526419] [30.616147718488321:194.65142347821771] [27.13103758238169:171.45458828100561] [17.125694332173435:113.22929117986884] [0.01528484848484951:0.082965702757229434] [0.12649060511910043:0.36881528215912979] none [0.017559219087932926:0.11296246600382844] [-0.9381899103752781:1.6951998114964049] [-1.1538308309943648:2.2432136219127674] [0.28020565552699078:0.90499774876181538] [0.83726708074533696:0.99979861041184082] [0.63775510204079799:0.95195857721746591] [0.029715695898407949:0.22864145228974014] [-2.1249392647884822:0.97460376180966357] [-1.6793796936560885:3.4012749843273991] none none none [5.721958498152797e-18:3.8258420742815549e-17] none none [0.16842105263157714:0.45088940448568948] [0.83726708074533696:0.99979861041184082] [0.43115883149545298:0.85428906416542161] [0.14813226538830729:0.28535485037350844] [-1.3646550484955562:1.3136557640803153] [-1.5820212534797011:0.91132056831530495] [10:150] [0:1] [0:1] [0:1] [0:1] [0.4618923229241616:0.907436587549866] [0.43014387291895029:0.99503773845873678] [0.0091802604775431083:0.19842723423962524]
tree_sizes=5500 5696 5755 5815 6004 6136 6146 6196 6232 6256 6335 6394 6528 6265 6408 6435 6343 6470 6404 6534 6491 6343 6574 6543 6436 6574 6601 6630 6470 6555 6498 6602 6684 6574 6596 6558 6547 6568 6556 6578 6607 6634 6525 6568 6648 6617 6565 6617 6606 6615 6622 6655 6615 6689 6634 6578 6544 6689 6626 6605 6713 6602 6602 6704 6664 6579 6666 6614 6645 6754 6738 6601 6707 6602 6728 6608 6726 6529 6645 6588 6515 6598 6594 6662 6587 6551 6749 6664 6815 6784 6741 6697 6649 6712 6688 6739 6704 6773 6571 6754

Tree=0
num_leaves=63
num_cat=0
split_feature=11 17 125 22 22 118 2 176 150 2 30 117 181 0 145 200 200 0 200 2 164 83 200 87 200 3 206 200 200 200 95 0 0 9 200 5 57 205 5 0 200 10 200 0 87 200 200 3 200 205 200 0 0 200 2 206 2 200 0 205 200 200
split_gain=81.7017 57.2479 47.0578 39.9637 50.7855 30.1034 27.9699 22.4641 15.7887 14.0112 13.8626 11.1446 10.4358 8.66321 8.2443 7.29247 6.7879 5.99155 5.76911 5.02311 4.89305 4.69006 4.60299 4.05214 3.58787 3.37406 2.83656 2.80128 2.70048 2.47875 2.3195 2.04282 1.77742 1.61406 1.5614 1.48365 1.36984 1.36496 1.27187 1.22021 1.13968 1.1453 1.00409 1.52914 0.967502 0.880513 0.8545 1.55498 0.600345 0.563322 0.558084 0.533425 0.53272 0.510412 0.476158 0.460064 0.452009 0.456744 0.421599 0.407011 0.402449 0.391746
threshold=-2.6941743574743051 0.48380574336006826 3.0222725906255857e-05 0.027375133256998464 0.017136254999836183 13.026718650388034 -0.14568146935648713 0.030770268467707355 0.62180158417345055 14577550043424110 2.1230063366791196e-09 2.3545030734514318 -0.069175460977743061 4563.0000000000009 0.96856663905738738 32.500000000000007 22.500000000000004 819.50000000000011 87.500000000000014 1.3556273808502954e+27 0.1205843439267215 -4.6268943394780342 27.500000000000004 0.29256924809653234 102.50000000000001 -1.0000000180025095e-35 0.69841430299734952 52.500000000000007 52.500000000000007 42.500000000000007 -0.89168317802367292 992.50000000000011 2275.0000000000005 -11.746771536518718 72.500000000000014 -66.860973132739517 3.065727902764817 0.8044053252590303 -66.860973132739517 2427.0000000000005 12.500000000000002 -2.7573090925195856 47.500000000000007 1103.5000000000002 1.1011049431625977 22.500000000000004 62.500000000000007 -1.0000000180025095e-35 17.500000000000004 0.75190782767850906 47.500000000000007 3503.5000000000005 1505.0000000000002 67.500000000000014 6102694898119900 0.8149610221919219 2.869280656515394e+18 127.50000000000001 1873.5000000000002 0.75543374936303753 67.500000000000014 32.500000000000007
decision_type=2 2 2 2 2 2 2 2 2 2 2 2 2 2 2 2 2 2 2 2 2 2 2 2 2 2 2 2 2 2 2 2 2 2 2 2 2 2 2 2 2 2 2 2 2 2 2 2 2 2 2 2 2 2 2 2 2 2 2 2 2 2
left_child=1 2 3 4 5 11 -4 13 15 32 18 12 48 37 27 25 40 26 53 24 -18 22 36 51 30 -5 34 35 39 31 -14 -19 -3 56 -7 -9 -16 -8 -29 -10 -12 -42 43 -22 -24 -15 -17 -48 -1 -50 54 -13 -33 -2 -46 -25 -26 -58 -23 -28 -32 -37
right_child=10 9 6 8 -6 17 7 14 28 -11 16 23 19 45 21 46 20 29 -20 -21 42 58 44 55 33 -27 59 38 -30 -31 60 52 -34 -35 -36 61 -38 -39 -40 -41 41 -43 -44 -45 50 -47 47 -49 49 -51 -52 -53 -54 -55 -56 -57 57 -59 -60 -61 -62 -63
leaf_value=0.35997214987382831 0.27122421034354272 0.61104851965423113 0.21550952154977751 0.27989444256019291 0.21837141074813082 0.30776916930771836 0.5315070393575867 0.37412252650657063 0.27623746435682939 0.44892692319908578 0.36148587375010599 0.31631691137972445 0.34938512370450925 0.33836092309338484 0.34055595198892041 0.49852302338554727 0.53902694024202724 0.30670512712129949 0.51095507065193135 0.42911312781766731 0.45536661356719582 0.4198671594273547 0.51175138564027156 0.28923641353465102 0.37079345861775198 0.4780897646383977 0.29615542839915898 0.38853076830773026 0.40357241149694878 0.50075932451618588 0.26738573682265787 0.40225034776898322 0.6949841406916335 0.30882162670799035 0.4972312663552283 0.25363246580579568 0.44770762762885424 0.63679664098837196 0.44371960134595845 0.38435023928571777 0.43659297986949169 0.58837801873929674 0.62995350527473304 0.6084556445322149 0.47605210483057769 0.47552967621349473 0.58598887925262821 0.5155256947908522 0.52628166253831721 0.43400726474724111 0.48354724656858483 0.3561385492754674 0.48324975314757757 0.3701103502020166 0.39333765808714405 0.25303164668497691 0.38109281178974452 0.45355094851901057 0.37898804965875671 0.36170800352186949 0.29973343722512319 0.32480777678759931
leaf_weight=24 48 116 116 40 696 11.999999999999998 33 108 72 116 28 232 152 11.999999999999998 64 96 312 28 52 116 20 116 300 104 120 39 26 240 240 352 240 28 116 80 60 40 48 199 160 36 40 15.999999999999998 336 60 32 104 144 144 15.999999999999998 308 336 116 56 15.999999999999998 32 360 40 40 116 134 140 32
leaf_count=24 48 116 116 40 696 12 33 108 72 116 28 232 152 12 64 96 312 28 52 116 20 116 300 104 120 39 26 240 240 352 240 28 116 80 60 40 48 199 160 36 40 16 336 60 32 104 144 144 16 308 336 116 56 16 32 360 40 40 116 134 140 32
internal_value=0.41401 0.395612 0.385281 0.356554 0.334216 0.363177 0.444317 0.457776 0.452405 0.584987 0.547376 0.334391 0.362335 0.568327 0.434087 0.510405 0.569526 0.449535 0.392329 0.335782 0.584417 0.45955 0.476728 0.29048 0.322449 0.377738 0.386621 0.388253 0.375239 0.480991 0.299327 0.418864 0.653016 0.366381 0.465654 0.33858 0.386478 0.62182 0.410606 0.312275 0.440469 0.47996 0.618459 0.570183 0.491168 0.46134 0.537699 0.550757 0.433144 0.438564 0.475731 0.329591 0.45625 0.295946 0.434695 0.261147 0.389405 0.417322 0.399428 0.351056 0.279303 0.285266
internal_weight=7655 6727 6379 4291 3480 2784 2088 1972 811 348 928 2088 1276 348 1624 463 812 696 116 928 728 1044 812 812 812 79 232 580 348 464 532 112 232 280 72 180 112 232 400 108 84 56 416 80 700 116 384 288 348 324 400 348 84 64 64 464 200 80 232 160 380 72
internal_count=7655 6727 6379 4291 3480 2784 2088 1972 811 348 928 2088 1276 348 1624 463 812 696 116 928 728 1044 812 812 812 79 232 580 348 464 532 112 232 280 72 180 112 232 400 108 84 56 416 80 700 116 384 288 348 324 400 348 84 64 64 464 200 80 232 160 380 72
is_linear=0
shrinkage=1


Tree=1
num_leaves=63
num_cat=0
split_feature=11 17 125 22 22 118 53 149 150 2 2 98 117 181 200 200 0 30 161 200 33 3 200 200 200 200 0 206 87 207 5 200 30 0 200 200 200 10 0 101 22 0 5 200 200 0 0 0 200 0 16 206 2 200 2 205 200 200 0 200 200 200
split_gain=22.1368 15.5111 12.7501 10.828 13.7602 8.15641 8.06213 5.4527 4.27789 4.24414 3.7963 3.77378 3.01959 2.82753 2.35724 2.15437 1.62339 1.56287 1.39784 1.30108 1.15037 1.12519 1.1072 1.01831 0.928389 0.913797 1.60124 0.803901 0.734299 0.693216 0.664442 0.634771 0.652357 0.626533 0.596758 0.565244 0.546839 0.798475 0.481585 0.463488 0.415453 0.405442 0.354435 0.345363 0.331858 0.490621 0.366012 0.282943 0.354139 0.269761 0.267972 0.255499 0.249684 0.24768 0.236286 0.232711 0.225261 0.22519 0.339214 0.219573 0.212688 0.191874
threshold=-2.6941743574743051 0.48380574336006826 3.0222725906255857e-05 0.027375133256998464 0.017136254999836183 13.026718650388034 1.7213731285387477 15.325352578217062 0.62180158417345055 -0.14568146935648713 14577550043424110 0.27776218495488109 2.3545030734514318 -0.069175460977743061 32.500000000000007 37.500000000000007 819.50000000000011 0.039396157789177516 1.5297042117159476e-17 97.500000000000014 3.1754264805429329 -1.0000000180025095e-35 32.500000000000007 37.500000000000007 22.500000000000004 97.500000000000014 4930.0000000000009 0.71236184659387181 2.3886572637934771 0.037639015810195763 -29.542655537413349 42.500000000000007 1.8111522275177803e-07 649.50000000000011 17.500000000000004 92.500000000000014 12.500000000000002 -2.7573090925195856 2275.0000000000005 -20906338624116652 0.024271532905698816 1505.0000000000002 -191.04340004726211 67.500000000000014 102.50000000000001 1023.5000000000001 2427.0000000000005 2777.5000000000005 82.500000000000014 3109.5000000000005 0.026079259352551627 0.82323674165984595 3.8791969001281839e+24 12.500000000000002 3.2623525349060845e+17 0.85010470413343919 82.500000000000014 57.500000000000007 992.50000000000011 57.500000000000007 57.500000000000007 17.500000000000004
decision_type=2 2 2 2 2 2 2 2 2 2 2 2 2 2 2 2 2 2 2 2 2 2 2 2 2 2 2 2 2 2 2 2 2 2 2 2 2 2 2 2 2 2 2 2 2 2 2 2 2 2 2 2 2 2 2 2 2 2 2 2 2 2
left_child=1 2 3 4 5 12 7 34 15 -8 38 25 13 53 36 21 27 31 49 -20 50 -5 39 52 41 26 59 35 42 -19 60 40 43 -21 -4 -7 -13 -38 -3 -9 -11 -18 -24 -33 46 -46 -25 48 -17 -15 -14 -22 -10 -1 -50 -35 -34 58 -26 -2 -16 -41
right_child=11 10 6 8 -6 16 9 22 23 17 -12 14 20 18 30 47 24 29 19 33 51 -23 28 44 57 -27 -28 -29 -30 -31 -32 32 56 55 -36 -37 37 -39 -40 61 -42 -43 -44 -45 45 -47 -48 -49 54 -51 -52 -53 -54 -55 -56 -57 -58 -59 -60 -61 -62 -63
leaf_value=-0.057733448527392123 -0.081312696394157002 0.10255674188660252 0.018815028960162062 -0.065837927818411024 -0.10184165839985902 -0.02403381844116087 -0.10333134453484993 -0.036110492707455796 -0.11090069863249484 -0.014720719612409035 0.018168333036981656 -0.038801715337742855 -0.03715557250666874 0.0078547479328866191 0.058118191626011589 0.053041977807936992 -0.072346869132149494 -0.071713612308453287 -0.067676279593158487 -0.07718167622379507 -0.063944788694845697 0.038530990589999765 0.068695113730345606 -0.037945221924155288 -0.021938994776791051 0.054947940577629854 0.043491437459300272 -0.034935338346594104 0.0078606535061113425 0.034864619941768114 0.11608773080302952 -0.026545353897092883 -0.0095618731944783295 -0.0016520492623045765 0.11478203416742351 0.057483266924965859 0.011195751894825499 0.10395709197715143 0.14624736425895365 -0.013257013125610954 -0.068036631121869834 0.015786327903133512 0.036780532633613798 0.01483696203485272 0.055373009728044272 -0.0096630472162925248 0.011321920366065717 0.043759323843702139 0.062803804770920985 -0.024844733289165508 -0.060200820903265007 -0.093107500613943656 -0.051004205517395429 0.012370233250935159 0.1009486694114842 -0.033424785535864865 -0.045220614697781887 0.048915191626431667 0.038999657789286934 -0.028026323321479318 0.090202289427197713 0.034674659062125066
leaf_weight=11.999999999999998 40 116 15.999999999999998 48 696 33 116 80 24 56 116 24 232 116 60 108 24 14.999999999999998 432 44 95 47 96 104 28 88 72 151 192 217 288 60 64 131 216 48 64 32 116 32 84 24 480 204 40 80 52 92 56 116 232 253 48 336 112 89 112 304 84 32 228 48
leaf_count=12 40 116 16 48 696 33 116 80 24 56 116 24 232 116 60 108 24 15 432 44 95 47 96 104 28 88 72 151 192 217 288 60 64 131 216 48 64 32 116 32 84 24 480 204 40 80 52 92 56 116 232 253 48 336 112 89 112 304 84 32 228 48
internal_value=-6.78129e-06 -0.00958343 -0.0149611 -0.0299142 -0.0415416 -0.0264666 0.0157688 0.0424172 0.0199789 -0.0175416 0.0889908 0.0694136 -0.0414503 -0.0269049 0.0870667 0.0501693 0.0184846 -0.00528592 -0.0407265 -0.0514704 -0.0643074 -0.0142028 0.0259806 -0.0201882 0.0348587 0.0164545 -0.00706921 -0.0142636 0.0335399 0.0279738 0.0998029 -0.0185898 -0.00964239 -0.0249516 0.108164 0.0242726 0.0259326 0.0421162 0.124402 -0.0103043 -0.0467103 -0.0282803 0.0420996 0.00543189 -0.00694089 0.0120156 -0.0215228 0.0667871 0.074463 -0.00849499 -0.0486782 -0.0851464 -0.0709697 0.00995286 0.0882337 -0.0145056 -0.0322538 0.042144 0.023765 -0.0576299 0.0835181 0.015502
internal_weight=7655 6727 6379 4291 3480 2784 2088 1160 811 928 348 928 2088 1276 696 463 696 812 928 696 812 95 928 348 464 232 144 232 768 232 576 580 440 264 232 81 120 96 232 160 140 48 576 264 276 120 156 368 276 232 464 348 72 348 168 220 176 416 112 72 288 80
internal_count=7655 6727 6379 4291 3480 2784 2088 1160 811 928 348 928 2088 1276 696 463 696 812 928 696 812 95 928 348 464 232 144 232 768 232 576 580 440 264 232 81 120 96 232 160 140 48 576 264 276 120 156 368 276 232 464 348 72 348 168 220 176 416 112 72 288 80
is_linear=0
shrinkage=0.479475


Tree=2
num_leaves=63
num_cat=0
split_feature=11 17 22 22 141 118 30 200 166 33 205 2 0 2 105 179 11 200 200 5 206 207 205 0 83 200 207 200 0 17 10 0 2 0 200 97 200 205 53 200 205 5 200 0 200 0 200 10 100 0 206 96 2 13 207 9 200 0 200 0 200 200
split_gain=5.99789 4.20269 3.51714 4.38207 2.71501 2.41718 1.98859 1.42417 1.36087 1.46692 1.13979 1.0979 1.07502 1.02859 0.799125 0.674103 0.57791 0.562609 0.520723 0.438989 0.423605 0.332091 0.319218 0.318576 0.288472 0.285678 0.285625 0.283597 0.235034 0.234768 0.227321 0.223842 0.212758 0.212507 0.180081 0.176802 0.170343 0.169219 0.166581 0.16535 0.157042 0.151837 0.142673 0.162985 0.14207 0.130484 0.124614 0.121882 0.11927 0.118122 0.134112 0.113722 0.110379 0.109721 0.109021 0.108232 0.162494 0.226763 0.103825 0.123206 0.100569 0.0917199
threshold=-2.6941743574743051 0.48380574336006826 0.024271532905698816 0.016375644799634305 0.046597734696265679 4.6326494009824826 7.7110665566619367e-06 57.500000000000007 0.23702630712911768 3.1754264805428569 0.73662848819330262 5.4859614215812408e+26 3713.0000000000005 14577550043424110 -3.0184689585906423 0.081691262583225885 -4.300433180337607 77.500000000000014 37.500000000000007 -35.728952274852666 0.73479281286686804 0.10505820621493857 0.77214573009245591 4930.0000000000009 -12.228268562776252 12.500000000000002 0.032710109352792359 107.50000000000001 2427.0000000000005 0.4654498931509275 -3.0668725771824197 1301.5000000000002 1017088270821731.5 1747.5000000000002 37.500000000000007 0.062329506074917718 37.500000000000007 0.70916943017845135 4.4624334859018591 112.50000000000001 0.74447079729641052 -426.03434238748986 127.50000000000001 1817.0000000000002 102.50000000000001 2275.0000000000005 82.500000000000014 -4.0536720809875382 0.82673880069913397 992.50000000000011 0.6785147359922542 0.82596840738974375 -0.087913724592500089 0.00030246564954013747 0.098855837947287223 -12.007162549211129 52.500000000000007 2602.0000000000005 17.500000000000004 440.50000000000006 57.500000000000007 112.50000000000001
decision_type=2 2 2 2 2 2 2 2 2 2 2 2 2 2 2 2 2 2 2 2 2 2 2 2 2 2 2 2 2 2 2 2 2 2 2 2 2 2 2 2 2 2 2 2 2 2 2 2 2 2 2 2 2 2 2 2 2 2 2 2 2 2
left_child=1 2 3 4 6 7 8 28 9 17 49 24 18 45 35 38 -7 22 31 46 33 23 -1 27 -5 -18 -10 -14 36 42 -20 58 -24 -17 -13 39 48 -30 -11 -9 -25 -19 -6 -44 47 -3 52 -16 -4 -8 -51 -38 60 -48 -21 -27 57 -57 -2 -60 -12 -43
right_child=12 13 5 11 29 16 10 14 26 15 19 34 21 -15 44 20 25 41 30 54 -22 -23 32 40 -26 55 -28 -29 37 -31 -32 -33 -34 -35 -36 -37 51 -39 -40 -41 -42 61 43 -45 -46 -47 53 -49 -50 50 -52 -53 -54 -55 -56 56 -58 -59 59 -61 -62 -63
leaf_value=-0.05577711059079106 -0.012009629767174051 0.053383386849967129 -0.022709933337339817 -0.035868118360912124 -0.054657841155000053 0.066595543741631208 -0.057560675468922858 -0.0049254569997558492 0.027890640599679672 0.0025143262484162649 -0.044645896497875731 -0.037278086932611275 -0.028681078590703461 0.0094570781128679674 0.042110955477615265 -0.041820920042733037 -0.034201774111301451 -0.032256782472347423 0.077427693967356256 0.032144181923610259 0.023785786352746974 0.035350837908074473 -0.0078116926047097669 -0.014914235559051551 -0.055873060038439185 0.023559015575323767 -0.048073064855430218 0.036483644266570733 -0.05166508078596542 -0.029539813520028501 0.050780828643636915 0.062060810283162224 -0.039134881257434743 0.021697103044173924 0.0093588066859589605 -0.012550234179065638 0.0053879154061873139 0.0063712345879270655 -0.010333648714572782 0.027104651714875042 0.028114275774113396 -0.014797087258368301 0.0074258221993455525 -0.053786588521193911 0.038709213779596616 0.076125461253791007 0.018306594407553663 0.0098962923060913147 -0.050989681266575819 -0.03903390742626045 0.0067484766333106433 -0.028432395653707671 0.0121436494004714 0.041555711611881957 0.053857955596960959 0.047080954670222469 0.046602428399196941 -0.010458575056144347 -0.01499817065832359 0.033585664405501696 0.0063545594845626843 0.0020077372598807947
leaf_weight=133 32 116 48 232 192 116 31 88 11.999999999999998 464 15.999999999999998 24 80 116 36 37 15.999999999999998 60 92 132 409 121 88 24 580 224 220 19 13.999999999999998 348 368 24 115 18 92 228 32 66 464 64 104 140 20 20 160 116 280 108 120 38 24 80 242 56 89 31 160 32 15.999999999999998 48 20 160
leaf_count=133 32 116 48 232 192 116 31 88 12 464 16 24 80 116 36 37 16 60 92 132 409 121 88 24 580 224 220 19 14 348 368 24 115 18 92 228 32 66 464 64 104 140 20 20 160 116 280 108 120 38 24 80 242 56 89 31 160 32 16 48 20 160
internal_value=-3.53011e-06 -0.00498842 -0.00778761 -0.0143645 -0.0071986 0.0114852 -0.00180261 -0.00229478 -0.00930606 -0.00543518 0.016956 -0.043924 0.0361316 0.046322 0.0105527 0.00355129 0.0363321 -0.0234081 0.0487724 0.0225639 0.0184732 0.0150635 -0.0375187 0.00424954 -0.0501574 0.0287499 -0.0441439 -0.0161747 -0.0267051 -0.0374162 0.0561102 0.0206441 -0.0255564 -0.0210332 -0.000290206 -0.00410578 -0.0332536 -0.00378512 -0.00390966 0.0085609 0.0200464 -0.0102382 -0.0492307 -0.0231804 0.0288759 0.0647544 0.0159682 0.01795 -0.0429098 -0.0333947 -0.0213117 -0.0187694 0.00845871 0.0221814 0.0408886 0.0310032 0.0384808 0.0178545 0.0102899 0.0214397 -0.0163123 -0.00583451
internal_weight=7655 6727 6379 4756 3828 1623 3248 1044 2320 2088 928 928 928 348 684 1392 579 696 580 835 464 348 336 227 812 463 232 99 360 580 460 120 203 55 116 380 280 80 928 152 128 360 232 40 304 232 614 144 168 93 62 112 278 336 221 447 223 63 96 64 36 300
internal_count=7655 6727 6379 4756 3828 1623 3248 1044 2320 2088 928 928 928 348 684 1392 579 696 580 835 464 348 336 227 812 463 232 99 360 580 460 120 203 55 116 380 280 80 928 152 128 360 232 40 304 232 614 144 168 93 62 112 278 336 221 447 223 63 96 64 36 300
is_linear=0
shrinkage=0.479475


Tree=3
num_leaves=63
num_cat=0
split_feature=11 17 22 22 141 194 166 102 83 200 164 95 200 2 10 200 0 0 200 200 200 200 200 161 0 0 141 0 136 205 206 5 206 200 205 21 200 83 167 200 0 2 8 200 0 0 200 205 0 206 17 0 10 0 200 200 0 0 205 200 5 164
split_gain=1.62511 1.13871 0.967526 1.00188 0.735623 0.637204 0.550351 0.599234 0.499208 0.402692 0.354203 0.345036 0.291565 0.278694 0.273605 0.227137 0.197033 0.175661 0.167204 0.159695 0.152588 0.149363 0.141332 0.138431 0.136485 0.136216 0.133204 0.127929 0.114438 0.108577 0.10061 0.0938674 0.0882699 0.0864848 0.0844298 0.0838264 0.121888 0.0781604 0.0777765 0.0764801 0.0828149 0.0734628 0.0733569 0.107379 0.11191 0.0699782 0.0758536 0.0649747 0.166213 0.103964 0.0636095 0.061757 0.0601913 0.0553091 0.0532346 0.0519319 0.0519525 0.0475586 0.0504524 0.0472434 0.0977076 0.0565456
threshold=-2.6941743574743051 0.48380574336006826 0.027375133256998464 0.016375644799634305 0.046597734696265679 0.24990241998438592 0.23504288250528016 89758981306532944 -8.6168857029268455 12.500000000000002 0.1205843439267215 -0.92121971250993939 42.500000000000007 14577550043424110 -4.2958628196040136 52.500000000000007 1544.5000000000002 2427.0000000000005 67.500000000000014 27.500000000000004 27.500000000000004 62.500000000000007 12.500000000000002 1.730535002251491e-17 649.50000000000011 1103.5000000000002 0.021965018475896679 843.50000000000011 0.43188726297146179 0.748157214672309 0.65272594018146946 -52.909248487435924 0.6732154991265431 12.500000000000002 0.84624747582327653 0.0067243651990994907 22.500000000000004 -12.228268562776252 0.058208847620639416 127.50000000000001 1287.0000000000002 69214837556652.086 -49.429789922710704 122.50000000000001 4930.0000000000009 1873.5000000000002 47.500000000000007 0.75964923542490925 2069.5000000000005 0.76736474613223737 0.4654498931509275 1505.0000000000002 -5.0389707819072678 4930.0000000000009 62.500000000000007 107.50000000000001 1817.0000000000002 1301.5000000000002 0.78294295928552404 112.50000000000001 -81.434749958646464 0.12780895135954207
decision_type=2 2 2 2 2 2 2 2 2 2 2 2 2 2 2 2 2 2 2 2 2 2 2 2 2 2 2 2 2 2 2 2 2 2 2 2 2 2 2 2 2 2 2 2 2 2 2 2 2 2 2 2 2 2 2 2 2 2 2 2 2 2
left_child=1 2 3 4 6 12 7 9 37 26 19 29 14 -3 -4 35 -14 18 -7 31 -10 25 -19 30 -8 -12 38 -20 59 -11 -13 -2 -26 -27 45 -9 52 39 -1 -5 -41 -23 -21 53 -45 46 -32 48 49 -47 55 -31 -37 54 -44 -6 -57 58 -35 61 -61 -17
right_child=10 13 5 8 50 17 24 15 20 11 21 23 16 -15 -16 28 -18 22 27 42 -22 41 -24 -25 32 33 -28 -29 -30 51 34 -33 -34 57 -36 36 -38 -39 -40 40 -42 -43 43 44 -46 47 -48 -49 -50 -51 -52 -53 -54 -55 -56 56 -58 -59 -60 60 -62 -63
leaf_value=0.0044872133379711548 -0.031160335045139747 0.033706321848732429 0.019282521773201368 -0.022643784909645633 -0.030438038373607371 -0.019498473694226748 -0.032384172808562824 -0.032937088554509733 -0.031630016217797735 -0.0075809140038810233 -0.0059335425065472312 0.032137709991841838 0.016194379002619306 0.0049226488289001178 -0.019533154976121351 -0.0046615795070021606 0.035842646859661549 -0.045544391516637049 -0.019028469465641851 0.019491222057845994 0.0040298110263711799 0.027241924864422055 0.007411579675699889 0.010445351684174637 0.031824950491942949 -0.013938824857765129 -0.068866114473587287 0.004985513863948716 0.0053269226071999418 0.028988233524542103 -0.020524951599598686 0.0055647594884972729 -0.014226098896450703 0.0046502261897789577 0.0067661010131859645 -0.021181680234980998 -0.0069298791584479829 -0.029083344694367387 -0.034661414707565348 0.022219365000920997 -0.021414120508807453 0.042557491091143082 -0.025499449191083611 0.049426600511174347 0.0031236705383928076 0.016191033558425827 -0.0014123192459810261 -0.0022655027983600339 -0.013337888748631141 0.070749978353752879 -0.015376222414314833 0.014676956587960187 -0.049592956138894112 0.0094079068085264703 0.0008074660784862152 -0.0020524187360664941 -0.027811621507817803 0.042251735725725166 0.03035819593240199 -0.016966799227053821 0.0059780581541152089 -0.018098464385917386
leaf_weight=20 32 232 83 192 160 192 116 72 32 27 44 23 352 116 84 144 176 11.999999999999998 68 200 200 144 336 560 9.9999999999999982 11.999999999999998 15.999999999999998 204 240 204 94 32 222 26 286 60 168 580 28 20 20 144 28 24 24 21 97 335 27 12.999999999999998 348 105 24 76 48 36 36 40 54 64 128 144
leaf_count=20 32 232 83 192 160 192 116 72 32 27 44 23 352 116 84 144 176 12 68 200 200 144 336 560 10 12 16 204 240 204 94 32 222 26 286 60 168 580 28 20 20 144 28 24 24 21 97 335 27 13 348 105 24 76 48 36 36 40 54 64 128 144
internal_value=-1.8374e-06 -0.0025966 -0.00405365 -0.0073378 -0.00374706 0.00656374 -0.000938304 0.00122376 -0.0205039 0.00639299 0.0188074 0.00772769 0.0172207 0.0241118 -0.000241531 -0.00796599 0.0227438 -0.00255768 -0.00866508 0.00944002 -0.000888786 0.0281748 0.00558551 0.00453161 -0.0189555 0.0171703 -0.0309786 -0.00101798 -0.00322176 0.0215774 0.000835521 -0.0127978 -0.0122411 0.0248716 1.08356e-05 -0.0185087 -0.0143863 -0.0261082 -0.0183495 -0.0186703 0.000402622 0.0348997 0.0129981 0.00650491 0.0262751 -0.00328049 -0.0108185 0.00035529 0.0147482 0.0370518 -0.0194761 0.0241252 -0.0292992 0.000261676 -0.00888456 -0.0256258 -0.014932 0.0287526 0.0220031 -0.0074961 -0.00167023 -0.01138
internal_weight=7655 6727 6379 4872 3828 1507 3248 2900 1044 1856 928 1792 695 348 167 1044 528 812 464 464 232 464 348 1456 348 176 64 272 720 336 896 64 232 132 873 324 252 812 48 232 40 288 400 200 48 587 191 396 61 34 580 309 84 152 76 232 72 120 80 480 192 288
internal_count=7655 6727 6379 4872 3828 1507 3248 2900 1044 1856 928 1792 695 348 167 1044 528 812 464 464 232 464 348 1456 348 176 64 272 720 336 896 64 232 132 873 324 252 812 48 232 40 288 400 200 48 587 191 396 61 34 580 309 84 152 76 232 72 120 80 480 192 288
is_linear=0
shrinkage=0.479475


Tree=4
num_leaves=63
num_cat=0
split_feature=95 22 22 135 141 90 200 200 138 8 167 83 95 8 200 11 0 33 200 9 200 206 200 207 147 200 200 207 0 5 5 200 200 207 186 206 9 200 205 97 137 200 88 88 200 0 200 200 200 93 23 200 0 23 200 12 205 200 200 6 200 200
split_gain=0.453087 0.410155 0.342674 0.253503 0.244266 0.219937 0.246519 0.199519 0.148058 0.144241 0.1436 0.135259 0.112855 0.112704 0.124461 0.0869373 0.0767391 0.0648021 0.0730655 0.055617 0.0532103 0.0527248 0.0521215 0.0459448 0.0442275 0.0629166 0.12264 0.0588846 0.0457437 0.0423669 0.040873 0.0447434 0.0845263 0.0397263 0.0393071 0.0392014 0.0542903 0.0375093 0.0368747 0.0375446 0.0355138 0.0697551 0.103957 0.0386604 0.0351572 0.0346845 0.0443487 0.0382075 0.0339596 0.0719902 0.0409924 0.0334337 0.054922 0.0333568 0.0329697 0.0639378 0.0328741 0.0502583 0.0325914 0.030828 0.0688105 0.0302275
threshold=-0.71721874025890686 0.025287993145058047 0.016375644799634305 0.54357590921520293 0.046597734696265679 376.44818992106781 17.500000000000004 67.500000000000014 -0.63613556057656429 -87.720389606234122 0.066182069286410891 -8.6168857029268455 -0.92822321909020744 -61.077590689858255 12.500000000000002 -3.7473063739065959 381.50000000000006 3.17542647972062 62.500000000000007 -14.029121365337774 92.500000000000014 0.69207139347330193 82.500000000000014 0.11640174997597026 84.500000000000014 82.500000000000014 92.500000000000014 0.10981155573550233 4563.0000000000009 -35.880290634366503 -54.734949743818731 137.50000000000003 112.50000000000001 0.037639015810195763 -0.37356881241951329 0.80977276388108288 -24.386092014593768 82.500000000000014 0.74447079729641052 0.062329506074917718 0.15449008201245146 52.500000000000007 1.5432600461867836 1.5432600461867836 32.500000000000007 4110.0000000000009 22.500000000000004 17.500000000000004 122.50000000000001 2.9617734542387795 12.873008633297518 102.50000000000001 402.50000000000006 12.872390404178175 137.50000000000003 20.044129426055168 0.65671383098575464 37.500000000000007 147.50000000000003 1.9990202001091028e+18 137.50000000000003 12.500000000000002
decision_type=2 2 2 2 2 2 2 2 2 2 2 2 2 2 2 2 2 2 2 2 2 2 2 2 2 2 2 2 2 2 2 2 2 2 2 2 2 2 2 2 2 2 2 2 2 2 2 2 2 2 2 2 2 2 2 2 2 2 2 2 2 2
left_child=1 2 4 56 5 6 8 13 34 22 17 -4 51 14 -5 -15 37 18 -7 35 -13 29 -9 38 25 28 -27 30 -18 -10 -28 32 -32 -6 -1 45 58 -11 -16 44 -14 42 -42 54 -40 47 -47 -12 50 -50 -26 52 -8 -17 -43 -56 -3 -58 -37 60 -19 -61
right_child=-2 3 11 7 33 10 12 9 21 16 19 20 40 15 23 53 24 59 -20 -21 -22 -23 -24 -25 48 26 27 -29 -30 -31 31 -33 -34 -35 -36 36 -38 -39 39 -41 41 43 -44 -45 -46 46 -48 -49 49 -51 -52 -53 -54 -55 55 -57 57 -59 -60 61 -62 -63
leaf_value=-0.050787492689010123 0.020864574372025546 0.046880528877018081 -0.013589969831995142 -0.028308138814426877 -0.031700106522300618 -0.017535931213336419 0.031159451338089339 0.013022959785108722 -0.020212646205820146 0.0027818326736365477 -0.026277206435528503 -0.0065634218797728308 0.0091430588679046309 0.012331481702602598 -0.0049452339519953734 -0.0034243901645179048 0.016920130166915806 -1.1585737466170335e-05 5.8161005657910533e-07 -0.016856784602901735 0.0081801452170146647 0.028117046461789027 -0.011599365863897333 -0.018973764136790462 0.0059142381799785187 -0.028063378870210955 0.022529133803506143 0.052102066216572408 0.058785569946802257 0.014680024508899065 -0.016870869347179386 -0.022737122285679093 0.037968653433886008 -0.009407510601860904 -0.023345828452539977 -0.010127743078499977 -0.00023525894183674912 0.023669496006619609 0.021339204933511206 0.016258038612231844 -0.01739253021978868 0.0081073305083495667 0.0049211996168480269 0.0024177963602551138 -0.0030197340796841239 0.024848697997607066 -0.017299900925672681 -0.0093195092531353687 0.0065385379396744586 0.02729899060473942 -0.005655696634275449 0.0091711228959755614 0.011888676077380386 -0.012362018226898105 0.052422258538119111 0.0095575820988625087 0.0029021915375573967 0.022055557610303606 0.015409217145943531 -0.011117179709768134 -0.027125961193495442 0.0038800634174705182
leaf_weight=24 232 9.9999999999999982 812 24 19 88 68 24 23.999999999999996 24 48 136 324 47 36 144 12 208 144 116 96 11.999999999999998 112 13.999999999999998 352 15.999999999999998 47.999999999999993 9.9999999999999982 12 12.000000000000002 12.000000000000009 11.999999999999998 13.999999999999998 561 24 270 375 112 18 140 84 204 112 320 56 12.000000000000002 10.999999999999998 84 192 48 88 80 68 288 11.999999999999998 24 38 184 11.999999999999998 32 24 896
leaf_count=24 232 10 812 24 19 88 68 24 24 24 48 136 324 47 36 144 12 208 144 116 96 12 112 14 352 16 48 10 12 12 12 12 14 561 24 270 375 112 18 140 84 204 112 320 56 12 11 84 192 48 88 80 68 288 12 24 38 184 12 32 24 896
internal_value=-9.56322e-07 -0.000653092 -0.00288206 0.00504588 -0.000987016 0.000442792 0.00520748 0.00317706 -0.0182369 0.00735218 -0.00241602 -0.0106728 0.0069441 -0.0027454 0.00475024 -0.00725218 0.00943881 0.000663991 -0.0066512 -0.00703604 -0.000462635 0.000592945 -0.00725425 0.00775555 0.00768137 0.0155745 0.0108006 0.017278 0.0378529 -0.00858176 0.0132286 0.00148066 0.0126581 -0.0101378 -0.0370667 -0.00563308 -0.00401492 0.0199834 0.00925239 0.0116408 0.00494314 0.00314318 -0.00464183 0.00586793 0.00290541 -0.012492 0.00469067 -0.0154859 0.00610274 0.0106906 0.00360025 0.0169489 0.0215241 -0.00938281 0.0104681 0.0238458 0.0199884 0.0187771 -0.00904106 0.00212703 -0.00281652 0.00336292
internal_weight=7655 7423 5336 2087 4292 3712 1392 1855 96 1088 2320 1044 1296 767 288 479 952 1392 232 928 232 48 136 264 816 136 112 96 24 36 86 38 26 580 48 812 657 136 250 214 1080 756 196 560 74 155 23 132 680 240 440 216 136 432 240 36 232 222 282 1160 232 928
internal_count=7655 7423 5336 2087 4292 3712 1392 1855 96 1088 2320 1044 1296 767 288 479 952 1392 232 928 232 48 136 264 816 136 112 96 24 36 86 38 26 580 48 812 657 136 250 214 1080 756 196 560 74 155 23 132 680 240 440 216 136 432 240 36 232 222 282 1160 232 928
is_linear=0
shrinkage=0.479475


Tree=5
num_leaves=63
num_cat=0
split_feature=19 130 205 180 181 133 185 11 96 111 181 200 207 200 17 17 196 200 100 57 13 200 176 200 200 84 200 200 200 200 200 84 200 0 84 86 84 200 24 200 84 100 207 200 0 52 206 2 200 13 13 200 0 0 207 200 0 5 206 97 200 206
split_gain=0.13874 0.118876 0.134565 0.0849866 0.0908284 0.0726506 0.0659299 0.059448 0.0531206 0.0637879 0.0527826 0.0542653 0.0447022 0.0418263 0.0699313 0.0545741 0.0355513 0.0341426 0.0506343 0.0301538 0.0283987 0.0255539 0.0245457 0.0362083 0.052367 0.0452454 0.0381933 0.054648 0.0629114 0.083979 0.0567651 0.0803704 0.0560213 0.0532473 0.0489664 0.0482729 0.0455251 0.0328411 0.0495051 0.0422955 0.0829092 0.0307679 0.0228999 0.0210733 0.0496054 0.0209776 0.020805 0.035183 0.0201085 0.0569523 0.0380773 0.0246055 0.0442923 0.0216801 0.0212012 0.0207012 0.0220929 0.018023 0.0178564 0.0221033 0.017145 0.0235271
threshold=-0.36753118187657979 0.089315769450495505 0.72341961002561606 1.5077109339085104 0.49617062072218326 0.94824137336477887 0.15405410707643599 -2.5767906992202065 0.98570102686258421 -2.7002197468706828 0.10546178087555182 22.500000000000004 0.071359641183682002 127.50000000000001 0.47030694233619613 0.47440836985891988 0.69554037607469199 47.500000000000007 1.1079114078707237 3.1754264805427925 0.00029591955159910798 137.50000000000003 0.054079709169248348 147.50000000000003 142.50000000000003 32.4189292595429 137.50000000000003 112.50000000000001 127.50000000000001 132.50000000000003 107.50000000000001 32.4189292595429 102.50000000000001 4563.0000000000009 32.4189292595429 9.411644290085647 32.4189292595429 82.500000000000014 0.00094880845321717189 77.500000000000014 32.4189292595429 1.0000000180025095e-35 0.022495316744441864 32.500000000000007 381.50000000000006 8.0833333119242443 0.79974043575147891 240999579660373.97 122.50000000000001 7.2725774094495229e-05 7.2725774094495229e-05 47.500000000000007 2155.5000000000005 2155.5000000000005 0.094409433653639963 27.500000000000004 4930.0000000000009 -44.27260604438505 0.6732154991265431 0.14470914453296838 147.50000000000003 0.88394995161876133
decision_type=2 2 2 2 2 2 2 2 2 2 2 2 2 2 2 2 2 2 2 2 2 2 2 2 2 2 2 2 2 2 2 2 2 2 2 2 2 2 2 2 2 2 2 2 2 2 2 2 2 2 2 2 2 2 2 2 2 2 2 2 2 2
left_child=3 -2 6 4 5 8 -3 22 9 12 48 -12 16 15 57 -14 -1 18 20 -8 -10 -16 23 24 26 -25 27 30 33 35 32 -32 37 -29 -28 -30 -34 39 -39 45 -41 -26 -18 44 -24 -4 47 -5 50 -50 51 52 54 -53 -7 56 -54 -15 -19 -60 61 -13
right_child=1 2 7 46 -6 10 19 -9 17 -11 11 60 13 14 21 -17 42 58 -20 -21 -22 -23 43 25 41 -27 34 28 29 -31 31 -33 36 -35 -36 -37 -38 38 -40 40 -42 -43 -44 -45 -46 -47 -48 -49 49 -51 -52 53 55 -55 -56 -57 -58 -59 59 -61 -62 -63
leaf_value=-0.016570157778895707 0.011422942391175975 -0.028136465320910523 -0.0042721802908293185 0.020987110684345365 -0.0075899007542579063 0.031393703335313369 -0.0091918821666960478 0.0077344362629135459 -0.0055677530268609336 -0.0067263600027295438 -0.010754929406602087 0.0016039409815438123 -0.00045667605559770742 -0.00042683295295412634 0.0092360321746900835 -0.014721660470287244 0.01489268548674616 0.012404954948900173 0.0071957117997658729 0.014167705192427046 -0.021537392066758355 0.033973671320334208 -0.026302037683629761 -0.00075555474120119544 0.00668748736482392 -0.039703197820569365 -0.00068222124697199786 0.01178715320813963 0.00038891183936276113 0.014535873849726483 -0.0010308835485529327 -0.052939823867835807 0.0029998205476808575 0.046285423713194704 -0.04119977792059968 -0.039840691424066058 0.042067673704151418 -0.021108033388585017 -0.00073812809231083942 -0.0047353722733159175 0.04798705097437158 0.038805063164056214 -0.0053348407083367569 0.0052531692443143676 0.0049876937943671325 0.0043777779232539327 0.0051323532027934184 -0.0034136812171396921 -0.0039408265061782449 0.012575019519180868 -0.0046414967561148662 -0.0085004142683414111 -0.011839559634134017 0.0020237960242794014 0.0047674625984970116 0.0095159428811354245 0.0099816000086888849 0.015003391746884878 0.0044458128089339055 -0.0018156726039579608 0.026676911689848207 0.010930070903503517
leaf_weight=69 348 43 210 14.999999999999998 580 22 83 437 128 928 36 88 773 134 15.999999999999998 67 13.999999999999998 41 64 14.999999999999998 32 24 17 16.000000000000004 16.000000000000004 11.999999999999998 16.000000000000004 72 12.000000000000002 28 16.000000000000004 11.999999999999998 16.000000000000004 11.999999999999998 11.999999999999998 15.999999999999998 11.999999999999998 48 64 16.000000000000004 11.999999999999998 11.999999999999998 159 384 37 93 537 144 96 96 368 60 32 180 9.9999999999999982 48 15.999999999999998 20 336 211 11.999999999999998 212
leaf_count=69 348 43 210 15 580 22 83 437 128 928 36 88 773 134 16 67 14 41 64 15 32 24 17 16 16 12 16 72 12 28 16 12 16 12 12 16 12 48 64 16 12 12 159 384 37 93 537 144 96 96 368 60 32 180 10 48 16 20 336 211 12 212
internal_value=-4.97763e-07 0.00333363 0.00171484 -0.0012502 -0.00195821 -0.00119717 -0.0124842 0.0029677 -0.00248029 -0.00370167 0.00183564 0.00687146 -0.0015019 -0.00012896 0.00621658 -0.00159448 -0.00736811 0.000834909 -0.00420243 -0.00561644 -0.00876168 0.0240786 0.0011735 -0.000542453 0.00013861 -0.0174474 -0.000714133 4.53615e-05 0.00841657 -0.00403178 -0.00230328 -0.0232776 -0.0010564 0.0167155 -0.0180469 -0.0225994 0.0197432 -0.00237104 -0.00946809 3.0375e-05 0.01786 0.0204522 -0.00369793 0.004006 -0.00486278 -0.00161724 0.00370591 -0.00111172 -5.27897e-05 0.0043171 -0.00119276 0.00225598 0.00762454 -0.000607257 0.023073 0.00247505 -0.00456584 0.00157709 0.00275389 0.0020305 0.00890527 0.00819441
internal_weight=7655 2087 1739 5568 4872 4292 141 1598 3016 2204 1276 348 1276 1034 194 840 242 812 224 98 160 40 1161 723 695 28 667 639 140 56 499 28 471 84 28 28 28 443 112 331 28 28 173 438 54 303 696 159 928 192 736 368 128 240 32 96 48 154 588 547 312 300
internal_count=7655 2087 1739 5568 4872 4292 141 1598 3016 2204 1276 348 1276 1034 194 840 242 812 224 98 160 40 1161 723 695 28 667 639 140 56 499 28 471 84 28 28 28 443 112 331 28 28 173 438 54 303 696 159 928 192 736 368 128 240 32 96 48 154 588 547 312 300
is_linear=0
shrinkage=0.479475


Tree=6
num_leaves=63
num_cat=0
split_feature=200 151 135 95 149 182 30 200 200 191 180 97 135 205 200 200 0 200 200 200 164 141 135 150 135 200 51 205 207 22 206 0 200 184 200 200 200 200 200 11 105 200 206 205 200 205 200 200 205 5 5 200 0 205 205 205 0 200 200 0 200 206
split_gain=0.0498186 0.0781863 0.0628766 0.0508554 0.0487178 0.042859 0.0415332 0.0401262 0.0411258 0.0333574 0.0285093 0.0279466 0.029065 0.0234078 0.0221687 0.0364577 0.0583462 0.0418827 0.0373469 0.0221153 0.0508384 0.0490228 0.0449365 0.0312882 0.0274439 0.0330229 0.0274059 0.0249104 0.0210368 0.0255406 0.0205033 0.0220168 0.0203262 0.0191786 0.0315556 0.0394418 0.0320685 0.0257485 0.0838455 0.0188175 0.0185164 0.0179448 0.0175245 0.0173121 0.0170176 0.0167279 0.01612 0.0321714 0.0156762 0.0154753 0.0147206 0.0139964 0.021297 0.0145576 0.0223808 0.0197134 0.0162016 0.0158627 0.0239452 0.0419848 0.0141455 0.0132315
threshold=12.500000000000002 0.99316969806853017 0.739315463790855 -0.71721874025890686 18.409099498848409 0.40953843007887719 7.7110665566619367e-06 147.50000000000003 142.50000000000003 2.6328710736282135e-17 1.2198201737445078 0.062329506074917718 0.62971872647566574 0.61977385766589521 137.50000000000003 112.50000000000001 1017.0000000000001 107.50000000000001 127.50000000000001 52.500000000000007 0.1219403869709174 0.014493634261966546 0.61643343410014884 0.58269160503750983 0.54092496405536161 27.500000000000004 3.1754264804260246 0.75784450333663023 0.037639015810195763 0.031815705224897115 0.87475920750335268 391.00000000000006 22.500000000000004 0.73091854199959461 112.50000000000001 127.50000000000001 107.50000000000001 142.50000000000003 147.50000000000003 -6.9235534522218307 -2.0691458335141308 22.500000000000004 0.73961191642189061 0.63875710589948131 102.50000000000001 0.85652680622082145 137.50000000000003 132.50000000000003 0.83503239310752109 -29.542655537413349 -67.628613277514106 102.50000000000001 1126.0000000000002 0.83000529077461416 0.85915237499659536 0.75964923542490925 1017.0000000000001 82.500000000000014 67.500000000000014 992.50000000000011 92.500000000000014 0.8918104886806848
decision_type=2 2 2 2 2 2 2 2 2 2 2 2 2 2 2 2 2 2 2 2 2 2 2 2 2 2 2 2 2 2 2 2 2 2 2 2 2 2 2 2 2 2 2 2 2 2 2 2 2 2 2 2 2 2 2 2 2 2 2 2 2 2
left_child=1 2 4 5 11 6 33 8 14 13 -11 50 -13 -7 15 17 18 43 -17 20 -15 39 24 30 42 28 -23 -27 -26 -30 31 -24 -31 34 36 -36 44 46 -39 -21 61 -33 -22 -8 -2 -19 47 -37 -10 -29 -1 52 53 55 -55 -45 -57 58 59 -56 -59 -32
right_child=3 -3 -4 -5 -6 9 7 -9 48 10 -12 12 -14 19 -16 16 -18 45 -20 21 22 26 23 -25 25 27 -28 49 29 32 40 41 -34 -35 35 37 -38 38 -40 -41 -42 -43 -44 51 -46 -47 -48 -49 -50 -51 -52 -53 -54 54 57 56 -58 60 -60 -61 -62 -63
leaf_value=-0.013746935458556283 -0.0028944897598505116 0.022348735595031203 0.0067186642159883445 0.0073451363970444905 -0.037998261954662105 0.024673988663912887 -0.016765702054648293 0.022733082105395836 -0.0070498691430899299 -0.0034935861623365109 0.00076361960299479114 -0.0039444142656613231 -0.018488212268187983 0.0046138675140779527 0.017336293962890808 -0.033278578686659045 0.0023248121535398981 0.010623430893697064 -0.0033726635482365925 -0.0033959869866702842 0.006202712572761942 0.0031059257172991106 0.019022854921023707 -0.011514287130307263 0.009767440649951201 0.031930239158764716 0.0084388228048241174 0.0036085713970045136 0.0002121927704217795 -0.032816261069939547 -0.029323773853907151 -0.010535124205973866 -0.0048115487808950072 -0.0043754464875972897 0.01662337421852049 -0.016775131249309988 -0.024072281904837681 0.034316388396040225 -0.014769929568482399 0.0012090367316797209 -0.00048730187194266113 0.0027777930079169433 -0.0063422292502133271 0.014256299192719637 0.013171027726461419 0.038356677532216055 -0.02021174268604773 0.013630588279437852 -0.033897228291374919 0.014943149996557001 -0.037496310833880858 -0.009798315294047644 -0.0012248290876176165 0.020180940769510273 0.022564664586136107 -0.014407859994584875 0.0023458619441108336 0.026826895687252977 -0.011604114846110444 -0.0082044962616665603 0.0039980897940547098 -0.0094721202829234092
leaf_weight=12.000000000000002 288 20 48 224 15.999999999999998 9.9999999999999982 10.999999999999998 20 10.000000000000002 672 783 112 44 320 20 24 60 10.000000000000002 15.999999999999998 240 32 720 13.999999999999998 160 21 9.9999999999999982 320 90 36 13 12.999999999999998 33 11 1008 48 15.999999999999998 15.999999999999998 15.999999999999998 15.999999999999998 1360 27 79 128 21 15.999999999999998 9.9999999999999982 15.999999999999998 15.999999999999998 9.9999999999999982 40 11.999999999999998 20 144 34 22 19 44 13.000000000000002 21 19 11.999999999999998 19
leaf_count=12 288 20 48 224 16 10 11 20 10 672 783 112 44 320 20 24 60 10 16 240 32 720 14 160 21 10 320 90 36 13 13 33 11 1008 48 16 16 16 16 1360 27 79 128 21 16 10 16 16 10 40 12 20 144 34 22 19 44 13 21 19 12 19
internal_value=-2.59129e-07 -0.00647226 -0.00883464 0.000230915 -0.0126436 8.56455e-06 -0.00186565 0.00164352 0.00086243 0.000742094 -0.0012026 -0.0103899 -0.00804651 0.00150766 0.00168304 0.00105691 -0.0071316 0.00310404 -0.0213162 0.00144481 -0.000421014 0.00218407 -0.00264025 -0.00660439 0.000949339 0.00441184 0.00474682 0.00887 -0.00329362 -0.00786499 -0.002358 0.00109608 -0.0199808 -0.00321533 -0.000605063 0.00575754 -0.0031501 -0.000761965 0.00977323 0.000518283 -0.00973452 -0.00114476 -0.00383324 0.00197846 -0.00204894 0.0244901 -0.00778543 -0.00157227 -0.0204735 0.00709613 -0.0256216 0.00253723 0.00324414 0.00638332 0.00974983 0.00153394 -0.00270685 0.0056733 0.00156211 0.00830579 0.0158691 -0.0175369
internal_weight=7655 264 244 7391 196 7167 2016 560 540 5151 1455 180 156 3696 520 500 100 400 40 3686 1046 2640 726 345 381 221 1040 140 81 60 185 126 24 1456 448 128 320 80 32 1600 59 112 160 380 304 20 48 32 20 130 24 369 349 205 121 84 63 87 62 41 25 32
internal_count=7655 264 244 7391 196 7167 2016 560 540 5151 1455 180 156 3696 520 500 100 400 40 3686 1046 2640 726 345 381 221 1040 140 81 60 185 126 24 1456 448 128 320 80 32 1600 59 112 160 380 304 20 48 32 20 130 24 369 349 205 121 84 63 87 62 41 25 32
is_linear=0
shrinkage=0.479475


Tree=7
num_leaves=63
num_cat=0
split_feature=205 181 169 168 179 17 171 206 91 200 0 100 95 205 200 200 0 200 207 96 206 93 207 150 207 10 206 0 23 3 200 90 200 200 205 207 206 184 200 205 200 5 205 207 141 206 205 200 206 207 207 206 5 5 207 205 0 30 200 207 200 0
split_gain=0.0216661 0.0279481 0.0225288 0.0262689 0.0225026 0.0190735 0.0177794 0.0157265 0.0126389 0.0118155 0.0360134 0.0146648 0.0116396 0.0114286 0.0105857 0.0154248 0.00991532 0.0129792 0.0154644 0.00966313 0.00956238 0.0421575 0.0190042 0.0158646 0.00971578 0.0158858 0.00942666 0.0131225 0.00935694 0.00924128 0.00949223 0.00919589 0.00910403 0.0127059 0.0110283 0.00703775 0.00684509 0.0065202 0.00848168 0.01256 0.017876 0.0142001 0.0141536 0.0193818 0.0109564 0.0101624 0.0200728 0.0152535 0.0117075 0.00960763 0.00732086 0.00863986 0.00729883 0.00710177 0.00686054 0.0244661 0.0221586 0.00997313 0.0324286 0.0127616 0.0105242 0.014311
threshold=0.78584856815113346 -1.1456287343379503 1.8304893965586706 0.65915769888652498 0.10838289619086615 0.47805861715390663 0.23961455684247199 0.8179807460219628 108.28770589777325 127.50000000000001 1035.5000000000002 -0.22621171470178567 -0.82982713063604263 0.80848682096152069 142.50000000000003 147.50000000000003 290.50000000000006 72.500000000000014 0.11640174997597026 0.93794868013462562 0.61432699566330695 3.0195970193123887 0.020367387993133469 0.39953610066678863 0.039518624670983292 -3.7253215674008247 0.73479281286686804 1287.0000000000002 12.872933988013104 -1.0000000180025095e-35 47.500000000000007 271.78995816396412 92.500000000000014 82.500000000000014 0.8487481646060312 0.11829220930449855 0.85486321894694506 0.81802165468459442 32.500000000000007 0.82482889181744057 42.500000000000007 -81.434749958646464 0.80760236982076106 0.081478873318284198 0.0054061138560603577 0.8664916134590942 0.83503239310752109 127.50000000000001 0.98002091244433653 0.095761921787847773 0.10141266339135964 0.85486321894694506 -81.434749958646464 -81.434749958646464 0.10892630370333405 0.87082800609097932 4563.0000000000009 6.2748090059868672e-31 122.50000000000001 0.10767052158155878 82.500000000000014 4110.0000000000009
decision_type=2 2 2 2 2 2 2 2 2 2 2 2 2 2 2 2 2 2 2 2 2 2 2 2 2 2 2 2 2 2 2 2 2 2 2 2 2 2 2 2 2 2 2 2 2 2 2 2 2 2 2 2 2 2 2 2 2 2 2 2 2 2
left_child=1 7 3 -3 5 8 14 -1 16 11 -11 35 -12 28 31 -16 17 18 -2 20 21 -5 -22 24 -24 -26 27 -25 -13 30 -10 -4 33 -19 -34 -7 -6 -31 49 41 -41 -40 -43 -44 45 47 52 -42 54 -39 -45 -52 -47 -50 57 -56 -57 59 60 -48 61 -59
right_child=4 2 6 19 36 9 -8 -9 29 10 12 13 -14 -15 15 -17 -18 32 -20 -21 22 -23 23 26 25 -27 -28 -29 -30 37 -32 -33 34 -35 -36 -37 -38 38 39 40 44 42 43 50 -46 46 48 -49 53 -51 51 -53 -54 -55 55 56 -58 58 -60 -61 -62 -63
leaf_value=-0.02151801500799435 0.0048116676311666905 -0.0043285668245043023 0.0013898748896218401 -0.00088537242816022282 0.0099160675004900996 0.0053078235474170472 -0.0093239363828019946 0.00098005618765044595 -0.0072051847073011039 0.013238414722155031 -0.002527667205055303 0.011942775701448903 0.0052490743143794568 -0.00032779961566638656 0.021863299547872472 -0.0031844266739706382 0.00054694964220561066 -0.0035359458262995956 -0.015507318094866163 2.9931166098634916e-05 -0.010998165539291994 0.037576029036194683 0.0023610722167493165 0.015759231481262185 0.03186130236762106 0.0091762709408506737 4.9471172258562565e-05 0.0014598479898127765 -0.0033115153370900708 -0.0028812141203361525 0.0052183798748723339 -0.0037991630948262943 -0.0065819606724855989 -0.022644339798293254 0.0065730501339215739 -0.0030504482640582131 0.0035224785237448759 -0.016696377501628282 0.00013229270795887525 -0.012849594191022055 0.020095767640050149 -0.0023207349757837985 0.030768362964938057 -0.0025712412707639687 0.0011487999574859853 -0.0051373084939453735 -0.00021512444086442404 -0.003411139712751002 -0.003946217811696128 0.002248872359073261 0.0021694325611561534 0.021252131568024996 -0.017512612197213527 -0.017829498453209382 -0.0064296773928976952 -0.0012720745357102346 0.027499505905010664 -0.011360010181304945 0.030342881216596434 -0.016441453853958305 0.0080631091597716687 0.0065247761068660528
leaf_weight=25 62 193 97 19.000000000000004 46 212 100 9.9999999999999982 17 79 99 32 80 761 10 13 2809 15.999999999999998 9.9999999999999982 249 20 9.9999999999999982 14.999999999999998 25 10.999999999999998 20.000000000000004 125 36 12.999999999999998 581 84 412 64 15.999999999999998 19 26 236 16.000000000000004 162 31 11.000000000000002 19 10.999999999999998 10.999999999999998 296 18 78 14.999999999999998 18 9.9999999999999982 10.000000000000002 11.999999999999998 28 15.999999999999998 120 15.999999999999998 10.000000000000002 24 9.9999999999999982 12.999999999999998 30 18
leaf_count=25 62 193 97 19 46 212 100 10 17 79 99 32 80 761 10 13 2809 16 10 249 20 10 15 25 11 20 125 36 13 581 84 412 64 16 19 26 236 16 162 31 11 19 11 11 296 18 78 15 18 10 10 12 28 16 120 16 10 24 10 13 30 18
internal_value=-1.34862e-07 -0.00171266 -0.00136712 0.000460788 0.000379819 0.000182537 -0.00345822 -0.01509 -0.000268962 0.00180579 0.00471132 0.00108775 0.000947971 0.000111245 -0.00235564 0.00770589 0.000321892 -0.00305878 0.00198959 0.00220484 0.00413206 0.0123772 0.00318322 0.00440575 0.0123786 0.0172258 0.00243397 0.00732025 0.00753598 -0.00131953 0.00312728 -0.00281029 -0.0062195 -0.0130901 -0.00357057 0.00439474 0.0045654 -0.00160307 -0.000862685 -0.00063523 -0.00157559 0.00250767 0.00861578 0.0133384 -0.00109086 -0.00265071 -0.00324922 0.00653409 -0.00202157 -0.00940974 0.00752837 0.0125782 -0.0126701 -0.0104795 -0.00112009 -0.00354054 0.00979392 0.000922597 0.00475766 -0.00253317 0.00120415 -0.0036951
internal_weight=7655 1390 1355 723 6265 5983 632 35 4681 1302 258 1044 179 806 532 23 2996 187 72 530 281 29 252 232 46 31 186 61 45 1685 101 509 115 32 83 238 282 1584 1003 977 752 225 63 44 721 425 399 26 353 26 33 22 46 34 319 146 26 173 82 91 72 42
internal_count=7655 1390 1355 723 6265 5983 632 35 4681 1302 258 1044 179 806 532 23 2996 187 72 530 281 29 252 232 46 31 186 61 45 1685 101 509 115 32 83 238 282 1584 1003 977 752 225 63 44 721 425 399 26 353 26 33 22 46 34 319 146 26 173 82 91 72 42
is_linear=0
shrinkage=0.479475


Tree=8
num_leaves=63
num_cat=0
split_feature=200 166 138 83 198 114 19 12 207 118 206 150 181 205 167 6 2 200 200 205 6 22 200 0 200 200 200 206 206 5 205 200 207 23 205 200 200 200 86 206 207 206 206 200 11 200 5 200 200 200 205 98 200 206 9 98 206 205 206 200 172 200
split_gain=0.00748313 0.0321721 0.0155493 0.0199089 0.0118913 0.00973258 0.00893955 0.00708459 0.00886941 0.00809444 0.0088658 0.016779 0.0117467 0.00796169 0.0194495 0.0138988 0.00903553 0.00780943 0.0128747 0.0125145 0.00697311 0.00677462 0.0122495 0.0151536 0.0073312 0.00882881 0.00896059 0.00674506 0.00578717 0.0119375 0.00889948 0.0147473 0.0132354 0.00911354 0.00807458 0.0100042 0.00782332 0.00777441 0.00765074 0.00723841 0.00653081 0.00604926 0.0105082 0.00601571 0.0166829 0.0107559 0.00575049 0.00574517 0.00877617 0.00875836 0.00559576 0.00557404 0.00900299 0.00534062 0.00913085 0.0053284 0.0135365 0.00978009 0.0119507 0.00644038 0.00558528 0.0156561
threshold=12.500000000000002 0.23835168129655246 -0.44472015521703706 -7.8070346446262144 0.050011508654497501 0.9071617064135632 -0.57822863896216303 3.4756079238762005 0.034585774619321739 17.55634741449429 0.6785147359922542 0.21462755662394517 0.25652482692092177 0.72693746414772187 0.048094961339950767 2.523744011092469e+31 -0.06923709407442219 147.50000000000003 142.50000000000003 0.83503239310752109 2.523744011092469e+31 0.0085768054411128041 92.500000000000014 1817.0000000000002 42.500000000000007 137.50000000000003 132.50000000000003 0.99129528565512004 0.96909518687033513 -19.26595355388978 0.85614135404569502 42.500000000000007 0.086079972939272428 12.872572686350393 0.86838838321943601 102.50000000000001 72.500000000000014 52.500000000000007 6.8537613219889648 0.88570524197128375 0.10297909650837665 0.80693226545741814 0.73479281286686804 52.500000000000007 -2.6941743574743051 47.500000000000007 -31.561795570221729 147.50000000000003 102.50000000000001 127.50000000000001 0.83188003137549071 0.34123064544722376 127.50000000000001 0.87061446672401954 -5.1254980952832128 0.43771635164991257 0.72879975045977452 0.85652680622082145 0.79688407283382967 42.500000000000007 0.088071555175831137 32.500000000000007
decision_type=2 2 2 2 2 2 2 2 2 2 2 2 2 2 2 2 2 2 2 2 2 2 2 2 2 2 2 2 2 2 2 2 2 2 2 2 2 2 2 2 2 2 2 2 2 2 2 2 2 2 2 2 2 2 2 2 2 2 2 2 2 2
left_child=1 2 3 4 6 -5 -1 8 -2 10 11 -9 -13 14 -12 16 -16 18 21 -20 -4 22 -11 -24 -23 26 -26 28 30 36 38 -32 -33 37 -35 -36 -30 -34 39 47 -39 42 -40 44 45 46 -43 48 53 -50 -19 -14 -53 54 -10 56 -15 58 -57 -60 61 -58
right_child=7 -3 20 5 -6 -7 -8 9 27 17 13 12 51 55 15 -17 -18 50 19 -21 -22 24 23 -25 25 -27 -28 -29 29 -31 31 32 33 34 35 -37 -38 40 41 -41 -42 43 -44 -45 -46 -47 -48 -49 49 -51 -52 52 -54 -55 -56 57 60 -59 59 -61 -62 -63
leaf_value=-0.016404559870554315 0.012069265779137998 0.021747264440823616 0.0022475019875102809 0.0085502572346092456 -0.020514287967084717 -0.0044039342346755767 -0.0041789055185470162 0.020532995601620016 0.0088609752732501483 -0.003283093648696978 -0.014707368850594017 -0.0030130379467053123 0.014455872098970847 0.01590998659559812 -0.0063945401622549376 -0.017346838662449689 0.0011780060358644862 0.0029146243814857247 0.0013422956103391105 -0.022645290583050127 -0.010041345643204211 0.007401899578727866 0.010879131464048555 -0.0023188822148723391 0.001926781957993581 0.014561627871827538 -0.011534421849256068 -0.0094240286430696176 -0.0070214972025934557 0.020778919842620001 -0.015584709058133318 0.0075522242015213089 -0.0097367190655173533 -0.0026662099346454341 -0.0020618148356146546 -0.02037591225009228 0.006066299863470211 -0.0012759353673476518 0.0055171520680976516 0.010557456683617643 0.0060547866714073346 0.014087552058481634 -0.0070198864023004459 0.00052867085541456911 -0.0013656788896396505 0.023212531781694794 0.0025345161731215411 0.014085898144518027 -0.0087302392407301137 0.0030818937766878096 0.018954834424793499 5.9876075710139127e-05 0.012328835709167941 0.011432996822476621 -0.0020409116894406767 -0.010227354304745638 -0.011730930341764562 0.0080293844583896583 0.010599892674672378 -0.0024574907133467559 -0.00031503433505031275 0.003450241882534268
leaf_weight=20 17 11.999999999999998 92 20 24 40 44 11.999999999999998 33 128 29 63 13.999999999999998 11.999999999999998 47 11.999999999999998 158 10.000000000000002 10.000000000000002 9.9999999999999982 11.999999999999998 72 40 40 216 11.999999999999998 11.999999999999998 13.999999999999998 13.999999999999998 9.9999999999999982 15.999999999999998 39 14.999999999999998 60 12.000000000000002 15.999999999999998 42 65 22 35 49 15.999999999999995 51 372 54 11.999999999999998 26.000000000000004 9.9999999999999982 27 31 9.9999999999999982 44 20 23 38 51 17 15.999999999999998 9.9999999999999982 66 4949 192
leaf_count=20 17 12 92 20 24 40 44 12 33 128 29 63 14 12 47 12 158 10 10 10 12 72 40 40 216 12 12 14 14 10 16 39 15 60 12 16 42 65 22 35 49 16 51 372 54 12 26 10 27 31 10 44 20 23 38 51 17 16 10 66 4949 192
internal_value=-7.02175e-08 -0.0025084 -0.00366343 -0.00682066 -0.0114126 -8.58704e-05 -0.00799942 8.9525e-05 0.0012009 -0.000108757 -0.000279309 0.00332136 0.00185654 -0.00037841 -0.0030451 -0.00148655 -0.000558139 0.00163087 0.00128628 -0.0106515 0.000829558 0.00174543 -0.000374164 0.00428012 0.00315849 0.00188546 0.0012183 0.00103324 0.0011678 0.00551929 0.000886781 -0.00146268 -0.000580056 -0.00204162 -0.00580374 -0.012527 0.00279435 0.00052479 0.00173885 0.00430461 0.00187499 0.000824829 -0.0032416 0.00144327 0.00459354 0.0105528 0.00693567 0.00295369 0.00222131 -0.00241686 0.0109347 0.00578966 0.00389393 0.00508315 0.00302616 -0.000254938 -0.00017508 -0.0031421 -0.00454953 -0.000739414 -0.000212502 0.00221541
internal_weight=7655 264 252 148 88 60 64 7391 1119 6272 5712 153 141 5559 246 217 205 560 540 20 104 520 208 80 312 240 228 1102 1088 66 1022 272 256 217 88 28 56 129 750 197 114 553 73 480 108 54 42 162 152 58 20 78 64 94 71 5313 5170 143 127 76 5158 209
internal_count=7655 264 252 148 88 60 64 7391 1119 6272 5712 153 141 5559 246 217 205 560 540 20 104 520 208 80 312 240 228 1102 1088 66 1022 272 256 217 88 28 56 129 750 197 114 553 73 480 108 54 42 162 152 58 20 78 64 94 71 5313 5170 143 127 76 5158 209
is_linear=0
shrinkage=0.479475


Tree=9
num_leaves=63
num_cat=0
split_feature=3 205 200 205 205 200 200 200 207 207 200 11 200 5 207 161 206 200 200 205 205 199 207 206 17 207 207 135 200 207 207 96 200 147 147 206 205 200 53 206 136 13 205 206 5 12 200 207 100 200 106 150 95 34 205 19 200 200 53 53 200 13
split_gain=0.00351777 0.0107325 0.00543001 0.0046143 0.0130507 0.00963689 0.0106323 0.00849645 0.00734351 0.00553917 0.00745639 0.00378832 0.00472562 0.00853957 0.00544139 0.0040006 0.00586475 0.00425079 0.0137607 0.00931678 0.0086539 0.00403935 0.00506247 0.0110614 0.00956544 0.00854098 0.00482453 0.0085649 0.0158462 0.0104924 0.019037 0.00699158 0.00694765 0.0104159 0.0081043 0.00668558 0.00994719 0.0159368 0.0115376 0.0074837 0.00654281 0.00602028 0.00559668 0.00492652 0.00575586 0.00490627 0.00420241 0.0060197 0.00550914 0.00410082 0.0244006 0.0218743 0.015733 0.00470595 0.00438955 0.0112536 0.00727798 0.0108224 0.0171649 0.0111034 0.00727935 0.0124554
threshold=-4.1261258322739936e-16 0.88422897243058352 122.50000000000001 0.84435894296074843 0.81804980488212642 62.500000000000007 77.500000000000014 47.500000000000007 0.082330930798595311 0.089930554281668282 102.50000000000001 -2.6941743574743051 42.500000000000007 -35.880290634366503 0.094168014558295779 2.7159342988440287e-17 0.99030994696624475 147.50000000000003 142.50000000000003 0.83188003137549071 0.83503239310752109 -0.78247275954767581 0.11096943831987664 0.80325303361854272 0.47318513333727041 0.11320489790949671 0.080083824211924823 0.68778754962391109 147.50000000000003 0.098855837947287223 0.09261040621277368 0.95407241738699022 92.500000000000014 92.500000000000014 92.500000000000014 0.88219775234712305 0.75964923542490925 17.500000000000004 1.2985825781383304 0.8017083166592982 0.33606086767806514 1.7443076814758986e-05 0.87573223857965654 0.84110835322283839 -57.393681766848069 6.0771163992734474 17.500000000000004 0.037639015810195763 0.075181265249194565 147.50000000000003 27.499702769787671 0.50953828554809932 -0.91943130899666381 8.0825739343043619 0.8621357141554008 -0.55888280442737892 47.500000000000007 82.500000000000014 58.874134405273836 3.8612257022007879 92.500000000000014 9.7739623937560167e-05
decision_type=2 2 2 2 2 2 2 2 2 2 2 2 2 2 2 2 2 2 2 2 2 2 2 2 2 2 2 2 2 2 2 2 2 2 2 2 2 2 2 2 2 2 2 2 2 2 2 2 2 2 2 2 2 2 2 2 2 2 2 2 2 2
left_child=1 2 3 4 8 -5 -7 -6 -1 -8 -11 15 13 -13 -15 21 17 18 -17 -19 -20 22 49 24 25 -24 31 32 29 30 -29 35 34 -34 -28 36 37 40 -39 -38 -23 -41 -31 44 -43 -45 48 -48 -33 54 51 -51 53 -52 -2 56 -56 58 -58 -59 61 -61
right_child=11 -3 -4 5 7 6 9 -9 -10 10 -12 12 -14 14 -16 16 -18 19 20 -21 -22 26 23 -25 -26 -27 27 28 -30 42 -32 46 33 -35 -36 -37 39 38 -40 41 -42 43 -44 45 -46 -47 47 -49 -50 50 52 -53 -54 -55 55 -57 57 59 -60 60 -62 -63
leaf_value=0.00017947243601908899 -0.0009580007052525549 -0.013527092665982577 0.0070454971134213326 0.0093626051192957187 -0.015993951435021803 -0.010165422736432719 0.013496691577912499 -0.00083479837478325487 0.015849914305580227 0.0059519180203023722 -0.0072035966863028397 -0.0040299351124250008 0.0014590037958207575 0.0036825125064192509 -0.004343501830126004 0.001030202150162396 0.012526725725434626 -0.0026688816579903728 -0.0018084734267338931 0.018028411268073474 -0.021755882795731617 0.012011143203028457 0.023867464914234873 -7.7868030904845801e-05 0.0026894623329593585 0.0053706710455577933 0.00064870750115046303 0.00016362604695811485 -0.017041267923764754 -0.0026505803446084577 0.021861747843742153 0.0018948642869715 0.00038139759954165244 0.0054373829092669961 -0.0038560550167791481 -0.00098803604228484042 0.017705188940161314 -0.00074399908737202505 -0.019084154736015657 0.012526389851743695 0.0012225523047611933 0.0067646902849746336 -0.014260590240159042 0.014597496911140253 -0.0085360722175639794 0.0035516066474955152 0.010696426256775898 -0.00012483118650798839 -0.008099631988050679 -0.00041875616214897637 -0.0093235637703212686 0.023790907046618633 -0.0031048133622693704 -0.021333999522419472 -0.0070193527916935835 -0.0011675300851603284 0.0037405209562531836 0.0095394648985311567 0.018166537465997112 0.00073027495710520514 0.0004923407936399313 -0.021425496256356463
leaf_weight=22 2718 9.9999999999999982 48 38 17 18 9.9999999999999982 17 9.9999999999999982 26 15.999999999999998 112 704 87 25 529 9.9999999999999982 10.000000000000002 10.000000000000002 9.9999999999999982 9.9999999999999982 24 11.000000000000002 509 59 11.999999999999998 287 60 15.999999999999998 210 10.999999999999998 21 306 135 135 63 14.999999999999998 23 11.999999999999998 25 28 10.000000000000002 9.9999999999999982 12.999999999999998 12.999999999999998 32 12.999999999999998 130 32 39 11.999999999999998 10.999999999999998 48 20 18 502 108 28 23 14.000000000000002 150 9.9999999999999982
leaf_count=22 2718 10 48 38 17 18 10 17 10 26 16 112 704 87 25 529 10 10 10 10 10 24 11 509 59 12 287 60 16 210 11 21 306 135 135 63 15 23 12 25 28 10 10 13 13 32 13 130 32 39 12 11 48 20 18 502 108 28 23 14 150 10
internal_value=-3.6554e-08 0.0018385 0.00253065 0.00128517 -0.00187335 0.00321538 -0.000121691 -0.00841437 0.00507649 0.00335499 0.000940293 -5.74986e-05 0.000848682 -0.00106947 0.00189099 -0.000186973 0.00101588 0.000813583 0.000563449 0.00767976 -0.0117822 -0.000304697 -0.000548405 0.00075471 0.00592279 0.014217 0.00033939 -0.000175406 -0.00235046 -0.00154272 0.00352531 0.00166607 0.000598338 0.00192915 -0.00079239 0.00330607 0.00469339 0.000877897 -0.00703205 0.00776699 0.0062019 0.00616405 -0.00317831 0.00382495 -0.00188357 0.00674264 -0.000492707 0.000858919 -0.00413955 -0.000756495 -0.00340173 0.00490737 -0.00859492 -0.0168301 -0.000660197 0.000288726 0.00237146 0.00287907 0.00627333 0.000677847 -0.000748161 -0.0085013
internal_weight=7655 232 222 174 66 108 70 34 32 52 42 7423 928 224 112 6495 579 569 549 20 20 5916 4292 591 82 23 1624 1170 307 291 71 454 863 441 422 258 195 87 35 108 52 93 220 68 23 45 196 143 53 3701 130 50 80 32 3571 853 351 333 131 202 174 24
internal_count=7655 232 222 174 66 108 70 34 32 52 42 7423 928 224 112 6495 579 569 549 20 20 5916 4292 591 82 23 1624 1170 307 291 71 454 863 441 422 258 195 87 35 108 52 93 220 68 23 45 196 143 53 3701 130 50 80 32 3571 853 351 333 131 202 174 24
is_linear=0
shrinkage=0.479475


Tree=10
num_leaves=63
num_cat=0
split_feature=181 200 0 206 200 205 179 176 207 88 207 5 207 205 13 207 207 170 206 182 207 207 97 24 200 200 130 207 207 200 0 111 207 205 207 207 205 84 205 205 205 206 205 13 207 200 184 33 23 125 206 141 131 53 200 114 200 205 205 5 200 206
split_gain=0.0035538 0.0088586 0.011494 0.00874411 0.00824998 0.00495493 0.00244895 0.00243761 0.0035734 0.00414196 0.00513506 0.00387592 0.00346759 0.00662346 0.0112681 0.00856619 0.00608556 0.00517129 0.00499141 0.00523246 0.00941364 0.00831036 0.00408753 0.00371952 0.00587623 0.00532182 0.00439912 0.00359344 0.00424053 0.00699396 0.00393493 0.0035101 0.0111337 0.00865905 0.00560149 0.00896173 0.0107126 0.00506828 0.0197469 0.00486874 0.00715367 0.0077316 0.00655128 0.00452312 0.00379331 0.0039854 0.00931446 0.00825526 0.00641974 0.00398434 0.00415223 0.0113237 0.00627606 0.00482509 0.00762616 0.00772614 0.00675629 0.00351199 0.00331008 0.00322876 0.00336673 0.00310757
threshold=-1.1456287343379503 137.50000000000003 762.00000000000011 0.8179807460219628 117.50000000000001 0.71935116573770574 0.11138415685592985 0.026909816746753818 0.11290150899807468 1.8276013285829389 0.11512839013642324 -63.634486638036073 0.10191488977827472 0.88940122153702683 0.00024690238570252706 0.10869061671984882 0.1039128401143367 0.24583972300269821 0.92859171523026929 0.34846378616726187 0.098328856238443493 0.094702892146469542 0.15571629590187841 0.00071901457812387822 72.500000000000014 67.500000000000014 0.1413220916195034 0.068968107661276354 0.066118102468054232 112.50000000000001 391.00000000000006 -3.1699698866200472 0.087851221437975691 0.86922803269818794 0.063528345198750377 0.059439174763502044 0.79856120697640665 19.26910315138047 0.85652680622082145 0.85614135404569502 0.84580338853118919 0.8918104886806848 0.83935391152720074 0.00024690238570252706 0.093026067059664777 12.500000000000002 0.78088889244068738 3.1753699174077887 12.872534705151823 2.6892347323365467e-06 0.75901405256371268 0.03465092363990542 0.077790814869803784 1.2760898140643144 27.500000000000004 0.95642802104857061 42.500000000000007 0.83411363524469218 0.89166333614478377 -26.243733910822709 27.500000000000004 0.97051837608586145
decision_type=2 2 2 2 2 2 2 2 2 2 2 2 2 2 2 2 2 2 2 2 2 2 2 2 2 2 2 2 2 2 2 2 2 2 2 2 2 2 2 2 2 2 2 2 2 2 2 2 2 2 2 2 2 2 2 2 2 2 2 2 2 2
left_child=1 3 -3 4 5 -1 7 8 61 10 11 -10 18 17 58 16 -16 -14 22 20 21 -20 31 24 25 -19 -25 28 -24 -30 -29 32 33 34 35 43 -37 38 -34 40 42 -42 57 -9 45 46 47 -33 -48 50 51 52 -47 54 55 -52 -55 -36 -15 -46 -61 -2
right_child=6 2 -4 -5 -6 -7 -8 12 9 -11 -12 -13 13 14 15 -17 -18 23 19 -21 -22 -23 27 26 -26 -27 -28 30 29 -31 -32 44 37 -35 39 36 -38 -39 -40 -41 41 -43 -44 -45 59 49 48 -49 -50 -51 53 -53 -54 56 -56 -57 -58 -59 -60 60 -62 -63
leaf_value=-0.0054845703132103745 -0.00044658495794045095 -0.003618545512537884 0.017367220638081139 -0.0010595020809409652 0.0017109366963367863 -0.016573885334108484 0.0022435146507230239 0.0020175283883912048 -0.010722260753784211 -0.0013303938696257232 -0.014685088449784806 0.0010509734252593913 0.0051074575805573228 0.0061097701013006498 0.0096628319887862284 0.0010168976469854699 0.025678187947566433 0.00061990227286166705 -0.007775030869392234 -0.0010920719031598566 -0.016845563149698949 0.0094642165867390195 -0.0017692283490110664 0.0008819671902122342 -0.0022718532650253605 0.010912022477472524 -0.0011726242641783412 0.0072272055052234824 -0.016194411573998153 -0.00099982865967308647 -0.00045596516342822388 -0.0078642969409185234 0.002714559828872649 -0.012089114346431871 -0.00098663348132269112 0.00083204459790244131 0.02302562634280813 0.0017236506059524796 0.017327410607317104 0.006292465768487767 -0.019682990460331944 -0.0033545086812576137 0.0091472164164285233 -0.0075008133594869466 -0.00051748573132009393 0.0063466772590964607 -0.0010356035530174191 0.0066080029389044949 -0.0096259217441116481 0.00010911293425925696 -0.016092091469341131 0.019446896476499456 -0.0047255560364378767 0.0069704016500888007 0.00091001693252724405 0.00043857543959524017 5.6397855407582694e-05 -0.0086437922107639349 0.00021168748228674622 0.0048191468283038533 -0.0044544554755883686 0.0035095584248730511
leaf_weight=15.999999999999998 931 12 12 156 13.999999999999998 22 116 98 9.9999999999999982 140 12.999999999999998 18.000000000000004 52 28 12.000000000000002 11.999999999999998 9.9999999999999982 66 18.000000000000004 439 13.999999999999998 9.9999999999999982 208 1476 263 13.999999999999998 286 15.999999999999998 13.000000000000002 14.999999999999998 363 11.999999999999998 100 13.999999999999998 168 10.000000000000002 9.9999999999999982 153 27 18 10.000000000000002 20 13.999999999999998 12.999999999999998 454 34 40 37 40 963 13 10.999999999999998 18 66 197 13 64 14.999999999999998 100 9.9999999999999982 90 48
leaf_count=16 931 12 12 156 14 22 116 98 10 140 13 18 52 28 12 12 10 66 18 439 14 10 208 1476 263 14 286 16 13 15 363 12 100 14 168 10 10 153 27 18 10 20 14 13 454 34 40 37 40 963 13 11 18 66 197 13 64 15 100 10 90 48
internal_value=-1.90015e-08 -0.00184795 0.00687434 -0.00285436 -0.00823895 -0.0119047 5.77365e-05 2.30369e-05 -0.000614464 -0.00257164 -0.00681003 -0.00315375 0.00014334 0.000606023 0.00356285 0.0113217 0.0169425 0.000383952 -0.000136953 -0.00158122 -0.00669396 -0.00161816 7.0603e-05 0.000267267 -0.0011773 0.00242102 0.000548475 -0.00104619 -0.00251493 -0.00805446 -0.00013161 0.000322003 0.00127544 -0.000380691 5.52605e-05 0.00258614 0.0119288 0.0035822 0.00582123 -0.00129798 -0.00189987 -0.00879734 -0.000849494 0.000902768 1.22055e-05 0.000406377 -0.00214214 0.00306377 -0.00533076 0.00064478 0.0018848 0.00547052 0.00251398 0.00124485 -0.000108621 -0.00782676 0.00356658 -0.00161427 0.00150189 -0.00106074 -0.0035271 -0.000252617
internal_weight=7655 232 24 208 52 38 7423 7307 1160 181 41 28 6147 2319 162 34 22 2157 3828 481 42 28 3347 2105 343 80 1762 615 236 28 379 2732 670 390 376 131 20 280 127 245 227 30 197 111 2062 1508 129 49 80 1379 416 63 52 353 223 26 130 183 128 554 100 979
internal_count=7655 232 24 208 52 38 7423 7307 1160 181 41 28 6147 2319 162 34 22 2157 3828 481 42 28 3347 2105 343 80 1762 615 236 28 379 2732 670 390 376 131 20 280 127 245 227 30 197 111 2062 1508 129 49 80 1379 416 63 52 353 223 26 130 183 128 554 100 979
is_linear=0
shrinkage=0.479475


Tree=11
num_leaves=63
num_cat=0
split_feature=90 200 205 200 141 88 151 207 200 200 13 53 207 2 205 206 206 9 207 206 207 200 206 207 143 200 99 200 93 200 99 200 93 200 200 99 0 21 200 12 5 205 205 205 5 180 200 206 205 207 206 205 0 200 207 205 205 207 23 207 2 206
split_gain=0.00223585 0.00968483 0.00925132 0.0101293 0.00514716 0.00477267 0.00455309 0.00437405 0.00480832 0.00737833 0.00823347 0.00726737 0.00568112 0.00494861 0.00371996 0.0035468 0.00349948 0.0134307 0.00711917 0.011778 0.00351648 0.00257678 0.00273924 0.00217821 0.00213609 0.00481139 0.0146722 0.00535492 0.0274436 0.00612451 0.0193428 0.00409104 0.0237231 0.00245198 0.00736277 0.0184256 0.00862807 0.00408855 0.00840167 0.00894389 0.00645004 0.00403731 0.0109998 0.00665085 0.00601128 0.00379857 0.00417996 0.00535461 0.00525566 0.0064068 0.00310202 0.00462408 0.00305729 0.00283757 0.00577804 0.00370152 0.00281588 0.00204258 0.00198772 0.00331949 0.00595209 0.00451301
threshold=240.31672402051711 92.500000000000014 0.83783122432339441 37.500000000000007 0.05739332794228217 1.4436931841702594 -0.64030818537890999 0.058819323489332269 112.50000000000001 107.50000000000001 -0.014372264741022581 2.4655265737775838 0.10408274454518834 317011155800287.06 0.8574200168508691 0.98002091244433653 0.9491842558835627 -13.188552246531243 0.11113108557287733 0.70634105113524148 0.10913602851289157 72.500000000000014 0.98934094635581127 0.10903197704418004 0.00098036286044894628 147.50000000000003 0.0099520796079615118 142.50000000000003 2.9241482891266437 137.50000000000003 0.0099520796079615118 132.50000000000003 2.9241482891266437 107.50000000000001 112.50000000000001 0.0099520796079615118 1023.5000000000001 0.024347154561851721 127.50000000000001 6.38138699965985 -67.499829728481828 0.85088691339420564 0.8516786196600814 0.84835105760747909 -54.734949743818731 1.4529611821978232 77.500000000000014 0.80977276388108288 0.71486059093083687 0.044185334667427405 0.90480963931660019 0.85418079401942193 4110.0000000000009 92.500000000000014 0.11305222133731195 0.84311898082915249 0.83377795619488337 0.11420984660909338 12.872592101529575 0.09741058315550874 1181315579610856 0.98002091244433653
decision_type=2 2 2 2 2 2 2 2 2 2 2 2 2 2 2 2 2 2 2 2 2 2 2 2 2 2 2 2 2 2 2 2 2 2 2 2 2 2 2 2 2 2 2 2 2 2 2 2 2 2 2 2 2 2 2 2 2 2 2 2 2 2
left_child=1 2 4 -4 -1 7 -5 -3 9 11 -11 14 -13 23 -9 16 18 -18 20 -20 -8 -17 -23 -10 25 27 -27 29 -29 31 -31 33 -33 41 35 -35 -36 -38 39 -39 -40 43 -43 45 -45 53 47 48 -47 -50 51 -44 -49 55 -55 -2 -54 -21 -52 60 -60 -61
right_child=24 5 3 6 -6 -7 15 8 13 10 -12 12 -14 -15 -16 21 17 -19 19 57 -22 22 -24 -25 -26 26 -28 28 -30 30 -32 32 -34 34 36 -37 37 38 40 -41 -42 42 50 44 -46 46 -48 52 49 -51 58 -53 56 54 -56 -57 -58 -59 59 61 -62 -63
leaf_value=-0.00072469464481720713 -0.0013963802905836151 -0.0059772643970963371 -0.014256363557390409 -0.0061886461221803656 0.004694988356453096 -0.0012736664398294039 -0.0023557305774116548 -0.005333044834887753 0.0015996285142918418 0.000244486240292422 -0.016369947979011992 0.017182574092459268 0.0023771760966429818 0.0079739666106009612 0.0023733861462377293 0.0091073565952169352 -0.01587820394773428 -0.00052773926360583166 -0.0080012502818253891 0.0061532406362965093 -0.011705335374711991 0.0050688795705989857 -0.0051759562224954108 0.0060757302959223341 0.00023771764562877305 -0.019674550451990128 0.00036432665327750446 0.024336323369027898 -0.0030697490933188623 -0.022425316133967328 0.00058303980324349997 0.022317852271272337 -0.0031628660434778635 -0.023503012965237855 0.010052217333872536 -0.0010467881998091676 -0.005297482394885567 0.010269422863625078 0.00021340781229952941 -0.0010668137647383634 -0.015507272908179057 0.015602285585846724 -0.010622197662018258 -0.0030694325699478142 -0.017352457336550848 0.0035559770486812822 -0.0034561389627077435 0.003275415679907388 -0.013569209109787267 0.0012127583271592565 9.9371169291283338e-05 0.001935923039357944 0.015778851561820389 0.0094593203972678491 -0.0054199007931672689 -0.0086808638007684017 0.0046618870271827473 0.015431691136248033 0.00093019638417382957 0.0030038940714471451 0.016768957980537024 -0.0070929188865312626
leaf_weight=282 283 14.999999999999998 19 74 47 144 123 24 129 16.000000000000004 11.999999999999998 11.000000000000002 12.999999999999998 49 36 9.9999999999999982 20 38 10.999999999999998 10.000000000000002 9.9999999999999982 12.000000000000002 11.999999999999998 31 5335 11.999999999999998 28 11.999999999999998 28 11.999999999999998 28 11.999999999999998 28 11.999999999999998 15.999999999999998 28 48 24 12.000000000000002 48 11.999999999999998 11.999999999999998 13.000000000000002 21.000000000000004 9.9999999999999982 27 33 63 13.000000000000002 13.999999999999998 133 13.999999999999998 10.000000000000002 15.000000000000002 9.9999999999999982 17 10.999999999999998 11.999999999999998 12.000000000000002 67 9.9999999999999982 11.999999999999998
leaf_count=282 283 15 19 74 47 144 123 24 129 16 12 11 13 49 36 10 20 38 11 10 10 12 12 31 5335 12 28 12 28 12 28 12 28 12 16 28 48 24 12 48 12 12 13 21 10 27 33 63 13 14 133 14 10 15 10 17 11 12 12 67 10 12
internal_value=-9.9065e-09 -0.000613172 -0.00177716 -0.00348937 4.95458e-05 0.00103581 -0.00287319 0.00202559 0.00239955 -0.000135421 -0.00687599 0.00211143 0.00916298 0.00375801 -0.000709186 -0.00192224 -0.00261485 -0.005821 -0.00149463 0.00480906 -0.00305871 0.00264084 -5.35383e-05 0.00246687 0.0001095 -0.00048019 -0.00564734 -0.000295649 0.00515207 -0.000497417 -0.00631947 -0.000273492 0.00448135 -0.000463685 -0.00196529 -0.00778366 -0.000510694 -0.00168435 0.000122216 0.00271193 -0.00764693 -8.82851e-05 0.00140826 -0.000863537 -0.00767686 -0.000437704 0.00139157 0.0025508 -0.00117425 -0.00590449 0.000755665 -0.00411058 0.00494548 -0.00140018 0.00350763 -0.00180917 0.00995568 0.0112142 0.00131715 0.00292077 0.00812963 0.0014702
internal_weight=7655 1160 680 351 329 480 332 336 321 112 28 84 24 209 60 258 224 58 166 33 133 34 24 160 6495 1160 40 1120 40 1080 40 1040 40 1000 200 40 160 144 96 72 24 800 273 527 31 496 171 138 54 27 261 27 84 325 25 300 21 22 234 101 22 79
internal_count=7655 1160 680 351 329 480 332 336 321 112 28 84 24 209 60 258 224 58 166 33 133 34 24 160 6495 1160 40 1120 40 1080 40 1040 40 1000 200 40 160 144 96 72 24 800 273 527 31 496 171 138 54 27 261 27 84 325 25 300 21 22 234 101 22 79
is_linear=0
shrinkage=0.479475


Tree=12
num_leaves=63
num_cat=0
split_feature=191 206 112 206 207 114 206 206 205 150 206 13 200 181 109 207 207 200 206 207 200 144 174 207 207 206 23 206 101 77 21 10 207 206 205 105 3 200 8 207 207 207 200 200 200 207 207 205 93 116 186 84 89 200 96 139 207 207 206 207 11 93
split_gain=0.00210911 0.00278529 0.00990716 0.00321716 0.00277679 0.00220141 0.00142512 0.00173224 0.00503682 0.00478719 0.00412148 0.00671273 0.00334582 0.00501222 0.00324127 0.00335677 0.00307896 0.00549837 0.00482911 0.00303216 0.00480165 0.00480438 0.00288673 0.00323939 0.00622745 0.00333936 0.00708222 0.00538765 0.00498579 0.00361801 0.00283562 0.00267443 0.00256885 0.00244242 0.00229927 0.00822458 0.00729028 0.00980219 0.0039238 0.00861152 0.00611257 0.00694549 0.00891117 0.00560636 0.00511636 0.00426731 0.00325068 0.00316346 0.00366523 0.00230258 0.00221019 0.0019759 0.00197066 0.00194075 0.00512215 0.0033683 0.00334992 0.00248143 0.00227961 0.00202593 0.00968011 0.0092092
threshold=2.4527785672668278e-17 0.99245262155422453 7.4487531004840069 0.99129528565512004 0.017567175873909071 0.94373104208508207 0.99346636598573379 0.91819364324626973 0.88017122549365312 1.0000000180025095e-35 0.92342764008046696 0.00030246564954013747 127.50000000000001 0.20189346610477379 0.99940456878244466 0.098993915061764678 0.10558095219931125 92.500000000000014 0.93882632502097463 0.085156792215132046 57.500000000000007 3.0637554487548093 71.23132690301415 0.11829220930449855 0.11610711491064286 0.9771993210674923 12.872745342077968 0.96909518687033513 -2.6208334454036877e+19 43.897823038999057 2.3077318659117645 -4.5865522410498807 0.12002398615512326 0.98170493391226976 0.84759506829153464 2.9411875958825626 5.5294163624786149e-15 107.50000000000001 -24.887222015649613 0.069492198423748583 0.076033738255185945 0.1069648127887689 132.50000000000003 47.500000000000007 82.500000000000014 0.11035901827693641 0.11724676945577708 0.84580338853118919 1.9032367770065133 0.20352078589226016 0.38490059943454619 28.347774133197202 -0.068598367862126461 92.500000000000014 0.83366543620787115 1.1260486961567542 0.10297909650837665 0.11493914512940269 0.9558443493252563 0.1069648127887689 -6.2374176241931094 2.1709349659746739
decision_type=2 2 2 2 2 2 2 2 2 2 2 2 2 2 2 2 2 2 2 2 2 2 2 2 2 2 2 2 2 2 2 2 2 2 2 2 2 2 2 2 2 2 2 2 2 2 2 2 2 2 2 2 2 2 2 2 2 2 2 2 2 2
left_child=6 3 -3 4 5 -2 7 8 34 -9 11 12 50 -14 19 -16 18 -18 -17 20 -12 -22 23 24 25 27 33 30 -28 -29 53 32 -25 -27 36 38 47 -38 46 -40 -41 42 43 -42 -45 -43 -36 -1 49 -49 51 -11 -46 54 56 58 -21 -56 59 60 -55 -61
right_child=1 2 -4 -5 -6 -7 -8 9 -10 10 14 -13 13 -15 15 16 17 -19 -20 22 21 -23 -24 31 -26 26 28 29 -30 -31 -32 -33 -34 -35 35 -37 37 -39 39 40 41 45 -44 44 52 -47 -48 48 -50 -51 -52 -53 -54 55 57 -57 -58 -59 -60 61 -62 -63
leaf_value=0.00028955453145680725 -0.00067001717977956999 0.0047005691463217142 -0.01664242224727604 0.00754150065698632 -0.00028411281452323829 -0.010499466783706257 0.0044486606535376061 -0.0098334967065114957 0.010153482590986864 0.0038074262390942939 -0.0042076141447932687 -0.012304663184767374 -0.014765997534085714 -0.00071127318860666144 -0.002558882894433213 0.016917630293364624 0.0050758338944537741 -0.007758106038142757 0.0031220225301932776 -0.0033330036861293523 0.0098227112430420739 0.0012185331876595005 0.00070879825859107137 -0.014532130562154159 0.0086114696828340272 -0.0060456805183188656 -0.014998641484773914 0.0017655598563023514 -0.0040717428381306202 0.010568612536196297 -0.0077550841241526064 -0.0012569418358967784 -0.0036641168016412016 0.0010610463400264418 0.00025405431498233902 0.013459998767423405 -0.0019867822855948315 -0.017485064972747953 0.016742129893786158 -0.0069586909300843143 0.010220509372821557 -0.0097492125717905734 0.017479393621158308 -0.0079086945448504416 0.0052357406341488628 0.0034253074825474046 0.0089597294529181228 -0.013530931975198545 -0.00038091489612204874 -0.0036796275328352442 -0.0060038311061996015 -0.0011334445461583015 -0.0025049942228114038 0.012590709538524208 -9.5372326133761172e-05 0.0041483484910668222 -0.01290810806572883 -0.0070336474490263244 0.0035688972471013525 -0.015509706265051321 -0.0020630738428464596 -0.00044855226323100845
leaf_weight=2574 10.000000000000002 10.000000000000002 9.9999999999999982 11.999999999999998 2730 10.999999999999998 18 11.999999999999998 11.999999999999998 30 18 14.999999999999998 10.000000000000002 13.999999999999998 20 10.000000000000002 33 9.9999999999999982 13.999999999999998 21 25 37 355 10.000000000000002 15.999999999999998 13.999999999999998 15.999999999999998 46 24 13.999999999999998 13.999999999999998 20 9.9999999999999982 54 707 11.999999999999998 43 11.999999999999998 9.9999999999999982 14.999999999999998 20 13.000000000000002 11.999999999999998 11.999999999999998 30.999999999999993 9.9999999999999982 9.9999999999999982 10.000000000000002 38 11.999999999999998 12.999999999999998 49 10.000000000000005 11.999999999999998 134 40 13.999999999999998 12.999999999999998 24 11.999999999999998 76 42
leaf_count=2574 10 10 10 12 2730 11 18 12 12 30 18 15 10 14 20 10 33 10 14 21 25 37 355 10 16 14 16 46 24 14 14 20 10 54 707 12 43 12 10 15 20 13 12 12 31 10 10 10 38 12 13 49 10 12 134 40 14 13 24 12 76 42
internal_value=-5.15839e-09 -0.000333001 -0.00597093 -0.000292191 -0.000326362 -0.00581878 0.00019021 0.000174419 0.000346833 -0.000301425 -0.000211992 -0.00275995 -0.00152572 -0.00656741 7.8759e-05 0.00289228 0.00451949 0.0020912 0.00887019 -0.000151945 0.00268646 0.00468796 -0.000383414 -0.0010028 -0.000717836 -0.000979711 -0.00338003 -0.000418597 -0.0084425 0.00381961 -0.00105117 -0.00517753 -0.00909812 -0.000402103 0.000313694 0.000995133 9.52478e-05 -0.00536823 0.000819158 0.00321106 0.00211097 0.00337065 0.00537078 0.00338033 0.000799126 -0.00402116 0.000375472 0.000209329 -0.00323233 -0.00815749 -0.000210498 0.000742835 0.00334776 -0.000809271 -0.00195013 0.000198673 -0.00716305 -0.000708961 -0.000753056 -0.00148353 -6.48307e-05 -0.00379548
internal_weight=7655 2783 20 2763 2751 21 4872 4854 3563 1291 1279 131 116 24 1148 87 67 43 24 1061 80 62 981 626 586 570 108 462 40 60 402 40 20 68 3551 862 2689 55 850 133 123 108 85 73 53 23 717 2634 60 22 92 79 41 388 182 206 35 147 166 142 88 54
internal_count=7655 2783 20 2763 2751 21 4872 4854 3563 1291 1279 131 116 24 1148 87 67 43 24 1061 80 62 981 626 586 570 108 462 40 60 402 40 20 68 3551 862 2689 55 850 133 123 108 85 73 53 23 717 2634 60 22 92 79 41 388 182 206 35 147 166 142 88 54
is_linear=0
shrinkage=0.479475


Tree=13
num_leaves=63
num_cat=0
split_feature=197 206 205 23 200 168 200 53 206 205 205 206 206 199 205 2 199 53 206 200 118 206 139 85 5 99 206 205 93 205 205 206 201 200 148 206 141 200 206 116 191 200 133 200 207 200 200 200 2 0 207 200 207 125 200 2 2 207 200 205 205 206
split_gain=0.00155211 0.00385902 0.00707472 0.00921908 0.00803272 0.00560833 0.00493333 0.00461709 0.00354382 0.00332443 0.00294844 0.00336607 0.00282969 0.00730639 0.00374436 0.00477159 0.00380914 0.003156 0.0031202 0.00857672 0.00290997 0.00280779 0.00523514 0.0034078 0.0026553 0.00247204 0.00393689 0.00270932 0.00392706 0.0034414 0.00241348 0.0023731 0.00273279 0.00233182 0.0022152 0.00228462 0.00218898 0.00209725 0.00204646 0.00212243 0.00209166 0.00506918 0.00210692 0.00348851 0.00268097 0.00255676 0.00698355 0.00344417 0.00219753 0.00219702 0.00204176 0.0020056 0.00585802 0.00390553 0.00308287 0.00754927 0.00507446 0.00318559 0.0088398 0.00591169 0.00298069 0.00265327
threshold=0.2454613653416601 0.74507264180419186 0.78584856815113346 12.872745342077968 67.500000000000014 1.2380065192455112 112.50000000000001 1.0758280600968015 0.80476485811972676 0.77686747702572945 0.65671383098575464 0.69841430299734952 0.75044849380980772 -1.3904113260172932 0.81489920050259512 4.0024910614127413e+25 -1.4134370688199362 16.935588942512137 0.811746136969138 22.500000000000004 2.1331153315570748 0.73961191642189061 -0.88988092010086739 -1.4382088834425428 -74.095153093569522 0.2845096051401122 0.84838566767111867 0.72693746414772187 3.0333933007484988 0.73662848819330262 0.80989517520517784 0.85582627970008207 1.0000000180025095e-35 137.50000000000003 38.340000000000011 0.68548252369736107 0.04580132635309752 27.500000000000004 0.98581026869325761 0.20352078589226016 3.5844049566909217e-17 67.500000000000014 -0.67898766190612114 37.500000000000007 0.060283631420702435 82.500000000000014 77.500000000000014 92.500000000000014 1.9760233737850118e+21 1256.0000000000002 0.058069948459492267 37.500000000000007 0.090282924403086676 1.2528941725642492e-05 77.500000000000014 167077664298030.19 69214837556652.086 0.10903197704418004 107.50000000000001 0.88124235935430861 0.83148256397188847 0.89827057565602419
decision_type=2 2 2 2 2 2 2 2 2 2 2 2 2 2 2 2 2 2 2 2 2 2 2 2 2 2 2 2 2 2 2 2 2 2 2 2 2 2 2 2 2 2 2 2 2 2 2 2 2 2 2 2 2 2 2 2 2 2 2 2 2 2
left_child=12 7 3 4 5 -3 36 -2 -4 -6 -9 -12 13 -1 15 16 31 25 19 -17 -15 23 -23 -22 -19 27 33 28 -18 -29 -20 32 37 -27 35 -25 -5 -14 40 -40 42 -42 43 48 -44 46 -45 -47 -10 -49 -7 52 53 -46 55 60 -56 59 -59 -58 -53 -62
right_child=1 2 8 6 9 50 -8 10 38 -11 11 -13 14 20 -16 18 17 24 30 -21 21 22 -24 34 -26 26 -28 29 -30 -31 -32 -33 -34 -35 -36 -37 -38 -39 39 -41 41 -43 44 45 51 47 -48 49 -50 -51 -52 54 -54 -55 56 -57 57 58 -60 -61 61 -63
leaf_value=-0.0070396473148773443 0.0051633252598913834 -0.0016050100453880278 0.0088049411417129402 -0.00010017130148563913 0.0087755059083812984 -0.0061270266605973527 -0.0033549657900903244 -0.0027152188874840833 -0.0016322665096613015 -0.0035879355602354132 0.0083674472969508737 -0.0010715162747960603 0.0033314470379570333 -0.0054865944240190751 -0.00021423170349961845 -0.00025241809385102344 0.0013815184848726609 -0.0079682677679151267 -0.0033161688224783224 0.015997939081329526 -0.0044295536440813552 -0.01370310689504429 -0.0012230465725068943 0.0010055188926965111 -0.001167178830427224 0.0022894925278801759 0.0097974731338183463 -0.0069426834599490023 0.011668999361549196 0.00015963163313174579 0.0065916934841139356 -0.003382571500606267 0.0012343245618801528 -0.004791689163745407 -2.4397087707928892e-05 0.0086556865042672938 0.005317897940973198 0.0099795351928835298 0.0014493080700742208 -0.0052240670359681362 0.00426785698894385 -0.0030117048029468713 0.0081511007933416334 0.00077761835403100882 -0.0084893012012043998 -0.0054213545854228159 0.012177982290716026 -0.00090066995677338642 -0.010106825154987354 0.002903091778072229 -0.012733477447058977 0.0087457602151955281 0.0085405369646084361 0.0026030777870547448 -0.00099412504756512328 -0.0029688265756886083 0.002747610479963883 0.0036469839453329152 -0.011023962834579371 0.012253226023024203 -0.0037266773865608561 0.0031124333036874809
leaf_weight=44 82 21 11.999999999999998 30 10.000000000000002 14.999999999999998 47 42 17 9.9999999999999982 15.999999999999998 19 20 27 4213 14.000000000000002 38 17 13.000000000000002 15.999999999999998 38 9.9999999999999982 34 25 59 98 14.999999999999998 15.999999999999998 10.999999999999998 795 9.9999999999999982 9.9999999999999982 34 11.999999999999998 424 13.999999999999998 40 24 18 28 29 91 12.999999999999998 105 9.9999999999999982 30 13.999999999999998 128 12.000000000000002 48 38 15.999999999999998 31 27 118 124 251 29 13.999999999999998 15.999999999999998 17 56
leaf_count=44 82 21 12 30 10 15 47 42 17 10 16 19 20 27 4213 14 38 17 13 16 38 10 34 25 59 98 15 16 11 795 10 10 34 12 424 14 40 24 18 28 29 91 13 105 10 30 14 128 12 48 38 16 31 27 118 124 251 29 14 16 17 56
internal_value=-2.68399e-09 0.000416057 0.000172562 -0.00239611 -0.00593199 -0.00823625 0.000444679 0.00265958 0.000604771 0.00259379 -6.73826e-06 0.00324344 -0.000112037 -0.00108579 -1.26505e-06 0.000745181 0.000540007 0.000288585 0.00519321 0.00841444 -0.000627802 -0.000387091 -0.00405942 -6.45705e-05 -0.00268848 0.000518287 0.00251066 0.000228699 0.00369095 1.9512e-05 0.000991597 0.00357135 0.00446288 0.001517 0.000293679 0.00375173 0.00299587 0.00695768 0.000525542 -0.00261275 0.000646245 -0.00125248 0.000857999 -0.000100189 0.0013278 0.000349427 0.00211884 -0.000672709 -0.00513898 0.00013672 -0.0108637 0.00120269 0.00367863 -0.000394862 0.000940035 -0.000550514 0.00168183 0.00270042 -0.0011296 0.00331724 0.00281882 0.00151976
internal_weight=7655 1624 1465 211 94 74 117 159 1254 20 77 35 6031 616 5415 1202 1149 1061 53 30 572 545 44 501 76 985 125 860 49 811 23 88 78 110 463 39 70 44 1242 46 1196 120 1076 354 722 325 119 206 29 176 53 709 68 37 641 213 428 310 43 267 89 73
internal_count=7655 1624 1465 211 94 74 117 159 1254 20 77 35 6031 616 5415 1202 1149 1061 53 30 572 545 44 501 76 985 125 860 49 811 23 88 78 110 463 39 70 44 1242 46 1196 120 1076 354 722 325 119 206 29 176 53 709 68 37 641 213 428 310 43 267 89 73
is_linear=0
shrinkage=0.479475


Tree=14
num_leaves=63
num_cat=0
split_feature=33 200 83 205 206 5 13 200 200 200 200 205 207 207 95 205 93 112 205 136 203 88 207 150 139 207 137 150 107 207 179 144 186 207 139 199 139 207 191 186 194 200 87 200 207 175 0 200 103 88 111 205 206 200 13 105 0 207 101 207 2 122
split_gain=0.00107855 0.00185241 0.00823143 0.00153688 0.0017366 0.00231704 0.00148226 0.0046335 0.0162377 0.00821044 0.00546005 0.0046642 0.00402999 0.00166864 0.00136843 0.00113768 0.00588561 0.00219904 0.00198727 0.00360592 0.00304501 0.00364185 0.00221142 0.00432737 0.00215358 0.00200384 0.00183623 0.00193067 0.0016178 0.00143101 0.00801865 0.0023337 0.00180145 0.00148647 0.00500627 0.00249461 0.00193779 0.00184576 0.00513603 0.00358904 0.00377887 0.00224972 0.00252817 0.00212973 0.00189772 0.00947477 0.00928628 0.00559823 0.00314448 0.00306232 0.00241968 0.00264645 0.0052972 0.00231868 0.00212665 0.00231238 0.00212646 0.00218022 0.00206683 0.00318365 0.00845599 0.00197755
threshold=3.1754264805429426 147.50000000000003 -10.128033854836657 0.89873942581207922 0.98804239413612283 -22.422321977136253 0.00068125630260845 27.500000000000004 52.500000000000007 112.50000000000001 127.50000000000001 0.87416942251486729 0.10443084529528744 0.099163346284633039 -0.87315602899370481 0.62738730390110786 3.1707774257396366 0.21845054424293611 0.66509007039500545 0.33411807857600445 1.0000000180025095e-35 2.8540225649482767 0.030552242023248157 0.84298447667420973 1.1260486961567542 0.028739325712616223 0.1420108782653586 0.20875615133405501 0.98860024966339066 0.037639015810195763 0.10707461505742794 1.747174120434569 -0.18281294522530689 0.045971195684694884 -1.0977380147077922 0.038788171337323936 1.1639276645064227 0.067955605546047126 3.7597049260390631e-17 -0.35195753592463075 0.25400113641744243 82.500000000000014 2.4232304306482151 137.50000000000003 0.085657067890488575 19.611217143993866 290.50000000000006 72.500000000000014 1400711704024056 -0.12794778485571331 -1.6804182869619682 0.8679249767608076 0.91124714307841115 77.500000000000014 0.00013112872852438169 2.7209683432948393 948.00000000000011 0.081168963263404184 -59842043841853056 0.088421197563977205 240999579660373.97 0.006941467508393087
decision_type=2 2 2 2 2 2 2 2 2 2 2 2 2 2 2 2 2 2 2 2 2 2 2 2 2 2 2 2 2 2 2 2 2 2 2 2 2 2 2 2 2 2 2 2 2 2 2 2 2 2 2 2 2 2 2 2 2 2 2 2 2 2
left_child=3 -2 -3 6 5 -5 15 -8 13 11 -11 -10 -13 -9 -4 16 17 -1 19 -17 -21 -22 23 24 25 -20 -19 -28 -29 30 31 -24 -33 34 -31 36 -36 38 39 -35 -41 42 -42 -43 45 46 47 -39 49 50 51 52 53 -47 55 -51 -50 -58 59 60 -46 -62
right_child=1 2 14 4 -6 -7 7 8 9 10 -12 12 -14 -15 -16 18 -18 26 22 20 21 -23 29 -25 -26 -27 27 28 -30 33 -32 32 -34 37 35 -37 -38 44 -40 40 41 43 -44 -45 58 48 -48 -49 56 54 -52 -53 -54 -55 -56 -57 57 -59 -60 -61 61 -63
