tree
version=v4
num_class=1
num_tree_per_iteration=1
label_index=0
max_feature_idx=204
objective=regression
feature_names=n_samples n_features sample_mean sample_median sample_var sample_min sample_max sample_std q1 q25 q75 q99 iqr normalized_mean normalized_median sample_range sample_gini med_abs_dev avg_abs_dev quant_coeff_disp coeff_var percent_outliers_15iqr percent_outliers_3iqr percent_outliers_1_99 percent_outliers_3std has_outliers_15iqr has_outliers_3iqr has_outliers_1_99 has_outliers_3std normality_p_min normality_p_max normality_p_mean normality_p_std normality_p_skewness normality_p_kurtosis is_normal_5_min is_normal_5_max is_normal_5_mean is_normal_5_std is_normal_5_skewness is_normal_5_kurtosis is_normal_1_min is_normal_1_max is_normal_1_mean is_normal_1_std is_normal_1_skewness is_normal_1_kurtosis moment_5_min moment_5_max moment_5_mean moment_5_std moment_5_skewness moment_5_kurtosis moment_6_min moment_6_max moment_6_mean moment_6_std moment_6_skewness moment_6_kurtosis moment_7_min moment_7_max moment_7_mean moment_7_std moment_7_skewness moment_7_kurtosis moment_8_min moment_8_max moment_8_mean moment_8_std moment_8_skewness moment_8_kurtosis moment_9_min moment_9_max moment_9_mean moment_9_std moment_9_skewness moment_9_kurtosis moment_10_min moment_10_max moment_10_mean moment_10_std moment_10_skewness moment_10_kurtosis skewness_min skewness_max skewness_mean skewness_std skewness_skewness skewness_kurtosis kurtosis_min kurtosis_max kurtosis_mean kurtosis_std kurtosis_skewness kurtosis_kurtosis correlation_min correlation_max correlation_mean correlation_std correlation_skewness correlation_kurtosis covariance_min covariance_max covariance_mean covariance_std covariance_skewness covariance_kurtosis sparsity_min sparsity_max sparsity_mean sparsity_std sparsity_skewness sparsity_kurtosis anova_p_value_min anova_p_value_max anova_p_value_mean anova_p_value_std anova_p_value_skewness anova_p_value_kurtosis first_pca_std first_pca_skewness first_pca_kurtosis entropy_min entropy_max entropy_mean entropy_std entropy_skewness entropy_kurtosis HBOS_mean_min HBOS_mean_max HBOS_mean_mean HBOS_mean_std HBOS_mean_skewness HBOS_mean_kurtosis HBOS_max_min HBOS_max_max HBOS_max_mean HBOS_max_std HBOS_max_skewness HBOS_max_kurtosis HBOS_min_min HBOS_min_max HBOS_min_mean HBOS_min_std HBOS_min_skewness HBOS_min_kurtosis IForest_n_leaves_min IForest_n_leaves_max IForest_n_leaves_mean IForest_n_leaves_std IForest_n_leaves_skewness IForest_n_leaves_kurtosis IForest_n_depth_min IForest_n_depth_max IForest_n_depth_mean IForest_n_depth_std IForest_n_depth_skewness IForest_n_depth_kurtosis IForest_fi_mean_min IForest_fi_mean_max IForest_fi_mean_mean IForest_fi_mean_std IForest_fi_mean_skewness IForest_fi_mean_kurtosis IForest_fi_max_min IForest_fi_max_max IForest_fi_max_mean IForest_fi_max_std IForest_fi_max_skewness IForest_fi_max_kurtosis pca_expl_ratio_1 pca_expl_ratio_2 pca_expl_ratio_3 pca_sv_1 pca_sv_2 pca_sv_3 LODA_n_hists_mean_min LODA_n_hists_mean_max LODA_n_hists_mean_mean LODA_n_hists_mean_std LODA_n_hists_mean_skewness LODA_n_hists_mean_kurtosis LODA_n_hists_max_min LODA_n_hists_max_max LODA_n_hists_max_mean LODA_n_hists_max_std LODA_n_hists_max_skewness LODA_n_hists_max_kurtosis LODA_n_cuts_mean_min LODA_n_cuts_mean_max LODA_n_cuts_mean_mean LODA_n_cuts_mean_std LODA_n_cuts_mean_skewness LODA_n_cuts_mean_kurtosis LODA_n_cuts_max_min LODA_n_cuts_max_max LODA_n_cuts_max_mean LODA_n_cuts_max_std LODA_n_cuts_max_skewness LODA_n_cuts_max_kurtosis params_max_features params_n_estimators MC SELECT HITS
feature_infos=[238:9931] none [-2.1372836695237414:2.8164465661574109e+29] [-2.1807174935186552e-14:1.6938693828648377e-14] [1.1879820049835159:2.9409929880753688e+63] [-834.57524416982255:-12.989023445242179] [4.1317037280876816:1.044420547657288e+34] [1.089945872501711:5.4230922803096105e+31] [-819.17907056009562:-11.246274252181394] [-352.70908322237017:-2.8534465599146421] [-41.009050292129679:-2.1224342185131193] [-16.706735308635885:-1.9500381138981635] [0.73101234140152282:334.20005692225891] [-0.088911408116868165:0.00073630880569650569] [-1.8103510239162748e-17:2.2676569195953388e-17] [31.906366237859388:1.044420547657288e+34] [0.0037045733749089512:0.9999851613470192] [0.43440228948916337:0.49291880459357362] [0.63962213592744643:5.6325893822362131e+29] [-0.90027950778629606:-0.14691114477073589] [-365.09844773976909:1.0442211201215443e+34] [0:12.479591836734693] [0:6.0214723926380369] [12.871578947368421:12.874564459930314] [0.0002013895881582922:0.20993788819875778] [0:1] [0:1] none none none [0:0.71404974251340159] [0:0.054926903270261659] [0:0.19027237433302863] [2.0120613351455043:3.1754264805429449] [0:8.0833333333333446] [0:1] none [0.76923076923076927:1] [0:0.42132504423474321] [-3.1754264805429422:0] [-0.36666666666666625:8.0833333333333357] [0:1] none [0.76923076923076927:1] [0:0.42132504423474321] [-3.1754264805429422:0] [-0.36666666666666625:8.0833333333333357] [-1957826796201.3152:-1185.1553817663357] [5.0490162255424149:4.3482438183662378e+166] [-48112638922.482597:3.3448029372047981e+165] [7352.3352632337364:1.7976931348623157e+308] [-3.1754264805307315:3.175426480542944] [0:8.0833333333333304] [8.9088493515025286e-09:146.87460308704016] [465764.28464168939:4.5398031325973151e+200] [44749.649696719964:3.4921562558440886e+199] [123115.55863496015:1.7976931348623157e+308] [0:3.1754264805429444] [0:8.0833333333333321] [-1.0284161350551517e+18:-169471.7081513654] [57.641279926064207:4.7398014793208617e+234] [-9728538086654860:3.6460011379391246e+233] [2124656.3499721815:1.7976931348623157e+308] [-3.1754264805429351:3.1754264805429417] [0:8.0833333333333393] [1.2525191612976572e-10:3290.7689760051449] [141324422.85869944:4.9486106351310259e+268] [12285397.450935809:3.8066235654854045e+267] [37390232.40626964:1.7976931348623157e+308] [0:3.1754264805429426] [0:8.0833333333333357] [-5.855218245223584e+23:-25768508.046315547] [764.96368805917382:5.166618755020253e+302] [-2.0897387242767387e+21:3.9743221192463485e+301] [668244883.03119624:1.7976931348623157e+308] [-3.1754264805429435:3.1754264805429413] [0:8.0833333333333393] [1.7610355206396781e-12:83291.596845390814] [45539485369.146759:1.7976931348623157e+308] [3747597079.1537752:1.7976931348623157e+308] [0:1.7976931348623157e+308] [0:3.1754264805429422] [0:8.0833333333333357] [-21.136411689271302:-4.0655061795281107] [1.2403610207247657:71.186888417732092] [-3.4482761248538196:8.9757881597352345] [2.0340002880630861:25.745503528927109] [-2.1989903606058188:2.9757286414590594] [-1.2316872912847867:7.3092422289367001] [-1.2756162697576585:3.6682427366172528] [29.373950601575011:5099.631888518391] [8.8148184731400754:773.8189635736469] [8.8522996598835384:1618.7015679745202] [0.65316454097852239:3.1737190462182161] [-0.66889436092342169:8.0767532226506358] [-0.95566587434917771:-0.67206742737123859] [0.74430164885816186:0.99980018734840104] [0.0030433655442586192:0.20292252757602891] [0.23937199829749919:0.43795863547354674] [-0.63308811292420875:0.82214053078939608] [-0.73520961219733705:4.4805303367756402] [-4.8585420689602044e+31:-0.46309508193788906] [0.95450474985793343:3.2724982331097773e+31] [-4.3261068584101029e+28:6.3990881207678048e+28] [0.2645665791457309:7.000963609322625e+30] [-8.6468069660833891:4.7790851140354205] [3.3514546856731302:72.850882233081535] [0.041666666666666664:0.99789473684210528] none [0.92543823688568938:0.99983805668016201] [0.00056098811581177814:0.25529671152947264] [-3.1754264805433037:-0.79466148797229852] [-1.0909523809524635:8.0833333333348669] [0:2.3748067997665122e-06] [0.54852354915990698:0.99585772209105106] [0.032309757868891363:0.26312965066920135] [0.10227634163077046:0.30523517960671359] [0.9409502234869318:5.2671267226188467] [0.087735194191013388:31.314956485105228] [0.53476696121665879:1.7259913370088754e+30] [-0.70710678118654702:0.70670378223738828] none [0.00021053667699120666:0.02277724644601866] [0.00092673612495250803:0.022992733922989391] [0.00092423906675091012:0.022976157963222412] [8.431114697925931e-07:0.0046837435897976454] [-3.1754264805429564:-0.7946614879743038] [-1.0909523809505277:8.0833333333333943] [9.5746871530158374e-35:0.047363720263033086] [0.13248727994688689:8.3921494870835538] [0.047899642561397122:0.75227047017419468] [0.041166263632606004:2.2078621951023449] [-0.17477353644196397:3.1632732053840087] [-1.7018942010472158:8.0357638622791221] [9.5713311463025468e-34:0.2892977935586088] [0.49410706424541473:83.383536570381466] [0.26814012042609303:6.7853320512576749] [0.09024388397166451:22.112580587080302] [-2.612968061009163:3.1751288735070671] [-1.2985304817348726:8.0821903149168222] none [0.00038126932604835362:0.34302870192500784] [0.00010751925259207947:0.027079088023581905] [0.00012247712384138475:0.091215338863632062] [0.66292869558562373:3.174376912952559] [-1.1568316477110816:8.0792709963772644] [10:28] [73:109] [36.109999999999999:58.659999999999997] [11.569248030879102:20.28265022130984] [-0.020017886017750879:1.1620155182622089] [-0.99041977318041852:1.8695375319471834] none none none none none none none none none [1.5265566588595904e-17:2.792850922403182e-17] none none [0.10661769341262761:0.14143800590824385] [0.31997383481396424:0.61846732460134912] [0.19811866120078395:0.248919431754104] [0.045026529346667732:0.088537333523197356] [0.64048633570311264:2.9283502885832293] [-0.12631968525072823:12.780063753652946] [0.24375947747656596:0.48772643633312834] [0.13310308918586519:0.28516690878169787] [0.077692494122572384:0.16848251453526417] [30.616147718488328:194.65142347821777] [27.131037582381687:171.45458828100567] [17.125694332173431:113.22929117986885] [0.014590163934427166:0.078668407310705527] [0.12900470746469381:0.38153005464480566] none [0.017504525705127168:0.12338777785828232] [-0.25937942432377598:1.7873279380493707] [-1.4049592017886365:2.0607371206922993] [0.25881470367591841:0.8506044905008604] [0.82670807453415707:0.99979861041184082] [0.60374149659862231:0.94637305699481489] [0.043204914841566716:0.28799321653157928] [-2.3674866760725357:1.1340524691786067] [-1.8308948578383604:4.1974988891827136] none none none [5.1925927263190309e-18:3.7980541443560801e-17] none none [0.17073170731707069:0.46416234887737329] [0.82670807453415707:0.99979861041184082] [0.47965950860901452:0.86629965457685343] [0.1492095713005106:0.29320395064851468] [-1.1844228866208701:1.2084222312970867] [-1.6226239459605536:0.25833514630010246] [0:11] [100:1900] [0.62621499781894996:0.9245638123701434] [0.62768398348721677:1] [0.004443247765493194:0.088273478225652832]
tree_sizes=2989 3130 3193 3250 3255 3270 3298 3305 3292 3309 3285 3309 3298 3310 3297 3327 3337 3317 3333 3322 3341 3315 3345 3343 3343 3344 3336 3340 3339 3345 3354 3348 3350 3329 3344 3345 3330 3350 3351 3340 3332 3349 3347 3325 3362 3348 3350 3361 3335 3347 3344 3348 3338 3343 3353 3340 3350 3347 3357 3353 3356 3348 3360 3353 3353 3383 3357 3347 3351 3340 3352 3350 3359 3351 3357 3341 3367 3365 3368 3340 3363 3346 3367 3348 3338 3355 3377 3370 3365 3361 3358 3353 3360 3362 3362 3354 3371 3341 3375 3363

Tree=0
num_leaves=33
num_cat=0
split_feature=187 93 184 98 88 21 151 176 100 10 139 13 98 107 12 53 9 5 86 9 13 9 200 2 0 17 17 200 203 12 5 200
split_gain=199.415 134.672 92.2879 109.149 107.041 87.805 71.6972 58.1001 31.4281 24.3593 15.8163 15.0623 11.4566 8.18152 7.06559 6.65368 5.95453 5.64871 4.3576 3.91794 2.4324 1.20386 1.10794 1.0721 1.0477 1.0458 0.618688 0.23941 0.0867706 0.128234 0.0596152 0.0505441
threshold=1.6192416408927619 3.1672502225105101 0.90673761248393958 0.35192833382537458 0.642967805086747 0.026018009457848865 -0.28276803661739119 0.065297939613723016 3.5398957742919621 -4.7190994568566147 0.61854677136009395 0.00010888867543225316 0.33543744974695971 0.99513435132575767 13.656212207999033 5.2783485447427916 -22.859696400662461 -180.32112059598361 6.9166247424461256 -11.50587418986678 9.7739623937560167e-05 -7.1708693521193103 4.5000000000000009 25418164533781.785 3034.5000000000005 0.47030694233619613 0.47440836985891988 4.5000000000000009 0.89688645350303997 3.8656384529249332 -60.936909713120144 4.5000000000000009
decision_type=2 2 2 2 2 2 2 2 2 2 2 2 2 2 2 2 2 2 2 2 2 2 2 2 2 2 2 2 2 2 2 2
left_child=1 2 3 5 13 17 14 8 11 -3 20 19 21 26 -6 -2 -4 -1 22 -7 -8 -9 -13 -20 -21 30 31 -27 -26 -30 -19 -5
right_child=15 9 16 4 6 7 10 12 -10 -11 -12 18 -14 -15 -16 -17 -18 25 23 24 -22 -23 -24 -25 28 27 -28 -29 29 -31 -32 -33
leaf_value=0.50184363962428691 0.081002316954508213 0.37836052751798954 0.72224867208383603 0.5838038309878878 0.40486784462182496 0.71624783698921635 0.081002316954508213 0.44697070147091306 0.46243414776577774 0.12524497302669568 0.31522631165105808 0.73900120911983147 0.58113020025301498 0.47341652837422038 0.55495930522073966 0.21424856781448387 0.85893007419944856 0.42044333824314967 0.75282226653616313 0.60203824829672459 0.16069012421992518 0.38540624556105624 0.67035815103113672 0.80584729582735337 0.63268919857851991 0.35070845276846596 0.63257526434597111 0.38308128881085196 0.66261522529000572 0.63895907582653311 0.40669691703972749 0.59850306864163816
leaf_weight=438 645 437 443 277 428 435 442 443 443 655 438 280 437 431 437 431 436 437 440 661 656 433 385 653 251 271 438 376 320 312 433 386
leaf_count=438 645 437 443 277 428 435 442 443 443 655 438 280 437 431 437 431 436 437 440 661 656 433 385 653 251 271 438 376 320 312 433 386
internal_value=0.478233 0.505944 0.530831 0.510811 0.398915 0.569898 0.289498 0.623681 0.67154 0.226538 0.181826 0.696329 0.47132 0.570396 0.480694 0.134375 0.790045 0.418783 0.752257 0.646646 0.128612 0.41654 0.69926 0.784501 0.627037 0.394802 0.60836 0.369522 0.64575 0.650937 0.413602 0.592362
internal_weight=14428 13352 12260 11381 3933 7448 2401 5493 4180 1092 1536 3737 1313 1532 865 1076 879 1955 1758 1979 1098 876 665 1093 1544 1517 1101 647 883 632 870 663
internal_count=14428 13352 12260 11381 3933 7448 2401 5493 4180 1092 1536 3737 1313 1532 865 1076 879 1955 1758 1979 1098 876 665 1093 1544 1517 1101 647 883 632 870 663
is_linear=0
shrinkage=1


Tree=1
num_leaves=33
num_cat=0
split_feature=22 184 161 89 187 138 181 115 88 53 144 17 176 107 200 13 0 8 150 202 200 0 4 9 200 23 83 96 2 202 202 202
split_gain=7.60789 6.48627 6.10141 5.33096 4.03933 2.30232 2.06428 1.45062 1.21693 1.06979 0.836533 0.795913 0.622955 0.492326 0.402633 0.360749 0.350882 0.339937 0.275102 0.256346 0.236099 0.188097 0.175442 0.159297 0.15446 0.247877 0.228619 0.117566 0.114283 0.111568 0.0710579 0.0528226
threshold=0.032807579863251612 0.92962820695999981 1.6034673240198518e-17 -1.0259568297221213 0.64355211672690638 -1.3353804471093513 0.58755664630406723 0.058139551026343848 1.3615245343814368 2.3258991201739545 1.8853930342084111 0.46911274835194333 0.023516439139998794 0.99459769899291872 3.5000000000000004 8.2954669530452231e-05 1023.5000000000001 -31.06696704988768 0.34835875427061741 0.87402129135264672 4.5000000000000009 1666.5000000000002 2.739674640462786e+31 -20.094938958857721 4.5000000000000009 12.872693142548352 -8.4421339539954001 0.98939615046280538 240999579660373.97 0.89755757540808878 0.83856863373504498 0.8854194978523181
decision_type=2 2 2 2 2 2 2 2 2 2 2 2 2 2 2 2 2 2 2 2 2 2 2 2 2 2 2 2 2 2 2 2
left_child=1 2 9 23 5 17 12 11 13 -1 14 28 -2 27 -10 -6 -8 -5 -12 -3 -13 -16 -11 31 26 -26 -20 -9 -7 30 -14 -4
right_child=6 19 3 4 15 7 16 8 10 22 18 20 29 -15 21 -17 -18 -19 24 -21 -22 -23 -24 -25 25 -27 -28 -29 -30 -31 -32 -33
leaf_value=-0.027617764940330799 0.029917734864320467 0.050327222254701029 -0.058368089721231031 -0.046280446419967529 -0.035916629770336758 0.016349766374545001 -0.0088919636956594581 0.035087775740336995 -0.036443880185254025 -0.089234905437713327 0.0067051460794891708 -0.050136402259515225 0.057998833616663942 0.061838029929110222 0.015996465901527222 -0.070007122406959915 0.024248522022433883 -0.016250900311532535 0.033304076007540935 0.08421877228480644 -0.018041975850076154 -0.013704346991980096 -0.067709468341732901 -0.072455228107522113 0.053756947336741565 0.023362026564146814 0.001636075821890905 0.018411357819100665 -0.0026077241822481632 0.050229744534374995 0.073649337833341114 -0.043187378182649228
leaf_weight=436 440 247 381 433 429 443 440 879 295 434 877 270 267 433 294 427 441 650 276 408 381 294 655 445 260 641 365 436 434 250 797 270
leaf_count=436 440 247 381 433 429 443 440 879 295 434 877 270 267 433 294 427 441 650 276 408 381 294 655 445 260 641 365 436 434 250 797 270
internal_value=0.000152795 -0.00885967 -0.0135818 -0.00584158 0.00117251 0.00721675 0.0404883 0.0130572 0.0198395 -0.0623731 0.0104616 -0.00935839 0.0569586 0.0375546 -0.0114123 -0.0529221 0.00769709 -0.0282572 0.0184462 0.0714383 -0.031353 0.00114606 -0.076288 -0.060348 0.0251238 0.032133 0.0152716 0.0295586 0.00696829 0.0660134 0.069722 -0.0520719
internal_weight=14428 11793 11138 9613 8517 7661 2635 6578 5050 1525 3302 1528 1754 1748 883 856 881 1083 2419 655 651 588 1089 1096 1542 901 641 1315 877 1314 1064 651
internal_count=14428 11793 11138 9613 8517 7661 2635 6578 5050 1525 3302 1528 1754 1748 883 856 881 1083 2419 655 651 588 1089 1096 1542 901 641 1315 877 1314 1064 651
is_linear=0
shrinkage=0.830302


Tree=2
num_leaves=33
num_cat=0
split_feature=31 161 200 96 95 31 142 89 22 132 22 197 116 174 5 139 202 53 200 200 10 85 200 202 168 204 22 2 17 200 105 0
split_gain=0.77574 0.81449 0.633686 0.921607 0.512233 0.344779 0.339006 0.332925 0.328987 0.182013 0.170319 0.216317 0.151241 0.147968 0.123303 0.0994309 0.0739846 0.0691437 0.0604485 0.0586388 0.0541435 0.0339024 0.0222496 0.0208422 0.0200606 0.0156147 0.0142231 0.013577 0.0108095 0.0103373 0.0157027 0.00934558
threshold=0.029453939897150203 1.6034673240198518e-17 1.5000000000000002 0.97397306542625295 -0.73080140393990811 0.0065597132496089524 0.0051072699939986145 0.099294260966119832 0.032807579863251612 1.3517353416999243 0.013945031181988156 0.23760960378446569 0.18353772709723157 98.260277985110164 -63.634486638036073 -0.78058286088467377 0.87459299313092342 1.5826511512503743 3.5000000000000004 6.5000000000000009 -3.0154953475920934 0.40614003249481984 3.5000000000000004 0.89755757540808878 1.3093679691152398 0.07228827717984089 0.027375133256998464 157579484257525.47 0.46775773026593132 6.5000000000000009 -2.6791888225268949 2227.5000000000005
decision_type=2 2 2 2 2 2 2 2 2 2 2 2 2 2 2 2 2 2 2 2 2 2 2 2 2 2 2 2 2 2 2 2
left_child=1 7 3 6 5 8 9 -1 10 12 13 14 -3 15 17 24 -2 31 -10 -7 29 27 -23 -6 -4 26 -13 -17 -9 -20 -31 -12
right_child=16 2 4 -5 23 19 -8 28 18 -11 11 25 -14 -15 -16 21 -18 -19 20 -21 -22 22 -24 -25 -26 -27 -28 -29 -30 30 -32 -33
leaf_value=-0.033585294309860778 0.039265710029088949 -0.015357799662799595 0.0052379510837525138 -0.044519642710063888 0.023655027102328762 -0.0095040069709711478 0.01945534513849689 -0.011714601981240139 0.00402360998155913 -0.024939203940378879 -0.0060899615245119595 0.0044289442221761991 0.0070662682940643299 0.020491807947467335 -0.022627409431434677 0.0015437401651473988 0.021064226000938741 0.0018930000373427824 0.016045736472420937 -0.026808621432488584 0.0066440531899506685 0.0039416501982746065 -0.0042383791591669275 0.033951510816118545 0.01187993522664174 0.0022196532799149712 0.012404967773944222 0.0075205657052357412 -0.0058779245968266546 0.017929630930123824 0.026259939910316346 -0.011229779560350534
leaf_weight=652 248 368 550 473 296 270 365 438 330 364 367 300 475 363 361 916 406 552 384 270 293 286 1155 250 729 482 317 367 437 364 273 727
leaf_count=652 248 368 550 473 296 270 365 438 330 364 367 300 475 363 361 916 406 552 384 270 293 286 1155 250 729 482 317 367 437 364 273 727
internal_value=2.59289e-05 -0.0013007 0.000953816 -0.0123861 0.00362782 0.0022288 -0.00271747 -0.0193826 0.00343634 -0.00942259 0.00109666 -0.00360325 -0.00272265 0.00444021 -0.00873075 0.00298462 0.0279663 -0.00568295 0.0140702 -0.0181563 0.0165933 0.000149081 -0.00261486 0.0283695 0.00902373 0.00576063 0.00852684 0.0032534 -0.0087996 0.0194485 0.0214998 -0.00950554
internal_weight=14428 13774 12247 2045 10202 9656 1572 1527 9116 1207 7472 3106 843 4366 2007 4003 654 1646 1644 540 1314 2724 1441 546 1279 1099 617 1283 875 1021 637 1094
internal_count=14428 13774 12247 2045 10202 9656 1572 1527 9116 1207 7472 3106 843 4366 2007 4003 654 1646 1644 540 1314 2724 1441 546 1279 1099 617 1283 875 1021 637 1094
is_linear=0
shrinkage=0.830302


Tree=3
num_leaves=33
num_cat=0
split_feature=191 200 166 164 198 17 182 149 149 184 150 83 148 106 200 187 21 33 95 33 167 171 187 139 204 204 111 12 95 0 202 200
split_gain=0.0795793 0.0590873 0.309818 0.124374 0.0845813 0.0824715 0.103446 0.0963 0.0547675 0.0393386 0.0378395 0.0347586 0.0294529 0.0279923 0.0301723 0.0325663 0.0260766 0.0223188 0.0178176 0.0176392 0.0149814 0.0131208 0.0106635 0.00752719 0.00688622 0.0131748 0.00693112 0.00499278 0.00403908 0.00367305 0.0067425 0.00437286
threshold=3.6241867035214286e-17 2.5000000000000004 0.24270159310859502 0.11431652349896564 -1.0272586776164454 0.47043195213624733 0.41446414631425699 16.095635560318836 16.565514270723785 0.91781428068766424 0.38311687446371012 -8.3027377115254275 46.850000000000009 25.16268189366318 5.5000000000000009 -0.50703962606889352 0.049521849628872856 3.1752895142644859 -0.90023347908518836 3.1754264805429329 0.068549887969206511 0.25563583000817841 -1.0884960237685914 -0.48871147496396888 0.066886459637483256 0.070673980557040286 -2.4615806386236705 3.8656384529249332 -0.89884711081567559 802.50000000000011 0.88080493913600011 7.5000000000000009
decision_type=2 2 2 2 2 2 2 2 2 2 2 2 2 2 2 2 2 2 2 2 2 2 2 2 2 2 2 2 2 2 2 2
left_child=1 2 3 -1 -3 6 -5 11 -9 12 -8 -7 13 14 -6 -16 -11 -14 -12 -10 23 22 29 -19 -24 -26 28 -25 -27 -15 -31 -32
right_child=-2 4 -4 5 9 7 10 8 19 16 18 -13 17 21 15 -17 -18 20 -20 -21 -22 -23 24 27 25 26 -28 -29 -30 30 31 -33
leaf_value=-0.016545354915603688 0.010986269745497376 0.013746371167102721 -0.029995327519048032 -0.0055185163935748674 -0.00032707639196447047 0.0089728525544191893 0.01708385421354237 -0.019175041929790207 -0.0094497278478964577 -0.00081190979534917051 0.0011444713209453189 -0.0032239623371304081 -0.0076592314121130952 0.0014003408680913732 0.0042969983554716042 0.014430158043638817 -0.011282179633391513 0.0019982800133568632 0.0099287308840598949 -3.5653375180797175e-05 -0.0058367474856511727 -0.002195196743069189 0.0058008919509684627 0.0012236982062155631 -0.0033943386276208401 0.0038068816823925789 0.0068935824228091519 -0.0014466254020272197 -0.00029931872405212134 0.0023592870643170541 -0.0047421637891521028 -0.00013445087067129322
leaf_weight=320 441 329 276 430 491 383 335 275 279 331 275 278 323 655 664 326 325 974 378 270 327 820 442 660 250 363 275 1797 303 252 334 247
leaf_count=320 441 329 276 430 491 383 335 275 279 331 275 278 323 655 664 326 325 974 378 270 327 820 442 660 250 363 275 1797 303 252 334 247
internal_value=4.40009e-06 -0.00034185 -0.00329643 -0.00101008 0.000643854 0.000702385 0.00523125 -0.00362215 -0.00961072 0.000219528 0.0099098 0.00384318 0.000648809 0.00191697 0.00499449 0.00763378 -0.00599916 -0.00103606 0.00622939 -0.00481986 -0.000466801 0.000760457 0.00153701 4.49955e-05 0.00300205 0.00196335 0.00338676 -0.000729322 0.00193875 -7.07853e-05 -0.00122755 -0.00278329
internal_weight=14428 13987 3499 3223 10488 2903 1418 1485 824 10159 988 661 9503 5422 1481 990 656 4081 653 549 3758 3941 3121 3431 1633 1191 941 2457 666 1488 833 581
internal_count=14428 13987 3499 3223 10488 2903 1418 1485 824 10159 988 661 9503 5422 1481 990 656 4081 653 549 3758 3941 3121 3431 1633 1191 941 2457 666 1488 833 581
is_linear=0
shrinkage=0.830302


Tree=4
num_leaves=33
num_cat=0
split_feature=130 133 200 10 144 204 144 200 98 98 167 144 187 107 83 107 165 23 200 99 33 203 0 202 23 166 168 203 167 202 133 201
split_gain=0.0478328 0.0168459 0.0798151 0.012838 0.012141 0.0175525 0.00996438 0.0100914 0.0955306 0.0707691 0.0383279 0.0229357 0.019121 0.0153978 0.0142275 0.0134531 0.0110279 0.0106888 0.00933922 0.00986138 0.00820783 0.00756883 0.00701631 0.00873569 0.00801345 0.00653495 0.00647745 0.00610362 0.00528798 0.00451508 0.0042171 0.00419924
threshold=0.051619235771377586 -1.3933008302041732 4.5000000000000009 -2.819947702429864 3.1244789232082719 0.043901464647094081 3.0158170633501773 5.5000000000000009 0.267784678674516 0.267784678674516 0.074350441461165859 2.0596934057902043 0.21284796966422406 0.9915148964129521 -8.8476097519077452 0.96580305570841862 0.46116871951809685 12.872923712467651 6.5000000000000009 0.13450371181635434 3.1754264805429329 0.91978822387471593 888.50000000000011 0.87402129135264672 12.872626971088364 0.23435430167149887 1.2576888894373994 0.9171793367665857 0.059219429752081616 0.86210359854858953 -0.9744776412312065 1050.0000000000002
decision_type=2 2 2 2 2 2 2 2 2 2 2 2 2 2 2 2 2 2 2 2 2 2 2 2 2 2 2 2 2 2 2 2
left_child=-1 2 -2 4 6 -6 7 8 -3 -9 11 15 13 17 21 30 -15 25 19 -8 -20 -13 -7 -24 -25 -11 29 -19 -16 -17 -10 -26
right_child=1 3 -4 -5 5 22 18 9 10 12 -12 14 -14 16 28 26 -18 27 20 -21 -22 -23 23 24 31 -27 -28 -29 -30 -31 -32 -33
leaf_value=-0.0085737138092036921 0.015379561375020169 0.014724460690825976 -0.0033116056695089323 -0.0043597963544798179 0.008357641865714199 0.0041592059794078508 -0.0021026564181260954 -0.012426439445019959 0.0035876611936301976 0.00064572616736649133 -0.0065179007335450963 0.0037033546123854447 0.0054348781475228505 -0.0047638210185163218 -0.0014744324586469829 -0.0043794021681883184 0.0004383966622655991 0.0069418514681914125 0.0038032651142923179 -0.0082310126989654734 -0.0022584980318421316 0.009365798723690524 0.0034536446353203233 -0.0038958501661371376 -0.0018245161289697628 -0.0029632909856944292 -0.0061056248971434572 0.0013684415223282113 0.0026233739609225976 0.00012551624252272539 4.3342875634249007e-05 0.0023975561877050528
leaf_weight=435 268 327 382 437 263 414 630 329 332 1659 543 360 434 759 324 248 446 259 268 254 362 297 434 402 264 437 331 284 658 402 764 422
leaf_count=435 268 327 382 437 263 414 630 329 332 1659 543 360 434 759 324 248 446 259 268 254 362 297 434 402 264 437 331 284 658 402 764 422
internal_value=7.4672e-07 0.000267301 0.00439491 6.62257e-05 0.000216092 0.0019931 -0.000148869 0.00017619 0.00104811 -0.000691751 -1.94526e-06 0.000950198 0.000210706 -0.00037912 0.00327231 -0.000882224 -0.00283835 0.000743796 -0.00212262 -0.00386352 0.000320157 0.00626309 0.00112849 0.000304104 -0.000952238 -0.000106726 -0.0031158 0.00402685 0.00127135 -0.00159328 0.00111699 0.000772735
internal_weight=14428 13993 650 13343 12906 2199 10707 9193 4586 4607 4259 3716 4278 3844 1639 2077 1205 2639 1514 884 630 657 1936 1522 1088 2096 981 543 982 650 1096 686
internal_count=14428 13993 650 13343 12906 2199 10707 9193 4586 4607 4259 3716 4278 3844 1639 2077 1205 2639 1514 884 630 657 1936 1522 1088 2096 981 543 982 650 1096 686
is_linear=0
shrinkage=0.830302


Tree=5
num_leaves=33
num_cat=0
split_feature=202 100 6 166 161 202 191 115 200 179 83 167 93 202 103 200 176 138 202 170 23 101 202 200 200 164 164 21 204 5 201 111
split_gain=0.0105717 0.0351246 0.0204199 0.0198339 0.0168421 0.0252795 0.0258248 0.0140289 0.0240676 0.0282666 0.0123373 0.00923684 0.0082975 0.0102323 0.00706368 0.0129088 0.013073 0.0071045 0.00696552 0.00677952 0.00660138 0.00622672 0.0059445 0.0116877 0.00530381 0.00459261 0.00426362 0.00391078 0.00366371 0.0033661 0.00320341 0.00271998
threshold=0.89270725589838384 -0.56816802920636611 11.346676281613673 0.24340477694213999 2.6055516957438949e-17 0.86307343392823699 2.5037768013455404e-17 0.099026961109873204 1.5000000000000002 0.07328332398152386 -4.4150256768228635 0.071276041317992853 3.0591530248083196 0.82261279931840681 -129005530554640.77 8.5000000000000018 0.029969288891022152 -0.070366080833074482 0.85819235289560136 0.35734601247732528 12.872734730539628 -8906461753193662 0.87402129135264672 1.5000000000000002 4.5000000000000009 0.12110453133484674 0.12268300179388701 0.066263059112727771 0.068889785022348646 -33.424780423013935 450.00000000000006 -2.3785616671211303
decision_type=2 2 2 2 2 2 2 2 2 2 2 2 2 2 2 2 2 2 2 2 2 2 2 2 2 2 2 2 2 2 2 2
left_child=1 -1 18 10 7 6 -6 8 9 -4 14 30 13 -9 15 17 -17 27 -3 24 -7 -15 23 -14 -16 -26 -21 -2 -13 -28 -10 -18
right_child=3 2 4 -5 5 20 -8 12 11 -11 -12 28 22 21 19 16 31 -19 -20 26 -22 -23 -24 -25 25 -27 29 -29 -30 -31 -32 -33
leaf_value=-0.0094753834883506399 -0.00116189362639043 -0.0084439826212926398 0.00041475319948130053 0.0064005320698067025 0.0011794830131806482 0.0011369769501834745 0.011346072435919884 -0.006145035187509482 0.0022136484411498188 0.010643411584473871 -0.0047272057988783324 -0.0016483506237492966 -0.0014278286835685973 -0.0024068060150727951 0.006453588606589975 0.0068428642146441164 0.0018826705146947657 -0.0042087302865577237 -0.0023947157690319357 -0.0012675642712267538 -0.0039658040409734155 0.0015128198099585292 -0.0021353315522496257 0.0058377253832977332 0.0048192168007559107 0.00085622102026463773 0.0036546282737776772 0.0020754139943750674 -0.0058051918755759385 0.00025401821523035264 -0.00045027350471911785 -0.0018664343008623543
leaf_weight=297 1220 251 431 411 345 489 344 440 494 328 303 350 330 1547 267 309 274 456 275 566 272 341 415 284 309 580 348 326 251 474 841 260
leaf_count=297 1220 251 431 411 345 489 344 440 494 328 303 350 330 1547 267 309 274 456 275 566 272 341 415 284 309 580 348 326 251 474 841 260
internal_value=1.26735e-07 -0.000608408 -0.000280369 0.000830218 7.02723e-05 0.0026119 0.0062554 -0.000538677 0.00087222 0.00483504 0.000428005 -0.000681386 -0.00167134 -0.00253921 0.00071786 -0.000181048 0.00254451 -0.00132872 -0.00528134 0.00172312 -0.000686882 -0.00169887 0.000292097 0.00193279 0.00320835 0.00223369 0.000486148 -0.000479253 -0.0033844 0.00169369 0.000535477 5.72637e-05
internal_weight=14428 8325 8028 6103 7502 1450 689 6052 2695 759 5692 1936 3357 2328 5389 2845 843 2002 526 2544 761 1888 1029 614 1156 889 1388 1546 601 822 1335 534
internal_count=14428 8325 8028 6103 7502 1450 689 6052 2695 759 5692 1936 3357 2328 5389 2845 843 2002 526 2544 761 1888 1029 614 1156 889 1388 1546 601 822 1335 534
is_linear=0
shrinkage=0.830302


Tree=6
num_leaves=33
num_cat=0
split_feature=204 147 100 91 201 202 147 203 5 23 23 170 202 98 204 182 170 141 203 201 111 200 200 88 170 161 175 170 202 204 125 117
split_gain=0.00602679 0.0447334 0.0180473 0.0154202 0.0149661 0.0108864 0.0102149 0.00698004 0.00673901 0.00600826 0.00427679 0.00309596 0.00801633 0.00257841 0.00359401 0.00433989 0.00307661 0.00241054 0.00354273 0.00487367 0.0047076 0.0028652 0.00193303 0.0081772 0.00600013 0.00556732 0.0052758 0.00333162 0.00150206 0.00132173 0.00128761 0.00126239
threshold=0.04975792128648221 80.500000000000014 -0.56816802920636611 40.692313956607755 950.00000000000011 0.81086980013690646 85.500000000000014 0.8251475008263881 -79.607123295129085 12.874049619847941 12.872693142548352 0.25408405292720698 0.88143581422945083 0.33774355396885053 0.076422679886398268 0.51455506582547683 0.27085832725215414 0.11669082652641631 0.89177751952200757 550.00000000000011 -3.1699698866200472 5.5000000000000009 6.5000000000000009 -0.47467213180546181 0.30908427657144844 2.6147651998977784e-17 45.287230485797842 0.3225147766004211 0.8854194978523181 0.075184745389271973 2.6088552136875562e-05 1.8017377191132611
decision_type=2 2 2 2 2 2 2 2 2 2 2 2 2 2 2 2 2 2 2 2 2 2 2 2 2 2 2 2 2 2 2 2
left_child=1 -1 4 -3 -2 -4 -5 -8 -9 11 -10 12 -7 14 16 -16 -13 18 -18 -20 21 -21 24 -24 -15 27 31 -25 -11 -14 -29 -26
right_child=2 3 5 6 -6 9 7 8 10 28 -12 13 29 22 15 -17 17 -19 19 20 -22 -23 23 25 26 -27 -28 30 -30 -31 -32 -33
leaf_value=-0.011511600395433136 0.0096386310560710228 0.0052042267722235179 0.0050757662291694575 0.002689744517458226 0.0010798511501101267 -0.0025038039058299468 -0.0052020085869879462 -0.0034422915733435433 -0.0013332191814005578 -0.0013176016334661244 0.0033799780590012332 -0.0035000404272029734 0.0020717208073045938 0.0035765851645928482 0.0038240038900240482 -0.00016397501205306524 -0.0030468582135051415 0.0015717204508237501 0.0018619250907060223 0.0029512024948381791 -0.001866131025076676 -0.00061062341989378275 0.0053149008250267388 -0.0023105614498396322 0.0015682025283018026 0.0033160323119184008 -0.0030704221798316784 -0.00020088173629263751 -0.0040749973720895167 0.0044866280368484899 0.0015177895405715377 -0.00028307518103675295
leaf_weight=259 248 337 285 406 326 252 358 405 262 253 269 297 406 262 251 751 463 291 472 257 1549 395 251 426 301 355 480 948 295 254 440 1624
leaf_count=259 248 337 285 406 326 252 358 405 262 253 269 297 406 262 251 751 463 291 472 257 1549 395 251 426 301 355 480 948 295 254 440 1624
internal_value=2.1497e-08 -0.00123353 0.000233473 7.33059e-05 0.00477772 7.7936e-06 -0.000943824 -0.00208388 -0.000891258 -0.000120333 0.00105445 1.66865e-05 0.00148 -0.000119311 -0.000560877 0.00083501 -0.000936461 -0.00071429 -0.000926416 -0.000559127 -0.00107832 0.000793348 0.000290918 0.000828233 -0.000196634 0.000309029 -0.000607687 -0.000279442 -0.00280197 0.00300109 0.000343942 6.39733e-06
internal_weight=14428 2296 12132 2037 574 11558 1700 1294 936 11273 531 10725 912 9813 4726 1002 3724 3427 3136 2673 2201 652 5087 2420 2667 2169 2405 1814 548 660 1388 1925
internal_count=14428 2296 12132 2037 574 11558 1700 1294 936 11273 531 10725 912 9813 4726 1002 3724 3427 3136 2673 2201 652 5087 2420 2667 2169 2405 1814 548 660 1388 1925
is_linear=0
shrinkage=0.830302


Tree=7
num_leaves=33
num_cat=0
split_feature=100 200 166 200 0 173 200 2 202 169 83 200 194 17 203 129 22 200 191 203 175 151 202 141 151 204 172 200 10 202 203 203
split_gain=0.00461439 0.035377 0.0059372 0.0351904 0.00320019 0.00280697 0.0213709 0.00840901 0.00394341 0.00969595 0.00699379 0.00269894 0.00941358 0.00823559 0.00588246 0.0059006 0.00488391 0.00657176 0.00770725 0.0044872 0.00347097 0.00330656 0.00530356 0.0027759 0.00268969 0.00264976 0.00208851 0.00240254 0.00288705 0.00178117 0.00165607 0.00180897
threshold=-0.56816802920636611 4.5000000000000009 0.23903665917644673 2.5000000000000004 1544.5000000000002 36.403172312437555 3.5000000000000004 1.6349178311259533e+17 0.82494665807910017 3.71729099693952 -8.9766727357013494 3.5000000000000004 0.25501032131973994 0.48148686421633652 0.87333693983357985 0.18466763733186992 0.0091767431789955469 1.5000000000000002 1.0749314926905052e-17 0.92613790209057945 50.162820500004109 -0.32796910193139966 0.87662718017241048 0.0078089551212185146 -0.34030030334388001 0.074465038361711047 0.10328690771824821 10.500000000000002 -3.5236391313856745 0.90246194441835448 0.9171793367665857 0.93959147626217143
decision_type=2 2 2 2 2 2 2 2 2 2 2 2 2 2 2 2 2 2 2 2 2 2 2 2 2 2 2 2 2 2 2 2
left_child=1 -1 5 -4 -5 6 -2 -8 9 10 -7 12 16 21 -13 19 -10 -18 -19 -16 26 -14 -23 -22 -11 -21 29 28 30 -17 -28 -32
right_child=2 -3 3 4 -6 8 7 -9 11 24 -12 14 13 -15 15 20 17 18 -20 25 23 22 -24 -25 -26 -27 27 -29 -30 -31 31 -33
leaf_value=-0.0093257868477322776 0.0072034664428431046 0.0029649513269854495 0.0092003652803500074 -0.0022168317400556971 0.00078552810443353904 -0.000572002998152677 0.0016239784957494056 -0.0046665879558292203 -0.0013522889758559894 0.0032100461111955747 -0.0056407236298620022 0.0041911322759647755 -0.0038677269273582381 -0.006298780852833025 0.0043165558012779907 -0.00035829525421351912 -0.0013026688691972789 0.00015647570537963163 0.0060669324021967921 0.0020238961150198472 -0.00072621314244933409 0.0013727793013799876 -0.0026252967893986233 0.0013284131753226764 -0.00064533933047428735 -0.00084628625905984326 -0.0028956412223633482 -0.0035416263749698295 0.001214885988509794 0.0020014456703695538 -0.00020647042694478751 -0.0024307250981222602
leaf_weight=276 289 389 330 489 490 333 293 293 458 249 430 252 256 272 342 1518 288 269 350 514 678 490 429 1368 250 390 381 271 361 258 805 367
leaf_count=276 289 389 330 489 490 333 293 293 458 249 430 252 256 272 342 1518 288 269 350 514 678 490 429 1368 250 390 381 271 361 258 805 367
internal_value=3.63479e-09 -0.00213617 0.000103219 0.00178533 -0.000714118 -7.35824e-05 0.00136036 -0.0015213 -0.000181943 -0.00156737 -0.00342856 -1.24737e-05 -0.000706257 -0.00218175 0.000247476 0.000110456 0.000857876 0.00197392 0.00349841 0.00175481 -0.000230623 -0.00122871 -0.00049357 0.000647555 0.00127849 0.000785654 -0.000684234 -0.00122779 -0.000900183 -1.54951e-05 -0.00139184 -0.000902973
internal_weight=14428 665 13763 1309 979 12454 875 586 11579 1262 763 10317 2812 1447 7505 7253 1365 907 619 1246 6007 1175 919 2046 499 904 3961 2185 1914 1776 1553 1172
internal_count=14428 665 13763 1309 979 12454 875 586 11579 1262 763 10317 2812 1447 7505 7253 1365 907 619 1246 6007 1175 919 2046 499 904 3961 2185 1914 1776 1553 1172
is_linear=0
shrinkage=0.830302


Tree=8
num_leaves=33
num_cat=0
split_feature=99 146 200 200 166 130 24 122 34 200 171 203 147 200 177 204 23 182 142 200 118 114 172 161 22 164 145 191 200 23 202 47
split_gain=0.00364218 0.00376771 0.0237158 0.00690032 0.034687 0.0251551 0.0103765 0.00733801 0.00479172 0.00656435 0.00907593 0.00503837 0.0052223 0.00398984 0.00378962 0.00333733 0.00560156 0.00341897 0.00429836 0.00301113 0.0131007 0.0158872 0.0132255 0.0138263 0.0096655 0.00646119 0.00332457 0.00314469 0.00218414 0.00213652 0.00225385 0.00750109
threshold=-0.39868779532032056 20.500000000000004 2.5000000000000004 2.5000000000000004 0.24091196142047253 0.051619235771377586 0.076069729831212421 0.0017622423067776159 8.0833333333204589 1.5000000000000002 0.2167157585216927 0.83310291491308475 94.500000000000014 6.5000000000000009 0.27100133630971207 0.062327222072038703 12.872904456458889 0.48608396991768049 0.0010603717312830821 4.5000000000000009 5.1084546744062678 0.93832181324645869 0.11530454765906921 1.7081498530484619e-17 1.0000000180025095e-35 0.11768533793716421 4.5049230587222064 3.5147507096726923e-17 7.5000000000000009 12.873344208590114 0.8977585867602712 -51393.304412787133
decision_type=2 2 2 2 2 2 2 2 2 2 2 2 2 2 2 2 2 2 2 2 2 2 2 2 2 2 2 2 2 2 2 2
left_child=-1 3 -3 4 6 -5 7 -2 11 10 -10 -9 -13 -4 -12 16 17 -7 -19 20 21 -17 23 -22 -21 26 -26 29 -28 30 -27 -32
right_child=1 2 13 5 -6 15 -8 8 9 -11 14 12 -14 -15 -16 19 -18 18 -20 24 22 -23 -24 -25 25 27 28 -29 -30 -31 31 -33
leaf_value=0.0023493993449243467 -0.0050208185843412714 0.0073773011163131182 -0.0026682003883488768 0.0072976123126214792 -0.0101491084103159 -0.0024043136319313358 0.0044581543703672627 -0.0048426954281777486 -0.0018918880907864339 -0.002007584676413965 0.0013954551097132388 -0.0023242829767302162 0.0021793955109217986 0.00071579527124093789 0.0056771040921870805 0.0020136196119996366 -0.0046193777286559837 -0.0021422900364740541 0.0019222541709469783 -0.0038792978187255972 0.0017999347827306058 -0.0054475054845009715 -0.0011174113758564228 0.010422961488575883 0.0036294840596064297 -0.00093507854399468263 -0.00092689743957213085 -0.0029606699785126658 0.0019766616348142279 0.0015240452537693013 -0.00037077063612571621 0.0045693442573606479
leaf_weight=441 271 328 432 327 277 418 272 274 287 441 252 491 278 541 328 451 277 273 523 446 262 349 275 251 452 2041 306 291 429 473 1422 249
leaf_count=441 271 328 432 327 277 418 272 274 287 441 252 491 278 541 328 451 277 273 523 446 262 349 275 251 452 2041 306 291 429 473 1422 249
internal_value=6.12816e-10 -7.40742e-05 0.00127159 -0.000212077 -0.00127283 0.000141433 -0.000423236 -0.00092962 -0.000458027 0.00060048 0.00192707 -0.00178547 -0.000696165 -0.000786657 0.0038168 -0.000113255 -0.00125022 -0.000481474 0.000528258 0.000106989 0.00112558 -0.0012413 0.0035285 0.006019 -0.000157788 0.000135306 0.00185753 -0.000321413 0.000767833 -0.000137895 -0.000349667 0.000365369
internal_weight=14428 13987 1301 12686 3171 9515 2894 2622 2351 1308 867 1043 769 973 580 9188 1491 1214 796 7697 1588 800 788 513 6109 5663 1187 4476 735 4185 3712 1671
internal_count=14428 13987 1301 12686 3171 9515 2894 2622 2351 1308 867 1043 769 973 580 9188 1491 1214 796 7697 1588 800 788 513 6109 5663 1187 4476 735 4185 3712 1671
is_linear=0
shrinkage=0.830302


Tree=9
num_leaves=33
num_cat=0
split_feature=130 204 169 203 194 204 132 201 31 125 3 202 200 176 202 202 98 200 100 21 17 179 200 201 201 203 107 202 180 202 204 87
split_gain=0.00773222 0.00429436 0.00392628 0.00348741 0.00615228 0.00387368 0.00342211 0.00316816 0.00475325 0.00438922 0.00413261 0.00282777 0.0028231 0.00231604 0.0037664 0.00331041 0.00232583 0.00239323 0.00698138 0.00287018 0.00227612 0.00225023 0.00201648 0.00184312 0.00183531 0.00180472 0.0059 0.00155329 0.00147787 0.00273497 0.00131896 0.00136634
threshold=0.051619235771377586 0.025658005271455515 3.9396170083355213 0.91065695607469566 0.25975653419262129 0.063840357285012375 0.96213729783984647 550.00000000000011 0.0059529797663327453 1.7999472934026774e-06 -1.0000000180025095e-35 0.84612564157260339 4.5000000000000009 0.053351016799293383 0.86941084386233947 0.82494665807910017 0.32551127563635579 3.5000000000000004 0.63092619871717159 0.019315175764542437 0.47779136552367441 0.074118545330248212 7.5000000000000009 1250.0000000000002 350.00000000000006 0.9323338463218015 0.96914417412221232 0.90263332693745058 1.4147621779475392 0.89638668881777439 0.074297567299110995 1.3950221191015568
decision_type=2 2 2 2 2 2 2 2 2 2 2 2 2 2 2 2 2 2 2 2 2 2 2 2 2 2 2 2 2 2 2 2
left_child=-1 -2 7 4 5 -4 12 8 9 -3 -9 -6 -5 15 -15 -12 28 18 -18 -19 21 24 -23 -14 -11 26 -8 -27 30 -30 -17 -32
right_child=1 2 3 6 11 -7 25 10 -10 20 13 -13 23 14 -16 16 17 19 -20 -21 -22 22 -24 -25 -26 27 -28 -29 29 -31 31 -33
leaf_value=-0.0034474341999651864 0.0028094809822752894 -0.0029514835529363191 0.00048984027105175901 -0.0022298385273132331 -0.0029251971055766716 0.0045772729048772663 -0.0013521955094797436 0.0034859782891592033 -0.0037626914681646801 0.0029216511937575143 0.0033376938954749473 0.00033988994718894838 0.0017360137315571161 -0.0034273137921260119 0.00015317286724894679 0.0011351152432528711 0.0052605373811805047 -0.0013304660457487919 0.00026102553195093183 0.0011035643166061088 -0.0015943267770718885 -0.0012369602464794088 0.0016080119934655866 -0.00073322492632028836 0.00030126279292075071 0.00041659003726234175 -0.0060495260338818378 -0.0022685030093270975 -0.0021324825301193375 0.00081965473585852598 -0.0018527192793937012 0.00044731522627787122
leaf_weight=435 394 315 369 331 356 282 572 325 274 446 307 376 466 252 1032 862 322 429 479 1508 323 469 271 377 314 286 272 309 519 371 273 512
leaf_count=435 394 315 369 331 356 282 572 325 274 446 307 376 466 252 1032 862 322 429 479 1508 323 469 271 377 314 286 272 309 519 371 273 512
internal_value=1.06211e-10 0.00010717 2.88771e-05 -0.000662738 0.000403449 0.00226043 -0.00122705 0.000316672 -0.000506788 -8.95206e-05 0.000592876 -0.00124805 -0.00017506 0.000455932 -0.000549539 0.000687216 0.00053296 0.00106367 0.00227082 0.000564484 0.000405004 0.000835527 -0.000195085 0.00063174 0.00183902 -0.0020853 -0.00286603 -0.000977853 -3.97967e-05 -0.000901873 0.000426049 -0.000352569
internal_weight=14428 13993 13599 3996 1383 651 2613 9603 2412 2138 7191 732 1174 6866 1284 5582 5275 2738 801 1937 1823 1500 740 843 760 1439 844 595 2537 890 1647 785
internal_count=14428 13993 13599 3996 1383 651 2613 9603 2412 2138 7191 732 1174 6866 1284 5582 5275 2738 801 1937 1823 1500 740 843 760 1439 844 595 2537 890 1647 785
is_linear=0
shrinkage=0.830302


Tree=10
num_leaves=33
num_cat=0
split_feature=184 201 200 168 95 95 105 107 161 200 202 167 167 203 202 116 203 5 199 202 53 83 200 164 203 98 200 105 132 202 85 85
split_gain=0.0021666 0.00336266 0.00262509 0.0230294 0.0123276 0.0111118 0.0137791 0.00536658 0.0029977 0.00430337 0.00291531 0.00880551 0.00328913 0.00575922 0.00642493 0.00440686 0.00340505 0.00221955 0.00210275 0.00180631 0.00475193 0.00136641 0.00310929 0.00366484 0.0022278 0.00335257 0.0020045 0.0040189 0.00307507 0.00184096 0.00160352 0.0013591
threshold=0.67713610111872935 750.00000000000011 1.5000000000000002 0.90403211756958235 -0.71721874025890686 -0.88403706119690717 -2.6791888225268949 0.94029992255927819 2.6910005175562669e-17 5.5000000000000009 0.85114292560353999 0.067780768764977642 0.072863586100230374 0.93585373922964821 0.89718400393974107 0.18353772709723157 0.91649906798049774 -29.542655537413349 -1.3600294850792751 0.90707238323498485 1.2760898140643144 -8.1650441197679395 4.5000000000000009 0.12110453133484674 0.92389371153377164 0.35322529339025438 8.5000000000000018 -3.2297111523958635 0.33873349460238239 0.89127743340033294 0.58569310056052892 0.69985670819901036
decision_type=2 2 2 2 2 2 2 2 2 2 2 2 2 2 2 2 2 2 2 2 2 2 2 2 2 2 2 2 2 2 2 2
left_child=1 17 3 -2 8 6 7 -5 10 -10 11 -4 21 14 15 -14 -17 -1 -7 20 -3 26 23 -23 30 -26 28 29 -12 -28 -24 -20
right_child=2 19 4 5 -6 18 -8 -9 9 -11 12 -13 13 -15 -16 16 -18 -19 31 -21 -22 22 24 -25 25 -27 27 -29 -30 -31 -32 -33
leaf_value=-0.000848994090505749 -0.0082082769026844953 -0.0007432661148073995 -0.00049186287227749018 0.0032793002608387484 0.0050160296856108857 9.1070957290024741e-08 0.0069967971351124923 -0.0014315479361661691 -0.0039863468007409336 0.00013345969364776 0.0027488194510179877 0.005291851202422585 0.0012134390697821746 -0.0036586708786238652 0.0036937705211788226 -0.0047411832723098105 -0.00044914924618910798 -0.0039296620348025259 -0.004306582687810658 -0.0015141538797216179 0.0037022331848754458 0.00031864299594924105 0.0027153652206206905 0.0040495997995730225 -0.0031180644836314602 0.00034272547085954953 0.0015559561603659649 -0.0029931485056938316 0.00015515106223515946 -0.0007417765460259536 0.00030753380416629662 -0.0017354286498971749
leaf_weight=326 250 492 457 256 367 260 287 478 290 440 353 301 340 411 249 261 249 319 249 359 250 345 319 383 265 710 385 396 2938 640 474 329
leaf_count=326 250 492 457 256 367 260 287 478 290 440 353 301 340 411 249 261 249 319 249 359 250 345 319 383 265 710 385 396 2938 640 474 329
internal_value=2.12512e-11 -0.00086715 0.000119385 -0.000726429 0.0002881 0.000279737 0.00211881 0.000211473 0.000118087 -0.00150318 0.000242984 0.00180484 0.000107187 -0.00100707 -1.54403e-05 -0.00110202 -0.00264566 -0.00237261 -0.00196094 1.47958e-05 0.000754544 0.000340613 0.000837319 0.0022815 0.000242659 -0.000597899 7.75014e-05 -0.000746644 0.000433354 0.000121274 0.00127613 -0.00284307
internal_weight=14428 1746 12682 2109 10573 1859 1021 734 10206 730 9476 758 8718 1510 1099 850 510 645 838 1101 742 7208 2496 728 1768 975 4712 1421 3291 1025 793 578
internal_count=14428 1746 12682 2109 10573 1859 1021 734 10206 730 9476 758 8718 1510 1099 850 510 645 838 1101 742 7208 2496 728 1768 975 4712 1421 3291 1025 793 578
is_linear=0
shrinkage=0.830302


Tree=11
num_leaves=33
num_cat=0
split_feature=95 168 203 201 151 202 113 204 203 145 200 164 164 200 200 151 17 204 200 183 202 115 137 165 202 23 197 116 204 136 202 200
split_gain=0.00385096 0.0023701 0.0060036 0.00194498 0.00889821 0.00208542 0.00531277 0.00236108 0.00169173 0.00107136 0.0027903 0.00431777 0.00286416 0.00610489 0.005306 0.00832069 0.00622831 0.00167342 0.00147292 0.00253384 0.00227661 0.00220994 0.00217857 0.00208503 0.00195055 0.00604382 0.00265356 0.00158244 0.00167538 0.00126898 0.00114206 0.00269585
threshold=-0.71721874025890686 0.91430429312891282 0.87184622434799552 150.00000000000003 -0.32796910193139966 0.81236294106838502 1.1277893663191299e-31 0.033312010107565064 0.92499042368219075 2.0619797106846662 8.5000000000000018 0.12314758701561353 0.12314758701561353 4.5000000000000009 3.5000000000000004 -0.20117868000335923 0.47875359544849294 0.070979161408182626 9.5000000000000018 0.99723325289426434 0.89878347862837338 0.074019326525740586 0.1378643255003178 0.51091801120223712 0.86210359854858953 12.872904456458889 0.2305705704989062 0.19120370973002085 0.05972585544470492 0.38039091157971611 0.90147817712639211 6.5000000000000009
decision_type=2 2 2 2 2 2 2 2 2 2 2 2 2 2 2 2 2 2 2 2 2 2 2 2 2 2 2 2 2 2 2 2
left_child=1 2 -1 4 -3 6 -5 -7 -4 10 12 -12 13 -9 15 -14 29 -13 22 21 23 -20 -11 -21 25 26 -24 -26 -29 -16 -30 -32
right_child=-2 3 8 5 -6 7 -8 9 -10 18 11 17 14 -15 16 -17 -18 -19 19 20 -22 -23 24 -25 27 -27 -28 28 30 -31 31 -33
leaf_value=0.0045804024664836233 -0.0024129772275428693 -0.0051369903062617314 -0.00090371602231183081 -0.0015620759873664846 0.0010565289726118146 -0.0025005765151080647 0.003225179915497606 -0.00084329207611067456 0.0012285670793576815 -0.0020822375757432073 -0.0045083999286666242 -0.0020354444242463628 0.0046972293498820789 0.0040037256302523205 -0.0012488996779265512 -0.0012496956920596638 -0.0051929839721199756 0.00070812793150621604 0.0040340542973269829 -0.00056354240986323839 -0.0020526714223984958 0.00070205103497410963 0.0021460700841029858 0.0025207769941085214 -0.00011131936047411864 -0.0041026274083011093 -0.00098318054336115289 0.002870218058973608 0.00021681556558056191 0.00099696220302523605 6.4180365357951357e-05 0.0035892132340316399
leaf_weight=276 442 266 487 254 401 263 431 375 542 324 257 268 287 343 521 373 260 358 271 312 249 278 322 293 2549 293 445 248 1567 260 354 259
leaf_count=276 442 266 487 254 401 263 431 375 542 324 257 268 287 343 521 373 260 358 271 312 249 278 322 293 2549 293 445 248 1567 260 354 259
internal_value=-5.77119e-13 7.62574e-05 0.00114174 -3.33908e-05 -0.00141345 4.32281e-05 0.00145005 -4.18345e-05 0.000219411 1.66012e-05 -0.000379551 -0.00164286 8.15913e-05 0.00147221 -0.000505393 0.00133632 -0.00167305 -0.000466437 0.000185083 0.000955129 6.04769e-05 0.00234681 1.524e-05 0.000930186 0.00012781 -0.000894859 0.000330534 0.000345617 0.000825325 -0.000501238 0.000592695 0.00155355
internal_weight=14428 13986 1305 12681 667 12014 685 11329 1029 11066 3302 883 2419 718 1701 660 1041 626 7764 1403 854 549 6361 605 6037 1060 767 4977 2428 781 2180 613
internal_count=14428 13986 1305 12681 667 12014 685 11329 1029 11066 3302 883 2419 718 1701 660 1041 626 7764 1403 854 549 6361 605 6037 1060 767 4977 2428 781 2180 613
is_linear=0
shrinkage=0.830302


Tree=12
num_leaves=33
num_cat=0
split_feature=47 203 201 202 204 200 137 96 139 106 203 203 84 203 0 202 138 53 202 202 19 203 203 53 96 194 201 204 203 203 10 197
split_gain=0.00141035 0.0120615 0.00520447 0.00353319 0.00302216 0.00244719 0.0192806 0.0108377 0.00526692 0.00360038 0.00377686 0.00340042 0.0026902 0.00290949 0.00227663 0.00268016 0.0014867 0.00141107 0.00141552 0.00198912 0.00131622 0.00375766 0.00133118 0.00298492 0.00151583 0.00154938 0.00121829 0.00298919 0.00122759 0.00176504 0.00134002 0.00119083
threshold=-47268.338544223356 0.85938007270066874 1350.0000000000002 0.88369667029386745 0.071560959994284953 3.5000000000000004 0.13924365181840689 0.99798387262512744 -1.1563379234773159 7.6653968074066352 0.79699304724350417 0.84664134399962065 17.61238243417554 0.86391897067021384 1544.5000000000002 0.87295881078770343 -0.23695845739766427 15.158327202532364 0.89235069142541312 0.90178766010739508 -0.41287470528474152 0.9034449938218756 0.9034449938218756 1.5826511512503743 0.98288468491772507 0.21243127581800295 950.00000000000011 0.069946761027804297 0.93862829327357178 0.93136718838028076 -4.0324310340164766 0.21912334953250301
decision_type=2 2 2 2 2 2 2 2 2 2 2 2 2 2 2 2 2 2 2 2 2 2 2 2 2 2 2 2 2 2 2 2
left_child=5 -2 3 -3 -5 6 -1 11 -8 -10 -11 -7 13 -12 31 16 -16 20 -19 -20 22 -22 23 -13 25 -24 27 -23 29 30 -28 -14
right_child=1 2 -4 4 -6 7 8 -9 9 10 12 17 14 -15 15 -17 -18 18 19 -21 21 26 24 -25 -26 -27 28 -29 -30 -31 -32 -33
leaf_value=-0.00712668614939311 0.0055537448026293382 0.00070337076669856004 0.0019909915098346859 -0.0048294335708522207 -0.0008313881994782839 -0.0030292442835473219 0.0032683645787886461 0.0051736623676585363 0.0024203353151356763 -0.0035882236152983134 0.00026106381878451292 -0.0023076267423307907 0.0018848847306407422 -0.0033621338254294451 -0.00084948655679860125 -0.0025464705242751926 0.0017110421454592684 -0.0024182868761232876 0.0017369143061428014 -0.0010447530253124956 0.0033384951491414439 -0.00092620775787355543 0.0012192207824285497 0.001233074129548912 0.0018256129502873212 -0.00022019309930589663 -0.0010958380599619824 0.002755701749235985 0.0012296760101812635 -0.0021884993382618365 0.0016038819748879047 0.00021517036833943734
leaf_weight=291 292 293 421 270 252 249 292 288 289 274 256 464 413 379 404 418 255 273 248 621 332 260 617 254 349 3135 253 366 300 340 254 1026
leaf_count=291 292 293 421 270 252 249 292 288 289 274 256 464 413 379 404 418 255 273 248 621 332 260 617 254 349 3135 253 366 300 340 254 1026
internal_value=1.04482e-11 0.000754275 -0.000379581 -0.00160413 -0.00289934 -8.93435e-05 -0.000601046 0.00016624 -0.000127017 -0.000393967 -0.000631436 -7.19795e-06 -0.000374324 -0.00190144 1.10973e-05 -0.000901858 0.00014131 8.60936e-05 -0.000769027 -0.000250906 0.000227132 0.000774872 -1.21281e-05 -0.00105507 0.000170469 1.65122e-05 0.000294825 0.00122647 -0.000213643 -0.000724853 0.000256684 0.000694387
internal_weight=14428 1528 1236 815 522 12900 4297 8603 4006 3714 3425 8315 3151 635 2516 1077 659 8066 1142 869 6924 2105 4819 718 4101 3752 1773 626 1147 847 507 1439
internal_count=14428 1528 1236 815 522 12900 4297 8603 4006 3714 3425 8315 3151 635 2516 1077 659 8066 1142 869 6924 2105 4819 718 4101 3752 1773 626 1147 847 507 1439
is_linear=0
shrinkage=0.830302


Tree=13
num_leaves=33
num_cat=0
split_feature=200 100 111 204 95 13 203 17 202 97 201 88 203 102 204 200 174 85 132 200 200 5 204 65 83 203 204 17 147 161 204 202
split_gain=0.00162804 0.0170318 0.00662143 0.00433682 0.00545995 0.00406114 0.00361072 0.00443129 0.00858101 0.00327853 0.00238077 0.00201912 0.00186495 0.0017895 0.00195172 0.00158691 0.0144025 0.0036237 0.00136806 0.0066607 0.00253484 0.00209933 0.00109679 0.00322382 0.00195885 0.0012932 0.00113445 0.00140024 0.00109381 0.00105306 0.000994678 0.000990252
threshold=1.5000000000000002 -0.50276011445837721 -1.8784320998112787 0.052852648786687953 -0.82235250789092318 8.6794553819046879e-05 0.84017251348493815 0.48380574336006826 0.89235069142541312 0.12450530812173233 1350.0000000000002 1.5891446014860631 0.86391897067021384 3.9222208546947313 0.072961939185239813 2.5000000000000004 56.152202270640814 2.1791973250270762 0.27765528794727662 4.5000000000000009 7.5000000000000009 -44.27260604438505 0.071494075652984712 240.26143672278366 -16.579714136128249 0.94187114447639553 0.073331077834122557 0.47011621791323338 92.500000000000014 1.736055317482593e-17 0.059445163901485708 0.89292401838248747
decision_type=2 2 2 2 2 2 2 2 2 2 2 2 2 2 2 2 2 2 2 2 2 2 2 2 2 2 2 2 2 2 2 2
left_child=1 -1 3 4 9 -5 -2 12 -9 11 -10 -3 -8 14 -14 16 -15 -18 19 -17 -21 -22 23 28 -24 26 27 -26 30 -30 -20 -32
right_child=6 2 -4 5 -6 -7 7 8 10 -11 -12 -13 13 15 -16 18 17 -19 22 20 21 -23 24 -25 25 -27 -28 -29 29 -31 31 -33
leaf_value=-0.0070678175178131184 0.0029936118334581482 -0.003109919692556654 0.0036189553272492183 1.9682979237957366e-05 0.0038126470834366146 -0.0044906607273809069 -0.0020136856257523222 0.0054671727850956952 -0.0015361009264968438 0.0021297794315946333 0.0017943564569378396 -0.00031805875313839553 3.4845382758385075e-05 0.0048346826342735138 -0.0024751803360615362 -0.004195530382568413 -0.0037891325718677183 0.00055175138530436508 -0.001589525492182986 0.0016261605808814482 0.00042918218926575721 -0.0026422504793752002 -0.0023152275509386111 0.003286773654029399 -0.0025052321169012157 0.00094265251461920585 2.5363999833406308e-05 -0.00022429691484662795 0.0018658001675907442 0.00021898878553122119 0.00074201159303896743 -0.0006862639402689443
leaf_weight=253 295 281 320 255 254 299 338 298 319 249 276 490 440 404 415 309 281 251 295 470 347 275 274 259 307 775 2449 469 435 696 737 613
leaf_count=253 295 281 320 255 254 299 338 298 319 249 276 490 440 404 415 309 281 251 295 470 347 275 274 259 307 775 2449 469 435 696 737 613
internal_value=-4.03934e-12 -0.000624235 0.000134715 -0.000475217 0.000368125 -0.0024146 0.000124619 5.24782e-05 0.00183028 -0.000489629 8.78351e-06 -0.00133559 -9.39911e-05 -3.22011e-05 -0.00118347 6.98449e-05 0.00109717 -0.00174108 -4.05547e-05 -0.00079216 0.000170882 -0.000928766 0.000103514 0.000485201 -0.000167525 -2.04073e-05 -0.00025184 -0.00112668 0.000223816 0.000852378 -0.000208345 9.34687e-05
internal_weight=14428 2401 2148 1828 1274 554 12027 11732 893 1020 595 771 10839 10501 855 9646 936 532 8710 1401 1092 622 7309 3035 4274 4000 3225 776 2776 1131 1645 1350
internal_count=14428 2401 2148 1828 1274 554 12027 11732 893 1020 595 771 10839 10501 855 9646 936 532 8710 1401 1092 622 7309 3035 4274 4000 3225 776 2776 1131 1645 1350
is_linear=0
shrinkage=0.830302


Tree=14
num_leaves=33
num_cat=0
split_feature=166 203 89 203 202 170 187 83 100 141 202 203 122 203 109 131 88 202 202 77 202 181 202 202 136 130 115 199 202 201 95 95
split_gain=0.00164763 0.00276992 0.00222837 0.00298188 0.00166297 0.00400052 0.00319051 0.0027662 0.0018696 0.00169642 0.00166712 0.00324698 0.00135214 0.00250949 0.00587209 0.00242852 0.00231524 0.00219324 0.00172231 0.00352013 0.00286642 0.00453482 0.00164013 0.00111265 0.0050167 0.00248663 0.00119531 0.0010924 0.00131314 0.00130776 0.00111818 0.00098826
threshold=0.21553896897998578 0.85938007270066874 -0.2292062544315234 0.8344727015610186 0.86629731248715136 0.39795075752823 -1.1981872214893965 -7.8070346446262144 0.55575130981298637 0.029847363174264493 0.83856863373504498 0.83150042678316505 0.006793417304024948 0.92247760466902051 0.997739510311897 0.047635151073396886 1.2930614717498015 0.90491005034713046 0.89718400393974107 76.401477113104377 0.90372622174428352 0.17125073761162082 0.90649070931210496 0.87613101759016188 0.46277103460082397 0.12478649661685952 0.1017500337594975 -0.94326341814682901 0.88664821311133424 950.00000000000011 -0.82366489741182913 -0.8974466811734374
decision_type=2 2 2 2 2 2 2 2 2 2 2 2 2 2 2 2 2 2 2 2 2 2 2 2 2 2 2 2 2 2 2 2
left_child=1 2 3 -1 5 6 -2 8 -8 10 11 -10 13 14 16 17 -6 -15 19 -17 21 -20 -22 24 26 27 -3 28 -25 -30 -31 -18
right_child=4 23 -4 -5 12 -7 7 -9 9 -11 -12 -13 -14 15 -16 18 31 -19 20 -21 22 -23 -24 25 -26 -27 -28 -29 29 30 -32 -33
leaf_value=-0.001035100428879088 -0.0025703344230644299 0.002063530558643376 0.0035256842214482689 0.0026714772711788136 0.0019324807598178936 -0.0038363304123959986 0.0023586376814528132 -0.0023480521808599002 -0.0018267122376568975 0.0018464388336560634 -0.0016388312320635263 0.0019979398733048458 -0.00048510403143790174 -0.0029704848885897641 0.004695316342982819 0.00041380309137002799 0.00039865445378652628 0.00011344578807875596 0.00041724868546743488 -0.0032231551953543752 -0.0019550150161341305 0.0047536329364882748 0.00084073004676490926 0.0016842621531204102 -0.0032371348261622944 0.0013682168825594357 -0.00039578699947489946 -0.0013488146807845178 -0.0013540776335490478 0.00071324474769728704 -0.0012475643037254569 -0.0016367990076756912
leaf_weight=308 398 271 304 291 400 264 285 292 259 280 464 374 2404 349 270 654 335 292 458 255 276 261 304 306 340 1059 274 436 473 912 257 323
leaf_count=308 398 271 304 291 400 264 285 292 259 280 464 374 2404 349 270 654 335 292 458 255 276 261 304 306 340 1059 274 436 473 912 257 323
internal_value=5.55478e-12 0.000372044 0.00169479 0.000765591 -0.000211608 -0.000771601 -0.0004276 8.84172e-06 0.000422929 2.22921e-05 -0.000443306 0.000433035 1.09932e-05 0.000296513 0.00123915 -0.000142876 0.000357141 -0.00156564 0.000270162 -0.000606466 0.0008836 0.00199137 -0.000489659 9.60639e-05 -0.000734299 0.000309503 0.000827103 -0.00016079 0.000105113 -0.000189174 0.000282169 -0.000600512
internal_weight=14428 5231 903 599 9197 2616 2352 1954 1662 1377 1097 633 6581 4177 1328 2849 1058 641 2208 909 1299 719 580 4328 885 3443 545 2384 1948 1642 1169 658
internal_count=14428 5231 903 599 9197 2616 2352 1954 1662 1377 1097 633 6581 4177 1328 2849 1058 641 2208 909 1299 719 580 4328 885 3443 545 2384 1948 1642 1169 658
is_linear=0
shrinkage=0.830302


Tree=15
num_leaves=33
num_cat=0
split_feature=202 96 125 203 204 125 204 182 186 201 197 202 114 200 90 182 149 204 89 33 87 83 200 161 161 203 201 202 202 202 149 200
split_gain=0.00207237 0.00152584 0.000824912 0.00135095 0.00320406 0.00625217 0.0036276 0.00141637 0.00148993 0.00132089 0.0023983 0.00336146 0.00115547 0.00107924 0.00280486 0.00245179 0.00203037 0.00153563 0.00135346 0.00112082 0.00102344 0.00099554 0.000905948 0.00277084 0.00185261 0.000819373 0.00226699 0.000729334 0.000714844 0.000696689 0.00199598 0.00143045
threshold=0.76828191173277915 0.99873476918002713 7.2667395755104351e-06 0.9171793367665857 0.066612429591890537 2.0647775022276931e-06 0.062327222072038703 0.38831111005096342 -0.16584933877767352 1850.0000000000002 0.19979246384232921 0.89994498481757168 0.91505549789986962 5.5000000000000009 217.03728607961372 0.42156340191328429 16.52178334700687 0.05972585544470492 -1.0259568297221213 3.1754227106617781 1.3096716868308333 -12.228268562776252 4.5000000000000009 1.7636070364838459e-17 2.6422514505310207e-17 0.84480960946164696 450.00000000000006 0.89860280673497273 0.89413899394727636 0.87662718017241048 15.455738009852002 3.5000000000000004
decision_type=2 2 2 2 2 2 2 2 2 2 2 2 2 2 2 2 2 2 2 2 2 2 2 2 2 2 2 2 2 2 2 2
left_child=-1 2 3 4 6 -6 7 -2 25 10 11 -5 -7 15 -15 20 17 -16 -17 -19 -4 -20 23 -12 -24 -9 -27 -21 -18 30 -23 -31
right_child=1 -3 13 9 5 12 -8 8 -10 -11 22 -13 -14 14 16 18 28 19 21 27 -22 29 24 -25 -26 26 -28 -29 -30 31 -32 -33
leaf_value=0.0022049348994246328 -0.0023159680138116639 -0.0015924534502521311 0.0029175860352986149 0.0037598662651890232 -0.0052346111082621632 -0.001553298351955905 0.0026921707481961758 0.00048847910192339247 0.0011933646683729281 -0.0016253755706695256 -0.00077406849562621438 0.00014711705834191143 0.00088237055842143772 -0.0020872331892969188 -0.0020770141944027052 -0.0015126699358782051 0.0023913063686182203 0.00091098175116865478 -0.00081404866675610394 -2.144242952513115e-05 0.0010593319996002194 0.0012360387248962687 2.4316126087120771e-05 0.0022641115075800709 -0.0018757348169588103 -0.0031923435037756408 -8.6091025812760798e-07 -0.0012914399993800584 0.00066343607901732458 0.0021378346401732719 -0.0012603969308331638 0.0001508357681714645
leaf_weight=288 262 426 314 292 278 280 280 252 375 283 453 453 258 439 265 309 300 701 423 1235 585 468 1521 381 461 256 383 417 367 464 418 541
leaf_count=288 262 426 314 292 278 280 280 252 375 283 453 453 258 439 265 309 300 701 423 1235 585 468 1521 381 461 256 383 417 367 464 418 541
internal_value=-6.48767e-12 -4.49096e-05 3.16201e-06 -0.000212375 -0.000671658 -0.00203737 -5.52749e-05 -0.000558734 -0.000195072 0.000101142 0.000238351 0.00156312 -0.000385264 0.000195557 -0.00011607 0.000525057 0.000147352 -0.000182132 0.000119489 3.12734e-05 0.00170838 0.00033744 -0.000112129 0.000613877 -0.000417623 -0.000779431 -0.00127945 -0.000342017 0.00144059 0.000595017 5.82621e-05 0.00106822
internal_weight=14428 14140 13714 6468 2624 816 1808 1528 1266 3844 3561 745 538 7246 3724 3522 3285 2618 2623 2353 899 2314 2816 834 1982 891 639 1652 667 1891 886 1005
internal_count=14428 14140 13714 6468 2624 816 1808 1528 1266 3844 3561 745 538 7246 3724 3522 3285 2618 2623 2353 899 2314 2816 834 1982 891 639 1652 667 1891 886 1005
is_linear=0
shrinkage=0.830302


Tree=16
num_leaves=33
num_cat=0
split_feature=200 96 199 34 204 118 203 176 191 170 203 106 204 200 204 204 202 95 202 204 201 6 13 204 118 125 200 201 118 203 204 19
split_gain=0.000959312 0.00624821 0.00385502 0.00309269 0.00303401 0.0022167 0.00155771 0.00212172 0.00136659 0.00119986 0.00144524 0.00102637 0.00233259 0.00255117 0.00206977 0.00148118 0.00113288 0.00312337 0.00220494 0.00108327 0.000959355 0.000887343 0.000803076 0.000935624 0.00209795 0.000739971 0.000991327 0.000813695 0.0017876 0.000759762 0.000723778 0.000794898
threshold=2.5000000000000004 0.99719467641054471 1.0000000180025095e-35 4.1282718417833175 0.07140642318617782 13.478475246819373 0.79184615018606286 0.024786830414168595 3.6241867035214286e-17 0.28576196066464393 0.89418756307088521 50.569941934521076 0.071560959994284953 7.5000000000000009 0.044385770309176904 0.052852648786687953 0.86722890951529197 -0.87315602899370481 0.87295881078770343 0.074353064920067213 1350.0000000000002 3.402174862326384e+22 0.00046309839202587016 0.066886459637483256 13.026718650388034 1.8866513190098512e-05 4.5000000000000009 1250.0000000000002 5.2763885684945491 0.93845188930414414 0.055750161455619528 -0.45801514109914387
decision_type=2 2 2 2 2 2 2 2 2 2 2 2 2 2 2 2 2 2 2 2 2 2 2 2 2 2 2 2 2 2 2 2
left_child=1 3 8 -1 5 6 -5 -8 11 -9 21 14 13 -13 -2 -16 17 -17 -18 -14 -21 30 23 24 -20 -25 -27 28 -28 -29 31 -11
right_child=2 -3 -4 4 -6 -7 7 9 -10 10 -12 12 19 -15 15 16 18 -19 22 20 -22 -23 -24 25 -26 26 27 29 -30 -31 -32 -33
leaf_value=0.0026096409216960523 0.002427382597404844 -0.0041821425146080287 0.0029092353095499192 -0.0022446971945710367 -0.0029335601507964964 0.0016838502954573014 0.0020341726813412125 0.00087028226424255633 -0.0016273705624360404 0.00064804013632947344 -0.002379485447672042 -0.0031244249425747203 0.0017488124432575481 0.00028616655015991125 -0.001653505872466785 -0.00036256205427376715 -0.0021021182600561334 0.0032267189809403025 0.00010847429008120848 0.00068603969859194769 -0.0014521952540518029 -0.0014409824044723232 0.0013900423821034021 0.00049190457087034518 -0.0024419850376207128 -0.0013020328325851467 0.0024247288441590418 -0.0011456279040203006 -0.0001838583577409014 0.00049890568658099064 0.0012960854417542317 -0.0014180577830495407
leaf_weight=275 278 274 332 267 274 435 275 380 330 249 309 378 263 252 311 379 301 299 859 320 264 353 366 3607 300 403 283 450 503 340 254 265
leaf_count=275 278 274 332 267 274 435 275 380 330 249 309 378 263 252 311 379 301 299 859 320 264 353 366 3607 300 403 283 450 503 340 254 265
internal_value=3.5849e-12 -0.000370624 0.000123678 -5.75672e-05 -0.000297189 -3.79978e-05 -0.000356452 -0.000114648 3.5484e-05 -0.000441126 -0.000789612 8.95153e-05 -0.000550324 -0.00176019 0.000198404 0.000124644 0.000193 0.00122032 9.9028e-05 0.000349576 -0.00028056 -0.000351369 0.0001922 0.000127202 -0.000551696 0.000268062 -0.000139922 0.000157242 0.000755366 -0.000437854 0.000149456 -0.000417166
internal_weight=14428 3610 10818 3336 3061 2787 2352 2085 10486 1810 1430 10156 1477 630 8679 8401 8090 678 7412 847 584 1121 7111 6745 1159 5586 1979 1576 786 790 768 514
internal_count=14428 3610 10818 3336 3061 2787 2352 2085 10486 1810 1430 10156 1477 630 8679 8401 8090 678 7412 847 584 1121 7111 6745 1159 5586 1979 1576 786 790 768 514
is_linear=0
shrinkage=0.830302


Tree=17
num_leaves=33
num_cat=0
split_feature=130 84 201 165 204 204 204 202 204 31 202 164 201 114 200 200 201 34 201 33 202 203 19 204 202 204 23 204 151 203 184 149
split_gain=0.00277588 0.00148027 0.00363749 0.00147015 0.00241432 0.00198689 0.00267788 0.00215061 0.00186508 0.00377454 0.0020551 0.00527661 0.001569 0.00149096 0.00120245 0.000993857 0.000984281 0.00155902 0.00112409 0.000945996 0.000665282 0.00104059 0.000681336 0.000640394 0.00148128 0.000589 0.000537973 0.000693625 0.000975836 0.0008139 0.00132279 0.000785187
threshold=0.051619235771377586 1.7637047887189625 950.00000000000011 0.55253018179436653 0.047066116304831457 0.062327222072038703 0.067450957266452949 0.8599438005459541 0.065745630632418436 1.5707054061366135e-18 0.90118135399648625 0.12511556684682504 1450.0000000000002 0.97177983834186843 1.5000000000000002 2.5000000000000004 150.00000000000003 8.0833304946492408 550.00000000000011 3.1754264804240351 0.87402129135264672 0.87333693983357985 -0.47951886436291596 0.06546832685806396 0.89065077948770244 0.07288944784216532 12.873135459357925 0.076752557283280301 -0.30027390360610878 0.9094096611983612 0.80081826175357584 15.398029246517552
decision_type=2 2 2 2 2 2 2 2 2 2 2 2 2 2 2 2 2 2 2 2 2 2 2 2 2 2 2 2 2 2 2 2
left_child=-1 2 -2 5 -5 13 7 -7 9 -6 11 -10 -12 16 -15 -8 -3 18 -18 -19 21 22 -21 24 -9 -13 27 29 -29 30 -17 -31
right_child=1 3 -4 4 8 6 15 23 10 -11 12 25 -14 14 -16 26 17 19 -20 20 -22 -23 -24 -25 -26 -27 -28 28 -30 31 -32 -33
leaf_value=-0.0021620180801951339 0.00084188082230254771 -0.0002659581629554548 -0.0030765044301321784 -0.0024142518504273571 -0.0010644437928626687 -0.0030556010563304379 0.0013706258179734183 0.001546669103232439 -0.0046313994379594599 0.0034096929522861438 0.0020594824918855432 -0.0010574627733598697 -0.00063876172866868296 -0.0014570659391666383 0.00067317349014996033 -0.0019212600976920191 0.0036998302312156975 -0.00064376881054754181 0.0014093095076657181 -0.00016658511532885304 0.00011790421279854616 0.0028980129584120469 0.0015441289289146475 -0.0012603298730273188 -0.0013231073002596459 0.00032210354109762278 -0.00064441566423653325 -0.0014068787935249266 0.00010877017914503254 -0.00014163054541991926 0.00070965492936975671 0.00076978234904647878
leaf_weight=432 307 357 349 395 258 313 434 247 250 262 282 388 314 346 387 264 250 266 361 253 362 249 439 452 249 474 649 415 995 917 263 2252
leaf_count=432 307 357 349 395 258 313 434 247 250 262 282 388 314 346 387 264 250 266 361 253 362 249 439 452 249 474 649 415 995 917 263 2252
internal_value=-8.90376e-05 -2.50667e-05 -0.00124275 3.47998e-05 -0.000522372 0.00017113 -6.56913e-05 -0.00116852 -0.000186962 0.00118983 -0.000606127 -0.0012729 0.000637924 0.000710677 -0.000332369 0.000159008 0.00101204 0.00122133 0.00234651 0.000783155 0.00107445 0.00144244 0.00091868 -0.000545459 0.000105995 -0.000298861 6.76363e-05 0.000158142 -0.000337325 0.000347159 -0.000608299 0.000506051
internal_weight=14431 13999 656 13343 2623 10720 7450 1261 2228 520 1708 1112 596 3270 733 6189 2537 2180 611 1569 1303 941 692 948 496 862 5755 5106 1410 3696 527 3169
internal_count=14431 13999 656 13343 2623 10720 7450 1261 2228 520 1708 1112 596 3270 733 6189 2537 2180 611 1569 1303 941 692 948 496 862 5755 5106 1410 3696 527 3169
is_linear=0
shrinkage=0.830302


Tree=18
num_leaves=33
num_cat=0
split_feature=202 129 203 202 204 169 83 204 201 17 117 202 180 201 191 200 201 202 200 181 203 203 83 203 96 202 202 202 203 185 181 199
split_gain=0.0012098 0.00370226 0.00197708 0.00182111 0.00227539 0.00165297 0.00117074 0.000835643 0.00163505 0.0047565 0.000683522 0.00148849 0.00172575 0.00128744 0.00141232 0.00134287 0.00128298 0.00113935 0.00100022 0.000720187 0.000739585 0.00173109 0.000773237 0.000675545 0.000946992 0.000626187 0.00104201 0.00107553 0.0010186 0.00136281 0.000485651 0.000471918
threshold=0.79829391474203792 0.30219070308472856 0.82761924463860537 0.81700606536217135 0.039447222270791581 2.9596615489903795 -17.594453594138532 0.054584595667190094 450.00000000000006 0.47537116839996468 2.3062366264445253 0.87070770669761 1.3189067769570648 250.00000000000003 3.6241867035214286e-17 2.5000000000000004 1150.0000000000002 0.87662718017241048 2.5000000000000004 0.25406460688170746 0.92636438300365354 0.93548250887334106 -8.2584606025632059 0.94652169424918864 0.98570102686258421 0.88425346454665821 0.89152361854943518 0.89554405890580069 0.93548250887334106 0.1539505416918765 -0.50319602178231182 -1.3512688630655643
decision_type=2 2 2 2 2 2 2 2 2 2 2 2 2 2 2 2 2 2 2 2 2 2 2 2 2 2 2 2 2 2 2 2
left_child=1 -1 -2 -4 5 -5 -6 8 -8 -10 13 12 30 -9 15 16 -15 -13 -19 25 -21 -22 -23 24 31 -20 -27 -28 29 -29 -12 -17
right_child=2 -3 3 4 6 -7 7 10 9 -11 11 17 -14 14 -16 23 -18 18 19 20 21 22 -24 -25 -26 26 27 28 -30 -31 -32 -33
leaf_value=-0.00070220714244382371 -0.0021990151440318085 0.003156658775423469 0.0020466348231955034 -0.0027572522966748383 -0.0014280839711732153 5.8756411490627518e-06 0.0018807722905495811 -0.001946564413515561 0.0014645073149213521 -0.0029908249608152928 0.0011835398773082898 -0.0016716174615386697 0.0029713095456150086 -0.0028396538719794398 0.001536646080689971 0.0002324230925366501 -0.00039673098982677586 0.001587938769429577 0.0013408396804322203 0.00058038946989785885 -0.0023635003624399992 -0.00090674926923810023 0.00087654238825557614 -0.0011588294601894184 0.0012534564976358783 -0.0010400452460747713 0.0017457363244220028 0.00029893248323378601 0.00062464888732178701 -0.0021082761954285077 -0.00045158876531159865 -0.00037976732533286214
leaf_weight=376 294 315 287 364 379 253 489 284 476 253 247 261 266 250 328 1538 364 296 321 335 342 357 316 365 388 446 325 391 1001 277 254 1993
leaf_count=376 294 315 287 364 379 253 489 284 476 253 247 261 266 250 328 1538 364 296 321 335 342 357 316 365 388 446 325 391 1001 277 254 1993
internal_value=-1.51095e-05 0.0010569 -6.9022e-05 -2.24492e-05 -6.75763e-05 -0.00162424 9.0031e-06 5.37828e-05 0.000706178 -8.17191e-05 -1.88181e-05 0.000190102 0.00126206 -0.000224895 -0.000131333 -0.000243031 -0.00139141 1.39688e-05 0.000113796 7.65472e-06 -0.00048934 -0.000842403 -6.94236e-05 -7.8441e-05 2.21821e-05 0.000250662 0.000107241 0.000363856 9.47655e-05 -0.000699266 0.000354553 -0.000113115
internal_weight=14431 691 13740 13446 13159 617 12542 12163 1218 729 10945 5435 767 5510 5226 4898 614 4668 4407 4111 1350 1015 673 4284 3919 2761 2440 1994 1669 668 501 3531
internal_count=14431 691 13740 13446 13159 617 12542 12163 1218 729 10945 5435 767 5510 5226 4898 614 4668 4407 4111 1350 1015 673 4284 3919 2761 2440 1994 1669 668 501 3531
is_linear=0
shrinkage=0.830302


Tree=19
num_leaves=33
num_cat=0
split_feature=173 201 197 203 203 204 201 201 191 174 202 191 203 202 203 204 204 53 204 204 13 34 170 200 147 201 201 148 17 93 202 201
split_gain=0.000971323 0.00343522 0.00158332 0.0029133 0.00144414 0.000733367 0.00071809 0.000712117 0.00503079 0.00211481 0.00147364 0.00353891 0.00240132 0.000891331 0.000875077 0.0014666 0.000976952 0.00283905 0.00137502 0.000949477 0.00116011 0.00142988 0.000758983 0.00086252 0.00235655 0.00142122 0.00136312 0.00351663 0.00236911 0.00131093 0.00081698 0.000745968
threshold=98.912747446346557 250.00000000000003 0.19979246384232921 0.91528697467714981 0.80997982733378937 0.075252057980068177 1750.0000000000002 250.00000000000003 2.7371185530721816e-17 58.834400506698366 0.83389106357774556 2.5114512714256052e-17 0.8344727015610186 0.84801842117471005 0.89177751952200757 0.055750161455619528 0.061664196592048762 1.1520624335260112 0.063840357285012375 0.069010401084196385 0.00026529219150263854 8.0830227489370081 0.25408405292720698 7.5000000000000009 80.500000000000014 650.00000000000011 1350.0000000000002 40.300000000000004 0.47537116839996468 3.0784268147287528 0.89806326339141973 850.00000000000011
decision_type=2 2 2 2 2 2 2 2 2 2 2 2 2 2 2 2 2 2 2 2 2 2 2 2 2 2 2 2 2 2 2 2
left_child=4 -2 3 -3 -1 -5 -4 8 9 -6 11 12 -9 -12 -15 -16 17 -17 -18 20 21 -20 -21 24 -24 -25 28 -28 -27 -26 -29 -23
right_child=1 2 6 5 7 -7 -8 10 -10 -11 13 -13 -14 14 15 16 18 -19 19 22 -22 31 23 25 29 26 27 30 -30 -31 -32 -33
leaf_value=-0.0015455698161067112 0.0028767673959586761 -0.0032049279345115205 0.00029744468488965747 0.001231750632350867 0.0016925379755832087 -0.00072232708313310873 0.0017888746902152634 -0.0019707721198829586 -0.0036549242471966186 -0.0013403736945452472 -0.0012014515752845497 0.0036799247305638583 0.0015360228276052818 0.0011743819913155515 -0.0016804839670672409 -0.00082720739359994576 -0.0019126643513464679 0.00304941656508266 -0.0014621231702085745 0.00088467564847298573 0.0020597757305170473 0.0018804262376566547 -0.0023458657263968441 0.0016744740125464732 5.5179702587171569e-05 -3.4899313731029795e-05 0.0032478560439212953 -0.0015172505014801831 -0.0029503540147772342 -0.0014580377157955462 0.0003110340959307466 4.4280749586316916e-05
leaf_weight=469 344 256 1905 252 406 279 252 252 286 260 468 250 289 400 378 263 273 258 258 448 305 276 425 353 2064 699 249 269 265 488 451 341
leaf_count=469 344 256 1905 252 406 279 252 252 286 260 468 250 289 400 378 263 273 258 258 448 305 276 425 353 2064 699 249 269 265 488 451 341
internal_value=-2.56404e-06 0.000393992 0.000103885 -0.00090418 -0.000119577 0.000205032 0.000471687 -5.69211e-05 -0.000742264 0.000508518 1.01891e-05 0.00109641 -9.74565e-05 -8.60148e-05 -2.43317e-05 -8.37991e-05 -5.26336e-06 0.0010925 -8.50981e-05 -1.26956e-05 0.00066534 0.00017928 -0.000152791 -0.000241102 -0.000535648 0.000142477 -0.000137292 0.000558155 -0.000836347 -0.000234182 -0.000372033 0.000865636
internal_weight=14431 3288 2944 787 11143 531 2157 10674 952 666 9722 791 541 8931 8463 8063 7685 521 7164 6891 1180 875 5711 5263 2977 2286 1933 969 964 2552 720 617
internal_count=14431 3288 2944 787 11143 531 2157 10674 952 666 9722 791 541 8931 8463 8063 7685 521 7164 6891 1180 875 5711 5263 2977 2286 1933 969 964 2552 720 617
is_linear=0
shrinkage=0.830302


Tree=20
num_leaves=33
num_cat=0
split_feature=204 144 202 109 198 203 203 202 17 204 114 201 202 139 138 13 10 198 13 204 111 200 203 204 203 200 116 197 117 169 203 204
split_gain=0.00107707 0.0029188 0.00115626 0.00289751 0.00205301 0.00193787 0.00166696 0.000801439 0.000881175 0.00147333 0.00109915 0.00166796 0.00158309 0.00374677 0.00139045 0.000932243 0.00080637 0.000778066 0.000754504 0.00104458 0.00252122 0.00071731 0.000883708 0.000595352 0.000577757 0.00110249 0.00326209 0.00116532 0.000581681 0.000692435 0.000855065 0.000807274
threshold=0.032627619554046874 2.8056751354210223 0.83594041963437848 0.99919589193891722 -0.30674566333478043 0.85938007270066874 0.83578589190777597 0.84801842117471005 0.47030694233619613 0.054128666140796193 0.82834924644290742 950.00000000000011 0.89570916283259006 0.28266815867163647 -0.59438093345383136 0.00017748748185437939 -5.4688144330974735 -0.79837022771926047 0.00030246564954013747 0.063359766092337622 -2.3360853327112818 7.5000000000000009 0.93568400403775576 0.072145946242864759 0.94652169424918864 4.5000000000000009 0.22685157905717854 0.23238874511193353 3.6900655247018981 3.3314793991903358 0.93730545885689376 0.07228827717984089
decision_type=2 2 2 2 2 2 2 2 2 2 2 2 2 2 2 2 2 2 2 2 2 2 2 2 2 2 2 2 2 2 2 2
left_child=1 -1 3 4 17 -4 -6 -7 10 -10 12 14 13 -9 -12 23 -14 -2 19 20 -11 22 -17 -13 25 26 27 -21 29 -27 31 -31
right_child=2 -3 5 -5 6 7 -8 8 9 18 11 15 16 -15 -16 21 -18 -19 -20 24 -22 -23 -24 -25 -26 28 -28 -29 -30 30 -32 -33
leaf_value=0.0024442123176067337 -0.00028908311271480373 -0.00082920783918961146 0.0021779295865135542 -0.0031734440155543964 0.0019980232686868803 -0.001176629782639831 -0.00047872070401563905 -0.00043263730258142767 0.00167056924725574 -0.0023692679210936545 -0.0004756871628385066 0.0016782072755223375 8.889994446361157e-05 0.0032396488718502378 -0.0021293178478721036 0.0010934562177350043 -0.0017243805210275102 -0.0021991938636527564 0.001347266568257566 -0.00039308538071204663 0.00096440541497041024 -0.0013585559357160168 -0.00083038593341849495 0.00018554923598773808 -0.00084185070189364878 -0.00045954465503536697 0.0035253911692570356 0.0017194778878866562 0.00087058546581659472 -0.00073898109570197921 0.0016150700272573942 0.00076566819860890737
leaf_weight=415 262 343 284 274 358 397 393 437 453 368 817 260 518 341 614 294 251 335 325 643 272 430 374 632 358 1723 263 250 477 513 285 472
leaf_count=415 262 343 284 274 358 397 393 437 453 368 817 260 518 341 614 294 251 335 325 643 272 430 374 632 358 1723 263 250 477 513 285 472
internal_value=-4.351e-07 0.000962968 -5.3844e-05 -0.000711984 -0.000211658 3.47382e-05 0.000701938 -1.69884e-05 2.35022e-05 0.000227122 -0.000238892 -0.000501521 0.00034188 0.00117694 -0.00118521 -9.88254e-06 -0.000502951 -0.00136092 0.000117207 4.61247e-05 -0.000952457 -0.000522101 1.6335e-05 0.000620629 0.000174353 0.000252996 0.000955271 0.000198338 1.90394e-05 -0.000116673 0.000348498 -1.79715e-05
internal_weight=14431 758 13673 1622 1348 12051 751 11767 11370 6402 4968 3421 1547 778 1431 1990 769 597 5949 5624 640 1098 668 892 4984 4626 1156 893 3470 2993 1270 985
internal_count=14431 758 13673 1622 1348 12051 751 11767 11370 6402 4968 3421 1547 778 1431 1990 769 597 5949 5624 640 1098 668 892 4984 4626 1156 893 3470 2993 1270 985
is_linear=0
shrinkage=0.830302


Tree=21
num_leaves=33
num_cat=0
split_feature=204 167 9 201 47 102 149 114 9 203 135 201 97 169 170 171 204 203 120 12 99 201 141 14 204 203 93 169 199 200 84 201
split_gain=0.000775274 0.00268027 0.00184435 0.00334042 0.00382568 0.00230265 0.00121703 0.00117172 0.000979853 0.000769564 0.00252592 0.00198083 0.00346351 0.00207072 0.00192172 0.00146253 0.00175458 0.00239336 0.0011725 0.0011095 0.00104932 0.000822384 0.000801325 0.000751629 0.000930875 0.000775738 0.000652064 0.000591941 0.000559574 0.000608243 0.000692419 0.000667007
threshold=0.052852648786687953 0.070461396199118884 -7.7095349269282964 850.00000000000011 -1217920.0146209085 48318138866557656 15.398029246517552 0.88948889477882698 -14.729656981994644 0.91065695607469566 0.53572722192895672 750.00000000000011 0.058872491984160849 4.1219085421445882 0.27085832725215414 0.17248896780390005 0.062127350208427586 0.87463760606858376 0.66749280268943356 9.2049630780618266 -0.3871290452930311 850.00000000000011 0.034957883229251245 1.0000000180025095e-35 0.063589745999769201 0.93488010220250772 2.8131715883439044 1.4770745683080817 -0.2686700924476752 10.500000000000002 28.503580590026129 1150.0000000000002
decision_type=2 2 2 2 2 2 2 2 2 2 2 2 2 2 2 2 2 2 2 2 2 2 2 2 2 2 2 2 2 2 2 2
left_child=1 2 3 4 7 -5 -3 -1 -9 10 -2 12 -11 19 -12 -16 -17 -18 20 -14 -13 -22 26 24 -23 -25 -19 -21 29 31 -31 -26
right_child=9 6 -4 5 -6 -7 -8 8 -10 11 14 18 13 -15 15 16 17 22 -20 27 21 23 -24 25 28 -27 -28 -29 -30 30 -32 -33
leaf_value=-0.0011863050928230107 0.0025907758651218674 -0.0033586090596747502 -0.0017141732401914215 0.00042622122024274847 0.0038681982916398696 -0.0027694792818235572 -0.00079475237088139452 0.0018223745069096942 -0.00027871122372722295 -0.0030746796384128576 0.002062679410998869 0.0015933209039078568 -0.0017124502034872272 0.0016786462066511658 -0.0012090944343400743 -0.00098636672390575112 0.0029367759378746121 0.0004999879370285006 0.001689651281048341 -0.00085697837661695192 0.0010530775059423331 0.0011854859244069247 0.0013613527598849567 1.8348117834569987e-05 0.00045927322155552962 -0.0020222641106955063 -0.001321451291344259 0.00087249579828436801 -0.0010533984231493201 0.0018566542020335486 -0.00010738002704276751 -0.00029109610152377313
leaf_weight=250 340 263 359 305 278 317 248 364 264 372 325 305 471 308 597 492 292 270 330 267 490 438 259 251 1097 263 272 279 374 247 248 3196
leaf_count=250 340 263 359 305 278 317 248 364 264 372 325 305 471 308 597 492 292 270 330 267 490 438 259 251 1097 263 272 279 374 247 248 3196
internal_value=-7.38399e-08 -0.000406035 2.44818e-06 0.000349055 0.00118386 -0.00120246 -0.00211431 0.000333927 0.000939116 9.11581e-05 0.000467089 -2.86133e-05 -0.00083601 -0.000207493 0.000179075 -0.000101481 0.000315709 0.000901822 0.00016066 -0.000778713 8.763e-05 1.8091e-05 0.00015999 -6.48569e-05 2.33419e-05 -0.00102578 -0.000414092 2.67639e-05 -7.5267e-05 1.13678e-06 0.000872653 -9.93525e-05
internal_weight=14431 2648 2137 1778 1156 622 511 878 628 11783 2847 8936 1697 1325 2507 2182 1585 1093 7239 1017 6909 6604 801 6114 5600 514 542 546 5162 4788 495 4293
internal_count=14431 2648 2137 1778 1156 622 511 878 628 11783 2847 8936 1697 1325 2507 2182 1585 1093 7239 1017 6909 6604 801 6114 5600 514 542 546 5162 4788 495 4293
is_linear=0
shrinkage=0.830302


Tree=22
num_leaves=33
num_cat=0
split_feature=198 201 201 99 204 151 204 88 13 203 17 17 200 204 200 204 100 200 141 85 14 186 202 202 167 111 202 201 167 133 204 97
split_gain=0.000864301 0.0022209 0.00156144 0.00331326 0.0024426 0.00382536 0.00175443 0.00187852 0.00159457 0.000977943 0.000976956 0.000908881 0.000889478 0.000681179 0.00061317 0.00074321 0.00184616 0.000751252 0.00276454 0.0014035 0.000497067 0.000714957 0.000653152 0.00175349 0.00156915 0.000997568 0.000725053 0.00155852 0.0022377 0.0010167 0.000995339 0.00247972
threshold=-0.82980664987476394 350.00000000000006 350.00000000000006 -0.23927075314020019 0.04975792128648221 -0.083400319842408019 0.042069919868243655 2.7970849494661096 6.8063813216462488e-05 0.87757988012611254 0.44031116828943645 0.47176449952749372 4.5000000000000009 0.074297567299110995 1.0000000180025095e-35 0.057355498033065368 1.1079114078707237 2.5000000000000004 0.0097521900974691621 0.48465473152721295 1.3059746504650731e-33 0.55379705152606629 0.8877697329762978 0.89375666984917468 0.061922346659490694 -3.0193527768162918 0.9045806195215701 1750.0000000000002 0.070461396199118884 2.6516528151278878 0.071069789269889744 0.081939043964574007
decision_type=2 2 2 2 2 2 2 2 2 2 2 2 2 2 2 2 2 2 2 2 2 2 2 2 2 2 2 2 2 2 2 2
left_child=1 -1 3 -2 5 -5 7 -4 -6 -3 -8 -10 -11 -14 -12 16 -16 18 -17 -20 21 22 25 24 -24 -19 29 28 -28 30 -25 -32
right_child=2 9 6 4 8 -7 10 -9 11 12 14 -13 13 -15 15 17 -18 20 19 -21 -22 -23 23 26 -26 -27 27 -29 -30 -31 31 -33
leaf_value=0.0025746760750166168 0.0018927651870172743 -0.0013026053114624705 -6.9521787327349422e-05 -0.0041002749332006289 -0.0017264028981935327 -0.00010670811291899773 -0.0011458093557549609 0.0025948390265749773 0.0012952009760807046 0.0014191730219829148 -0.0008892543667468664 -0.00070664722790863296 -0.00078002967483989719 0.00061534684340001694 -0.00015030722984444163 -0.0027559052966581689 0.0025871592104218821 0.00015299369878512604 -0.00099706010749618028 0.0015873871408258245 0.00087357556389401668 -0.0013321043749559953 0.00032377734817643644 0.00030384687377271014 0.0025060526422206516 -0.0013982904887209907 0.00027890506035539118 -0.00096417953734701716 0.0029624457392052393 0.0010624475248562817 -0.0025776083909354675 -0.00021873877621348371
leaf_weight=304 279 273 358 392 380 286 527 372 359 424 488 277 444 528 455 304 271 702 281 299 510 258 544 727 390 482 957 425 276 331 426 1102
leaf_count=304 279 273 358 392 380 286 527 372 359 424 488 277 444 528 455 304 271 702 281 299 510 258 544 727 390 482 957 425 276 331 426 1102
internal_value=-1.25309e-08 0.000510588 -8.08774e-05 -0.000758511 -0.00119517 -0.00241567 4.66353e-05 0.00128821 -0.000380706 0.000134624 -4.62757e-05 0.000423327 0.000415687 -2.20474e-05 1.65173e-05 6.70913e-05 0.000871529 -5.78393e-06 -0.000727761 0.000335267 8.3729e-05 2.28798e-05 7.78289e-05 0.000205045 0.00123501 -0.000478526 -2.16243e-05 0.000406979 0.0008796 -0.000296421 -0.000495882 -0.000876382
internal_weight=14431 1973 12458 1973 1694 678 10485 730 1016 1669 9755 636 1396 972 9228 8740 726 8014 884 580 7130 6620 6362 5178 934 1184 4244 1658 1233 2586 2255 1528
internal_count=14431 1973 12458 1973 1694 678 10485 730 1016 1669 9755 636 1396 972 9228 8740 726 8014 884 580 7130 6620 6362 5178 934 1184 4244 1658 1233 2586 2255 1528
is_linear=0
shrinkage=0.830302


Tree=23
num_leaves=33
num_cat=0
split_feature=202 199 201 139 183 186 133 18 203 168 202 202 109 204 204 133 136 96 137 107 142 203 202 203 17 201 100 202 202 117 201 200
split_gain=0.000926897 0.00083476 0.00074924 0.00293699 0.00132858 0.00128477 0.00110549 0.000862106 0.000657181 0.00188947 0.00123842 0.00117642 0.001171 0.000823403 0.00217033 0.00294824 0.00269559 0.0023866 0.0012745 0.000703279 0.00077179 0.000761939 0.00103973 0.000708626 0.000617431 0.00062307 0.000825491 0.000927715 0.000874771 0.000578387 0.00133551 0.00053735
threshold=0.76828191173277915 1.0000000180025095e-35 1550.0000000000002 1.5811358436265077 0.99308424919085725 0.15046740407569931 -1.3147840233140042 0.65558930266400839 0.93585373922964821 1.5180905769282773 0.90310625162858249 0.89943708354661389 0.99717892847223111 0.055314844938886103 0.050260505083105388 0.075337497839975912 0.36370377133020693 0.87205056044761442 0.13951569211838125 0.64433246026970592 0.0044650251876174789 0.91026548860175704 0.89152361854943518 0.91233626866708539 0.47388680382103526 350.00000000000006 0.28387600258368223 0.88718805166105896 0.88143581422945083 2.1348150983211727 1750.0000000000002 6.5000000000000009
decision_type=2 2 2 2 2 2 2 2 2 2 2 2 2 2 2 2 2 2 2 2 2 2 2 2 2 2 2 2 2 2 2 2
left_child=-1 2 6 4 -4 -5 31 -8 10 -10 11 13 -11 14 15 16 -9 -17 -15 23 24 -22 -23 -20 25 -21 -27 28 -28 30 -6 -2
right_child=1 -3 3 5 29 -7 7 8 9 12 -12 -13 -14 18 -16 17 -18 -19 19 20 21 22 -24 -25 -26 26 27 -29 -30 -31 -32 -33
leaf_value=0.0014878438805734566 0.0015038022580080542 0.0011176689659023406 -0.0013799067215094093 0.0030709220868690703 0.00073402481851027703 0.00063138622514296834 -0.0015429004228538746 0.00039168711096562866 -4.0150627922437449e-05 -0.00079320082573752413 0.0016714514762292544 -0.0014550797239104532 -0.003163295261851687 0.0017817954686621645 -0.002108348273368402 -0.00051803809357662948 -0.0028693738792595516 0.0021542940342271148 0.0016651646318668026 -0.0015961936069159581 0.0012912186112479049 -0.0009620563227503864 0.0010481755263391814 2.4633129419448997e-05 0.0001771120069906961 -0.0015444818245409467 -0.00014054164756623891 -0.00086860101717279984 0.0017816160637622661 0.00056052005073080563 -0.001507489603515641 6.2549864071332162e-07
leaf_weight=283 386 424 459 323 368 276 336 328 1155 314 266 449 265 295 458 431 374 495 327 365 452 406 315 408 1025 342 460 586 253 1157 365 285
leaf_count=283 386 424 459 323 368 276 336 328 1155 314 266 449 265 295 458 431 374 495 327 365 452 406 315 408 1025 342 460 586 253 1157 365 285
internal_value=-2.12555e-09 -2.97633e-05 -6.52129e-05 0.0003057 -0.0001128 0.00194686 -0.000166684 -0.000235213 -0.000190236 -0.000653813 -9.01934e-05 -0.00015051 -0.00187796 -7.04889e-05 -0.000511599 -6.23903e-05 -0.00134569 0.000910476 0.000105314 5.18045e-06 -0.000125826 0.000446045 -8.37997e-05 0.000754502 -0.000347141 -0.000615017 -0.000396778 -9.46116e-05 0.000541514 0.000194925 -0.000382145 0.000865344
internal_weight=14431 14148 13724 2948 2349 599 10776 10105 9769 1734 8035 7769 579 7320 2086 1628 702 926 5234 4939 4204 1173 721 735 3031 2006 1641 1299 713 1890 733 671
internal_count=14431 14148 13724 2948 2349 599 10776 10105 9769 1734 8035 7769 579 7320 2086 1628 702 926 5234 4939 4204 1173 721 735 3031 2006 1641 1299 713 1890 733 671
is_linear=0
shrinkage=0.830302


Tree=24
num_leaves=33
num_cat=0
split_feature=204 204 93 200 143 202 202 203 202 203 203 97 106 202 202 185 181 203 23 202 203 203 170 181 135 204 204 125 137 204 139 164
split_gain=0.00081104 0.001358 0.000529467 0.000781436 0.00130702 0.00147027 0.00240094 0.00118104 0.00210966 0.000774317 0.00179449 0.00131748 0.000975054 0.00131861 0.000724286 0.00233287 0.00122854 0.00114993 0.00071145 0.000549913 0.001328 0.00135823 0.00177383 0.00145108 0.00130475 0.000730942 0.000638328 0.00170981 0.00143763 0.000518342 0.0013472 0.000675888
threshold=0.081774790526001964 0.079970019957847513 2.4819671119315259 10.500000000000002 0.0007528486877229029 0.80517158465147076 0.82909772394507608 0.94312790345406483 0.90598933245011526 0.82304951387873293 0.83734707745676429 0.083525342529541677 19.507176733601515 0.87693168702316748 0.85512170240658614 0.1589804840274803 0.19582023152135999 0.89177751952200757 12.872923712467651 0.89755757540808878 0.92835004378272179 0.92164995471533839 0.29473030433604835 0.48074181546579192 0.59851738208868177 0.064230692786639246 0.069946761027804297 6.4107383292757354e-06 0.1439827081530867 0.055750161455619528 -0.76680611304775581 0.13190701039708699
decision_type=2 2 2 2 2 2 2 2 2 2 2 2 2 2 2 2 2 2 2 2 2 2 2 2 2 2 2 2 2 2 2 2
left_child=1 2 3 4 -1 -6 -7 8 18 11 -11 -4 13 -12 15 16 -14 -16 29 20 21 23 -23 25 -22 -19 27 -21 -28 30 -8 -31
right_child=-2 -3 9 -5 5 6 7 -9 -10 10 12 -13 14 -15 17 -17 -18 19 -20 26 24 22 -24 -25 -26 -27 28 -29 -30 31 -32 -33
leaf_value=0.0014001558615483662 -0.0014096443338078904 0.001828047832980667 -0.00010331763575518464 -0.0013358120422682219 -0.0021077315099331541 0.0021920719761593264 -0.00082860101862058716 0.00090706061341199731 -0.002785596165265108 -0.0019489959460488352 0.0017159543914944968 0.002478382957906406 -0.00066394906045746623 0.00016077975018806678 0.001829284523419832 -0.001990311084083562 0.0018041341407260226 0.0012463298325144604 -0.0016203508863513309 -0.0020293769611382704 -0.0027124820866760014 -0.00052878998278428515 0.0023360572406223999 -0.0016830450287585478 -0.00019955874636432998 -0.00024911106439765425 0.002073457821298173 0.00099366574612339215 0.00018480583564344584 -5.6866729694182499e-05 0.001796207712757772 -0.0011098691791124808
leaf_weight=355 276 283 301 403 277 285 255 476 255 299 567 249 295 1115 252 485 263 298 254 255 265 260 349 414 308 924 344 261 1445 1492 286 585
leaf_count=355 276 283 301 403 277 285 255 476 255 299 567 249 295 1115 252 485 263 298 254 255 265 260 349 414 308 924 344 261 1445 1492 286 585
internal_value=-3.56685e-10 2.74855e-05 -9.24747e-06 -0.000227952 -0.000129176 -0.000259528 -0.000127853 -0.00031136 -0.000496832 0.000111066 4.85665e-05 0.00106549 0.000122304 0.000685027 -2.51723e-05 -0.000658369 0.000499323 9.76973e-05 -0.000293616 1.25207e-05 -0.000233508 5.44524e-05 0.00111297 -0.00033958 -0.00136173 0.000115571 0.000313306 -0.00050028 0.000547968 -0.000164896 0.000559006 -0.000353451
internal_weight=14431 14155 13872 4923 4520 4165 3888 3603 3127 8949 8399 550 8100 1682 6418 1043 558 5375 2872 5123 2818 2245 609 1636 573 1222 2305 516 1789 2618 541 2077
internal_count=14431 14155 13872 4923 4520 4165 3888 3603 3127 8949 8399 550 8100 1682 6418 1043 558 5375 2872 5123 2818 2245 609 1636 573 1222 2305 516 1789 2618 541 2077
is_linear=0
shrinkage=0.830302


Tree=25
num_leaves=33
num_cat=0
split_feature=173 200 200 142 183 204 204 204 203 183 202 202 194 202 4 200 191 169 204 141 200 147 203 191 200 204 8 137 203 172 171 202
split_gain=0.000512732 0.00174391 0.00071326 0.00218526 0.00102446 0.000621757 0.00277525 0.000809274 0.000578148 0.00267108 0.00106655 0.00158051 0.00123504 0.00120471 0.00185778 0.0017411 0.00158424 0.000965903 0.000971171 0.000563036 0.000720739 0.000552715 0.000530986 0.00181145 0.000526866 0.00167081 0.00281151 0.00134142 0.00217815 0.00127053 0.000804548 0.000775941
threshold=114.58750462735706 9.5000000000000018 10.500000000000002 0.00094675258102759825 0.99743107769421269 0.076240338391478438 0.070719649832498871 0.050260505083105388 0.80997982733378937 0.99723325289426434 0.81700606536217135 0.82383218103661016 0.25501032131973994 0.8452839143866907 1.0267712345698145e+32 1.5000000000000002 1.043134274015994e-17 0.12169987364703429 0.052852648786687953 0.04580132635309752 3.5000000000000004 100.50000000000001 0.9034449938218756 2.4922059462784782e-17 7.5000000000000009 0.071166064499241052 -52.141795890588149 0.1420108782653586 0.93881619895801716 0.097117202185962467 0.1744263273763024 0.90280764776963551
decision_type=2 2 2 2 2 2 2 2 2 2 2 2 2 2 2 2 2 2 2 2 2 2 2 2 2 2 2 2 2 2 2 2
left_child=2 5 8 -4 -5 6 7 -2 9 -1 12 -12 -10 14 -13 -15 -16 -17 -19 22 -21 -22 23 -20 27 26 -26 28 -24 -27 -29 -31
right_child=1 -3 3 4 -6 -7 -8 -9 10 -11 11 13 -14 15 16 17 -18 18 19 20 21 -23 24 -25 25 29 -28 30 -30 31 -32 -33
leaf_value=0.0011227678751901942 -0.00050974062884349069 -0.0024175980593092207 0.0028245464486487824 0.001026541880262879 -0.00083176386148000106 0.00090499887415087588 -0.0027755974614352584 0.0012851777968244872 0.0021664003119681759 -0.0026390669881788658 -0.002084224548425512 -0.0006419966369014935 -0.00025433945561015048 -0.00185798324405356 0.00021786756660133663 0.0011696676596396607 0.0027767691765266983 -0.0013382154820342001 0.0002704120773773898 -0.00061816840449878602 0.0003860806002753493 0.0015929142352680782 -0.0026447608880764777 -0.0025948124186360904 -4.6222280399818021e-05 0.001254347140689783 0.0035145392292512401 -0.0010597680881821447 0.00044495672055588551 -0.00119967157155507 0.00016974418694156116 0.0003323127573297417
leaf_weight=247 324 259 255 386 435 341 250 372 336 275 251 365 256 361 292 463 389 392 396 368 1045 349 364 247 369 310 261 423 277 657 2767 349
leaf_count=247 324 259 255 386 435 341 250 372 336 275 251 365 256 361 292 463 389 392 396 368 1045 349 364 247 369 310 261 423 277 657 2767 349
internal_value=-6.02667e-11 -0.000451826 5.4212e-05 0.000701382 4.19341e-05 -5.62273e-05 -0.000402716 0.000449612 -4.75617e-06 -0.000859042 3.47527e-05 -2.52964e-05 0.00111959 2.41856e-05 0.000869457 -6.98933e-05 0.00167956 1.53536e-06 -6.15443e-05 -3.78952e-07 0.000415378 0.000688222 -0.000114485 -0.000830226 -3.48209e-05 0.000316999 0.00142895 -0.000213532 -0.00130958 -0.000215319 6.70855e-06 -0.000668198
internal_weight=14431 1546 12885 1076 821 1287 946 696 11809 522 11287 10695 592 10444 1046 9398 681 9037 8574 8182 1762 1394 6420 643 5777 1946 630 3831 641 1316 3190 1006
internal_count=14431 1546 12885 1076 821 1287 946 696 11809 522 11287 10695 592 10444 1046 9398 681 9037 8574 8182 1762 1394 6420 643 5777 1946 630 3831 641 1316 3190 1006
is_linear=0
shrinkage=0.830302


Tree=26
num_leaves=33
num_cat=0
split_feature=191 204 204 204 179 200 203 202 201 137 203 17 204 129 202 136 30 161 200 2 203 202 203 202 184 9 21 204 201 139 202 144
split_gain=0.000714537 0.000978829 0.00152532 0.00130993 0.00112064 0.001026 0.00127537 0.00108307 0.000776623 0.00210318 0.0038536 0.0019215 0.00154307 0.00247314 0.0016021 0.00111839 0.000748433 0.000673642 0.000604472 0.0012427 0.000603659 0.00053794 0.00104787 0.00165711 0.00187738 0.000925322 0.000759151 0.000720059 0.000513856 0.000706119 0.000611002 0.000649305
threshold=2.5849280060166351e-17 0.075810283372036755 0.077202211822067393 0.074871646941094216 0.059228940529532925 4.5000000000000009 0.93606964927685621 0.89127743340033294 950.00000000000011 0.1420108782653586 0.93191253456174905 0.48380574336006826 0.055750161455619528 0.30219070308472856 0.86629731248715136 0.30038407405940232 7.7110665566619367e-06 2.5513890787871267e-17 4.5000000000000009 -0.063450538990263122 0.8761751645959962 0.87733437052347019 0.8388655730532818 0.84052738496020674 0.71828478391674377 -7.0169155359940936 0.050297737432986815 0.068471893862809649 1850.0000000000002 -1.0977380147077922 0.90147817712639211 1.4293231481955073
decision_type=2 2 2 2 2 2 2 2 2 2 2 2 2 2 2 2 2 2 2 2 2 2 2 2 2 2 2 2 2 2 2 2
left_child=8 3 -3 4 18 16 7 -7 11 10 -10 15 13 -11 -14 -1 20 21 19 -2 -6 22 26 -24 -25 -23 -17 -26 29 -16 31 -31
right_child=1 2 -4 -5 5 6 -8 -9 9 12 -12 -13 14 -15 28 17 -18 -19 -20 -21 -22 25 23 24 27 -27 -28 -29 -30 30 -32 -33
leaf_value=-0.0015524861199527355 0.00028437063201705462 -0.0018901193481814414 0.00045459411207798047 0.0022698494809897819 0.0016582637745073603 -5.457867490145302e-05 -0.0012996705720707106 0.0019796276113293937 -0.0042123200684238624 0.0025450333873836433 -0.00016614240146391057 0.0021207920780733028 -0.0023662886561942142 -0.00081639716097651018 -0.0016220898070792179 0.0020317454744225852 0.0025399829476364785 -0.00044515365156147014 0.00023530194269652408 -0.0020209581018206528 0.00020088770912558683 0.00034026272232958414 -0.00222108165850408 0.0019652352574393373 -0.0014620044058040759 0.0020737501262733673 1.3899397025229526e-05 0.0003682613989690924 0.00073542273884237585 0.0013234596833410655 -0.00071861484925256553 -0.00010119649995796003
leaf_weight=306 328 342 434 253 372 486 307 287 261 347 429 309 250 267 256 247 250 1146 788 317 414 967 275 264 350 272 268 257 369 252 994 1767
leaf_count=306 328 342 434 253 372 486 307 287 261 347 429 309 250 267 256 247 250 1146 788 317 414 967 275 264 350 272 268 257 369 252 994 1767
internal_value=-1.39263e-11 0.000271048 -0.000578772 0.000444499 0.000314374 0.00069833 0.000132064 0.000700683 -0.000125937 -0.000346804 -0.00169665 0.000120091 -0.000139919 0.0010833 -0.000333092 -2.19624e-05 0.00128865 9.37915e-05 -0.000252584 -0.000848636 0.000890638 0.000306768 -2.08762e-06 -0.000444183 0.000116836 0.000720818 0.000981682 -0.000687081 -0.000193373 -0.000298214 -0.00018573 7.66209e-05
internal_weight=14431 4578 776 3802 3549 2116 1080 773 9853 5192 690 4661 4502 614 3888 4352 1036 4046 1433 645 786 2900 1661 1146 871 1239 515 607 3638 3269 3013 2019
internal_count=14431 4578 776 3802 3549 2116 1080 773 9853 5192 690 4661 4502 614 3888 4352 1036 4046 1433 645 786 2900 1661 1146 871 1239 515 607 3638 3269 3013 2019
is_linear=0
shrinkage=0.830302


Tree=27
num_leaves=33
num_cat=0
